{"learner":{"attributes":{},"feature_names":[],"feature_types":[],"gradient_booster":{"model":{"gbtree_model_param":{"num_trees":"500","size_leaf_vector":"0"},
"tree_info":[0,0,0,0,0,0,0,0,0,0,0,0,0,0,0,0,0,0,0,0,0,0,0,0,0,0,0,0,0,0,0,0,0,0,0,0,0,0,0,0,0,0,0,0,0,0,0,0,0,0,0,0,0,0,0,0,0,0,0,0,0,0,0,0,0,0,0,0,0,0,0,0,0,0,0,0,0,0,0,0,0,0,0,0,0,0,0,0,0,0,0,0,0,0,0,0,0,0,0,0,0,0,0,0,0,0,0,0,0,0,0,0,0,0,0,0,0,0,0,0,0,0,0,0,0,0,0,0,0,0,0,0,0,0,0,0,0,0,0,0,0,0,0,0,0,0,0,0,0,0,0,0,0,0,0,0,0,0,0,0,0,0,0,0,0,0,0,0,0,0,0,0,0,0,0,0,0,0,0,0,0,0,0,0,0,0,0,0,0,0,0,0,0,0,0,0,0,0,0,0,0,0,0,0,0,0,0,0,0,0,0,0,0,0,0,0,0,0,0,0,0,0,0,0,0,0,0,0,0,0,0,0,0,0,0,0,0,0,0,0,0,0,0,0,0,0,0,0,0,0,0,0,0,0,0,0,0,0,0,0,0,0,0,0,0,0,0,0,0,0,0,0,0,0,0,0,0,0,0,0,0,0,0,0,0,0,0,0,0,0,0,0,0,0,0,0,0,0,0,0,0,0,0,0,0,0,0,0,0,0,0,0,0,0,0,0,0,0,0,0,0,0,0,0,0,0,0,0,0,0,0,0,0,0,0,0,0,0,0,0,0,0,0,0,0,0,0,0,0,0,0,0,0,0,0,0,0,0,0,0,0,0,0,0,0,0,0,0,0,0,0,0,0,0,0,0,0,0,0,0,0,0,0,0,0,0,0,0,0,0,0,0,0,0,0,0,0,0,0,0,0,0,0,0,0,0,0,0,0,0,0,0,0,0,0,0,0,0,0,0,0,0,0,0,0,0,0,0,0,0,0,0,0,0,0,0,0,0,0,0,0,0,0,0,0,0,0,0,0,0,0,0,0,0,0,0,0,0,0,0,0,0,0,0,0,0,0,0,0,0,0,0,0,0,0,0,0,0,0,0,0,0,0,0,0,0,0,0,0,0,0,0,0,0,0,0,0,0,0,0],
"trees":
[
{
"base_weights":[0.0,0.0,0.0,0.0,0.0,0.0,0.0,0.0,0.0,0.0,0.0,0.0,0.0,0.0,0.0,0.0,0.0,0.0,0.0],
"categories":[],"categories_nodes":[],"categories_segments":[],"categories_sizes":[],
"default_left":[true,true,true,true,false,false,false,false,true,true,false,true,false,true,false,false,true,false,false],
"id":0,
"left_children":[1,3,5,7,-1,-1,-1,-1,9,11,-1,13,-1,15,-1,-1,17,-1,-1],
"loss_changes":[0.0,0.0,0.0,0.0,0.0,0.0,0.0,0.0,0.0,0.0,0.0,0.0,0.0,0.0,0.0,0.0,0.0,0.0,0.0],
"parents":[2147483647,0,0,1,1,2,2,3,3,8,8,9,9,11,11,13,13,16,16],
"right_children":[2,4,6,8,-1,-1,-1,-1,10,12,-1,14,-1,16,-1,-1,18,-1,-1],
"split_conditions":[2.9970366507768631e-02,1.3793398439884186e-01,8.5219010710716248e-02,1.8084680557250977e+01,-4.1246950626373291e-02,-3.9643675088882446e-02,-8.9090362191200256e-02,1.9631391391158104e-02,8.1173405051231384e-03,1.9188994169235229e+00,7.4232652783393860e-02,3.9273537695407867e-03,8.8204272091388702e-02,9.1470348834991455e-01,9.3697264790534973e-02,9.8440833389759064e-02,-6.8477737903594971e-01,9.9449478089809418e-02,9.9882565438747406e-02],
"split_indices":[7,2,7,0,0,0,0,0,7,9,0,7,0,8,0,0,1,0,0],
"split_type":[0,0,0,0,0,0,0,0,0,0,0,0,0,0,0,0,0,0,0],
"sum_hessian":[0.0,0.0,0.0,0.0,0.0,0.0,0.0,0.0,0.0,0.0,0.0,0.0,0.0,0.0,0.0,0.0,0.0,0.0,0.0],
"tree_param":{"num_deleted":"0","num_feature":"13","num_nodes":"19","size_leaf_vector":"0"}
},
{
"base_weights":[0.0,0.0,0.0,0.0,0.0,0.0,0.0,0.0,0.0,0.0,0.0,0.0,0.0,0.0,0.0,0.0,0.0,0.0,0.0],
"categories":[],"categories_nodes":[],"categories_segments":[],"categories_sizes":[],
"default_left":[true,true,true,true,false,false,false,false,true,true,false,true,false,true,false,true,false,false,false],
"id":1,
"left_children":[1,3,5,7,-1,-1,-1,-1,9,11,-1,13,-1,15,-1,17,-1,-1,-1],
"loss_changes":[0.0,0.0,0.0,0.0,0.0,0.0,0.0,0.0,0.0,0.0,0.0,0.0,0.0,0.0,0.0,0.0,0.0,0.0,0.0],
"parents":[2147483647,0,0,1,1,2,2,3,3,8,8,9,9,11,11,13,13,15,15],
"right_children":[2,4,6,8,-1,-1,-1,-1,10,12,-1,14,-1,16,-1,18,-1,-1,-1],
"split_conditions":[2.9970366507768631e-02,1.3793398439884186e-01,4.6946525573730469e+00,1.8819633483886719e+01,-3.7187792360782623e-02,-8.1628419458866119e-02,-3.3248890191316605e-02,2.0772155374288559e-02,7.9076671972870827e-03,6.1176838353276253e-03,6.7216254770755768e-02,-6.6528201103210449e+00,8.2035444676876068e-02,2.6465344708412886e-03,8.6107350885868073e-02,4.8147430419921875e+01,8.9252203702926636e-02,9.0420886874198914e-02,9.0970017015933990e-02],
"split_indices":[7,2,6,0,0,0,0,0,7,4,0,10,0,7,0,0,0,0,0],
"split_type":[0,0,0,0,0,0,0,0,0,0,0,0,0,0,0,0,0,0,0],
"sum_hessian":[0.0,0.0,0.0,0.0,0.0,0.0,0.0,0.0,0.0,0.0,0.0,0.0,0.0,0.0,0.0,0.0,0.0,0.0,0.0],
"tree_param":{"num_deleted":"0","num_feature":"13","num_nodes":"19","size_leaf_vector":"0"}
},
{
"base_weights":[0.0,0.0,0.0,0.0,0.0,0.0,0.0,0.0,0.0,0.0,0.0,0.0,0.0,0.0,0.0,0.0,0.0],
"categories":[],"categories_nodes":[],"categories_segments":[],"categories_sizes":[],
"default_left":[true,true,false,true,false,true,false,false,true,true,false,false,true,false,true,false,false],
"id":2,
"left_children":[1,3,-1,5,-1,7,-1,-1,9,11,-1,-1,13,-1,15,-1,-1],
"loss_changes":[0.0,0.0,0.0,0.0,0.0,0.0,0.0,0.0,0.0,0.0,0.0,0.0,0.0,0.0,0.0,0.0,0.0],
"parents":[2147483647,0,0,1,1,3,3,5,5,8,8,9,9,12,12,14,14],
"right_children":[2,4,-1,6,-1,8,-1,-1,10,12,-1,-1,14,-1,16,-1,-1],
"split_conditions":[3.6463946104049683e-02,1.6552077233791351e-01,-6.9309271872043610e-02,3.4406006336212158e+00,-4.0790107101202011e-02,7.8393691778182983e-01,5.5541512556374073e-03,4.9125939607620239e-02,4.9295458942651749e-02,2.9476457595825195e+01,7.1932300925254822e-02,7.7891968190670013e-02,4.3428550720214844e+01,8.2925431430339813e-02,4.7956767678260803e-01,8.3701528608798981e-02,8.4256753325462341e-02],
"split_indices":[7,2,0,9,0,8,0,0,2,0,0,0,0,0,9,0,0],
"split_type":[0,0,0,0,0,0,0,0,0,0,0,0,0,0,0,0,0],
"sum_hessian":[0.0,0.0,0.0,0.0,0.0,0.0,0.0,0.0,0.0,0.0,0.0,0.0,0.0,0.0,0.0,0.0,0.0],
"tree_param":{"num_deleted":"0","num_feature":"13","num_nodes":"17","size_leaf_vector":"0"}
},
{
"base_weights":[0.0,0.0,0.0,0.0,0.0,0.0,0.0,0.0,0.0,0.0,0.0,0.0,0.0,0.0,0.0,0.0,0.0,0.0,0.0,0.0,0.0],
"categories":[],"categories_nodes":[],"categories_segments":[],"categories_sizes":[],
"default_left":[true,true,true,true,false,true,false,false,true,false,false,true,false,true,false,true,false,true,false,false,false],
"id":3,
"left_children":[1,3,5,7,-1,9,-1,-1,11,-1,-1,13,-1,15,-1,17,-1,19,-1,-1,-1],
"loss_changes":[0.0,0.0,0.0,0.0,0.0,0.0,0.0,0.0,0.0,0.0,0.0,0.0,0.0,0.0,0.0,0.0,0.0,0.0,0.0,0.0,0.0],
"parents":[2147483647,0,0,1,1,2,2,3,3,5,5,8,8,11,11,13,13,15,15,17,17],
"right_children":[2,4,6,8,-1,10,-1,-1,12,-1,-1,14,-1,16,-1,18,-1,20,-1,-1,-1],
"split_conditions":[9.1955982148647308e-02,2.5474810972809792e-02,1.7107988595962524e+00,1.9922063827514648e+01,-2.1017082035541534e-02,4.0649676322937012e+00,-7.3484316468238831e-02,2.4066595360636711e-02,6.1344602145254612e-03,-4.9117006361484528e-02,2.7950990945100784e-02,3.5283719189465046e-03,6.4755916595458984e-02,1.3715289831161499e+00,7.5402177870273590e-02,2.3616999387741089e-03,7.8829884529113770e-02,9.4066470861434937e-01,7.7867351472377777e-02,7.9027347266674042e-02,7.8681901097297668e-02],
"split_indices":[2,7,9,0,0,6,0,0,7,0,0,7,0,9,0,7,0,8,0,0,0],
"split_type":[0,0,0,0,0,0,0,0,0,0,0,0,0,0,0,0,0,0,0,0,0],
"sum_hessian":[0.0,0.0,0.0,0.0,0.0,0.0,0.0,0.0,0.0,0.0,0.0,0.0,0.0,0.0,0.0,0.0,0.0,0.0,0.0,0.0,0.0],
"tree_param":{"num_deleted":"0","num_feature":"13","num_nodes":"21","size_leaf_vector":"0"}
},
{
"base_weights":[0.0,0.0,0.0,0.0,0.0,0.0,0.0,0.0,0.0,0.0,0.0,0.0,0.0,0.0,0.0,0.0,0.0,0.0,0.0,0.0,0.0],
"categories":[],"categories_nodes":[],"categories_segments":[],"categories_sizes":[],
"default_left":[true,true,true,true,false,true,false,false,false,true,false,true,false,true,false,true,false,true,false,false,false],
"id":4,
"left_children":[1,3,5,7,-1,9,-1,-1,-1,11,-1,13,-1,15,-1,17,-1,19,-1,-1,-1],
"loss_changes":[0.0,0.0,0.0,0.0,0.0,0.0,0.0,0.0,0.0,0.0,0.0,0.0,0.0,0.0,0.0,0.0,0.0,0.0,0.0,0.0,0.0],
"parents":[2147483647,0,0,1,1,2,2,3,3,5,5,9,9,11,11,13,13,15,15,17,17],
"right_children":[2,4,6,8,-1,10,-1,-1,-1,12,-1,14,-1,16,-1,18,-1,20,-1,-1,-1],
"split_conditions":[7.5385928153991699e-01,6.0029983520507812e+00,3.5045373439788818e+00,3.6963451653718948e-02,2.2543229162693024e-02,1.2987159192562103e-02,-2.2930527105927467e-02,-2.4983355775475502e-02,-7.0262871682643890e-02,-6.6029634475708008e+00,4.0164947509765625e-02,4.1819629259407520e-03,6.4180724322795868e-02,-5.9207839965820312e+00,7.0986032485961914e-02,2.8877696022391319e-03,7.2434812784194946e-02,7.2543725967407227e+00,7.4534058570861816e-02,7.3804251849651337e-02,7.4709683656692505e-02],
"split_indices":[8,6,9,7,0,7,0,0,0,10,0,3,0,11,0,7,0,6,0,0,0],
"split_type":[0,0,0,0,0,0,0,0,0,0,0,0,0,0,0,0,0,0,0,0,0],
"sum_hessian":[0.0,0.0,0.0,0.0,0.0,0.0,0.0,0.0,0.0,0.0,0.0,0.0,0.0,0.0,0.0,0.0,0.0,0.0,0.0,0.0,0.0],
"tree_param":{"num_deleted":"0","num_feature":"13","num_nodes":"21","size_leaf_vector":"0"}
},
{
"base_weights":[0.0,0.0,0.0,0.0,0.0,0.0,0.0,0.0,0.0,0.0,0.0,0.0,0.0,0.0,0.0,0.0,0.0,0.0,0.0],
"categories":[],"categories_nodes":[],"categories_segments":[],"categories_sizes":[],
"default_left":[true,true,true,true,false,false,false,false,true,true,false,false,true,true,false,false,true,false,false],
"id":5,
"left_children":[1,3,5,7,-1,-1,-1,-1,9,11,-1,-1,13,15,-1,-1,17,-1,-1],
"loss_changes":[0.0,0.0,0.0,0.0,0.0,0.0,0.0,0.0,0.0,0.0,0.0,0.0,0.0,0.0,0.0,0.0,0.0,0.0,0.0],
"parents":[2147483647,0,0,1,1,2,2,3,3,8,8,9,9,12,12,13,13,16,16],
"right_children":[2,4,6,8,-1,-1,-1,-1,10,12,-1,-1,14,16,-1,-1,18,-1,-1],
"split_conditions":[1.1034718155860901e-01,2.7972342446446419e-02,5.6762911379337311e-02,1.8819633483886719e+01,-2.0724924281239510e-02,-2.5293817743659019e-02,-6.5375082194805145e-02,1.3776689767837524e-02,9.9599249660968781e-03,2.8985689163208008e+01,5.6264307349920273e-02,6.4443312585353851e-02,-5.6303801536560059e+00,5.4475264549255371e+00,7.0467144250869751e-02,6.9355651736259460e-02,2.5400107260793447e-03,7.1158319711685181e-02,7.1067370474338531e-02],
"split_indices":[2,7,3,0,0,0,0,0,4,0,0,0,11,6,0,0,7,0,0],
"split_type":[0,0,0,0,0,0,0,0,0,0,0,0,0,0,0,0,0,0,0],
"sum_hessian":[0.0,0.0,0.0,0.0,0.0,0.0,0.0,0.0,0.0,0.0,0.0,0.0,0.0,0.0,0.0,0.0,0.0,0.0,0.0],
"tree_param":{"num_deleted":"0","num_feature":"13","num_nodes":"19","size_leaf_vector":"0"}
},
{
"base_weights":[0.0,0.0,0.0,0.0,0.0,0.0,0.0,0.0,0.0,0.0,0.0,0.0,0.0,0.0,0.0,0.0,0.0],
"categories":[],"categories_nodes":[],"categories_segments":[],"categories_sizes":[],
"default_left":[true,true,false,true,false,true,false,true,false,true,false,true,false,false,true,false,false],
"id":6,
"left_children":[1,3,-1,5,-1,7,-1,9,-1,11,-1,13,-1,-1,15,-1,-1],
"loss_changes":[0.0,0.0,0.0,0.0,0.0,0.0,0.0,0.0,0.0,0.0,0.0,0.0,0.0,0.0,0.0,0.0,0.0],
"parents":[2147483647,0,0,1,1,3,3,5,5,7,7,9,9,11,11,14,14],
"right_children":[2,4,-1,6,-1,8,-1,10,-1,12,-1,14,-1,-1,16,-1,-1],
"split_conditions":[4.6953573822975159e-02,1.7471636831760406e-01,-5.6663300842046738e-02,3.5844581127166748e+00,-3.0059847980737686e-02,2.0948117598891258e-02,-1.7532899510115385e-03,1.3195103965699673e-02,3.8924127817153931e-02,6.8726926110684872e-03,5.3412515670061111e-02,3.3099433898925781e+01,6.4721070230007172e-02,6.2082178890705109e-02,1.4660635963082314e-02,6.8177074193954468e-02,6.8569496273994446e-02],
"split_indices":[7,2,0,9,0,4,0,3,0,7,0,0,0,0,2,0,0],
"split_type":[0,0,0,0,0,0,0,0,0,0,0,0,0,0,0,0,0],
"sum_hessian":[0.0,0.0,0.0,0.0,0.0,0.0,0.0,0.0,0.0,0.0,0.0,0.0,0.0,0.0,0.0,0.0,0.0],
"tree_param":{"num_deleted":"0","num_feature":"13","num_nodes":"17","size_leaf_vector":"0"}
},
{
"base_weights":[0.0,0.0,0.0,0.0,0.0,0.0,0.0,0.0,0.0,0.0,0.0,0.0,0.0,0.0,0.0,0.0,0.0],
"categories":[],"categories_nodes":[],"categories_segments":[],"categories_sizes":[],
"default_left":[true,true,false,true,false,false,true,false,true,true,false,true,false,true,false,false,false],
"id":7,
"left_children":[1,3,-1,5,-1,-1,7,-1,9,11,-1,13,-1,15,-1,-1,-1],
"loss_changes":[0.0,0.0,0.0,0.0,0.0,0.0,0.0,0.0,0.0,0.0,0.0,0.0,0.0,0.0,0.0,0.0,0.0],
"parents":[2147483647,0,0,1,1,3,3,6,6,8,8,9,9,11,11,13,13],
"right_children":[2,4,-1,6,-1,-1,8,-1,10,12,-1,14,-1,16,-1,-1,-1],
"split_conditions":[4.7453079372644424e-02,1.7471636831760406e-01,-5.3502634167671204e-02,1.6827218933030963e-03,-2.7514392510056496e-02,-1.9751717336475849e-03,7.6162409782409668e-01,2.9356442391872406e-02,3.2830343116074800e-03,6.8265353329479694e-03,5.6362759321928024e-02,1.5832751989364624e+00,6.1014380306005478e-02,1.8763758242130280e-02,6.6085398197174072e-02,6.5673552453517914e-02,6.5843552350997925e-02],
"split_indices":[7,2,0,7,0,0,8,0,4,7,0,9,0,2,0,0,0],
"split_type":[0,0,0,0,0,0,0,0,0,0,0,0,0,0,0,0,0],
"sum_hessian":[0.0,0.0,0.0,0.0,0.0,0.0,0.0,0.0,0.0,0.0,0.0,0.0,0.0,0.0,0.0,0.0,0.0],
"tree_param":{"num_deleted":"0","num_feature":"13","num_nodes":"17","size_leaf_vector":"0"}
},
{
"base_weights":[0.0,0.0,0.0,0.0,0.0,0.0,0.0,0.0,0.0,0.0,0.0,0.0,0.0,0.0,0.0,0.0,0.0,0.0,0.0,0.0,0.0],
"categories":[],"categories_nodes":[],"categories_segments":[],"categories_sizes":[],
"default_left":[true,true,true,true,false,true,false,false,true,false,false,false,true,true,false,true,false,true,false,false,false],
"id":8,
"left_children":[1,3,5,7,-1,9,-1,-1,11,-1,-1,-1,13,15,-1,17,-1,19,-1,-1,-1],
"loss_changes":[0.0,0.0,0.0,0.0,0.0,0.0,0.0,0.0,0.0,0.0,0.0,0.0,0.0,0.0,0.0,0.0,0.0,0.0,0.0,0.0,0.0],
"parents":[2147483647,0,0,1,1,2,2,3,3,5,5,8,8,12,12,13,13,15,15,17,17],
"right_children":[2,4,6,8,-1,10,-1,-1,12,-1,-1,-1,14,16,-1,18,-1,20,-1,-1,-1],
"split_conditions":[9.1955982148647308e-02,-5.8268017768859863e+00,6.0559720993041992e+00,7.4280917644500732e-01,-2.1033383905887604e-02,1.3715124130249023e+00,1.5479866415262222e-02,9.7350105643272400e-03,2.2803597450256348e+00,-2.6110833510756493e-02,-5.8981563895940781e-02,4.6844501048326492e-02,3.6717094480991364e-02,4.4933590106666088e-03,5.5108353495597839e-02,1.3349173069000244e+00,6.1579190194606781e-02,1.7815990140661597e-03,6.4068742096424103e-02,6.4545974135398865e-02,6.3728280365467072e-02],
"split_indices":[2,10,6,8,0,9,0,0,6,0,0,0,2,7,0,9,0,7,0,0,0],
"split_type":[0,0,0,0,0,0,0,0,0,0,0,0,0,0,0,0,0,0,0,0,0],
"sum_hessian":[0.0,0.0,0.0,0.0,0.0,0.0,0.0,0.0,0.0,0.0,0.0,0.0,0.0,0.0,0.0,0.0,0.0,0.0,0.0,0.0,0.0],
"tree_param":{"num_deleted":"0","num_feature":"13","num_nodes":"21","size_leaf_vector":"0"}
},
{
"base_weights":[0.0,0.0,0.0,0.0,0.0,0.0,0.0,0.0,0.0,0.0,0.0,0.0,0.0,0.0,0.0,0.0,0.0],
"categories":[],"categories_nodes":[],"categories_segments":[],"categories_sizes":[],
"default_left":[true,true,false,true,false,false,true,true,false,true,false,true,false,true,false,false,false],
"id":9,
"left_children":[1,3,-1,5,-1,-1,7,9,-1,11,-1,13,-1,15,-1,-1,-1],
"loss_changes":[0.0,0.0,0.0,0.0,0.0,0.0,0.0,0.0,0.0,0.0,0.0,0.0,0.0,0.0,0.0,0.0,0.0],
"parents":[2147483647,0,0,1,1,3,3,6,6,7,7,9,9,11,11,13,13],
"right_children":[2,4,-1,6,-1,-1,8,10,-1,12,-1,14,-1,16,-1,-1,-1],
"split_conditions":[5.1948636770248413e-02,4.2572181671857834e-02,-4.9612674862146378e-02,1.6612787730991840e-03,-2.8874920681118965e-02,-2.0621284842491150e-02,3.7570562213659286e-02,5.5173590779304504e-02,2.2861391305923462e-02,6.8123857490718365e-03,5.7147357612848282e-02,1.6754045486450195e+00,5.3557343780994415e-02,4.3908047676086426e+00,6.1795957386493683e-02,6.1490014195442200e-02,6.1765406280755997e-02],
"split_indices":[7,3,0,7,0,0,4,2,0,7,0,9,0,6,0,0,0],
"split_type":[0,0,0,0,0,0,0,0,0,0,0,0,0,0,0,0,0],
"sum_hessian":[0.0,0.0,0.0,0.0,0.0,0.0,0.0,0.0,0.0,0.0,0.0,0.0,0.0,0.0,0.0,0.0,0.0],
"tree_param":{"num_deleted":"0","num_feature":"13","num_nodes":"17","size_leaf_vector":"0"}
},
{
"base_weights":[0.0,0.0,0.0,0.0,0.0,0.0,0.0,0.0,0.0,0.0,0.0,0.0,0.0,0.0,0.0,0.0,0.0],
"categories":[],"categories_nodes":[],"categories_segments":[],"categories_sizes":[],
"default_left":[true,true,false,true,false,false,true,true,false,true,false,true,false,false,true,false,false],
"id":10,
"left_children":[1,3,-1,5,-1,-1,7,9,-1,11,-1,13,-1,-1,15,-1,-1],
"loss_changes":[0.0,0.0,0.0,0.0,0.0,0.0,0.0,0.0,0.0,0.0,0.0,0.0,0.0,0.0,0.0,0.0,0.0],
"parents":[2147483647,0,0,1,1,3,3,6,6,7,7,9,9,11,11,14,14],
"right_children":[2,4,-1,6,-1,-1,8,10,-1,12,-1,14,-1,-1,16,-1,-1],
"split_conditions":[5.7942707091569901e-02,1.8391196429729462e-01,-4.7999542206525803e-02,8.8680660724639893e-01,-2.4165244773030281e-02,-7.7281808480620384e-03,2.3122757673263550e-02,-6.3425970077514648e+00,2.7684524655342102e-02,7.0340503007173538e-03,4.0560074150562286e-02,1.7532298807054758e-03,5.2142884582281113e-02,6.0040500015020370e-02,2.7384743094444275e-02,6.0144759714603424e-02,5.9927888214588165e-02],
"split_indices":[7,2,0,6,0,0,4,10,0,7,0,7,0,0,2,0,0],
"split_type":[0,0,0,0,0,0,0,0,0,0,0,0,0,0,0,0,0],
"sum_hessian":[0.0,0.0,0.0,0.0,0.0,0.0,0.0,0.0,0.0,0.0,0.0,0.0,0.0,0.0,0.0,0.0,0.0],
"tree_param":{"num_deleted":"0","num_feature":"13","num_nodes":"17","size_leaf_vector":"0"}
},
{
"base_weights":[0.0,0.0,0.0,0.0,0.0,0.0,0.0,0.0,0.0,0.0,0.0,0.0,0.0,0.0,0.0,0.0,0.0,0.0,0.0,0.0,0.0],
"categories":[],"categories_nodes":[],"categories_segments":[],"categories_sizes":[],
"default_left":[true,true,true,true,false,true,false,false,false,true,false,true,false,true,false,true,false,false,true,false,false],
"id":11,
"left_children":[1,3,5,7,-1,9,-1,-1,-1,11,-1,13,-1,15,-1,17,-1,-1,19,-1,-1],
"loss_changes":[0.0,0.0,0.0,0.0,0.0,0.0,0.0,0.0,0.0,0.0,0.0,0.0,0.0,0.0,0.0,0.0,0.0,0.0,0.0,0.0,0.0],
"parents":[2147483647,0,0,1,1,2,2,3,3,5,5,9,9,11,11,13,13,15,15,18,18],
"right_children":[2,4,6,8,-1,10,-1,-1,-1,12,-1,14,-1,16,-1,18,-1,-1,20,-1,-1],
"split_conditions":[7.3619914054870605e-01,5.8210892677307129e+00,3.6364068984985352e+00,1.2636452913284302e+00,3.3918175846338272e-02,1.9579188898205757e-02,-2.3446626961231232e-02,-2.6551777496933937e-02,-5.3735677152872086e-02,1.7728813886642456e+00,2.2615455090999603e-02,6.9930856116116047e-03,4.1406560689210892e-02,2.7599086984992027e-02,5.4693263024091721e-02,1.7472114413976669e-03,5.9570692479610443e-02,5.9833224862813950e-02,5.9180407524108887e+00,5.8960635215044022e-02,5.8691587299108505e-02],
"split_indices":[8,6,9,9,0,3,0,0,0,9,0,7,0,2,0,7,0,0,6,0,0],
"split_type":[0,0,0,0,0,0,0,0,0,0,0,0,0,0,0,0,0,0,0,0,0],
"sum_hessian":[0.0,0.0,0.0,0.0,0.0,0.0,0.0,0.0,0.0,0.0,0.0,0.0,0.0,0.0,0.0,0.0,0.0,0.0,0.0,0.0,0.0],
"tree_param":{"num_deleted":"0","num_feature":"13","num_nodes":"21","size_leaf_vector":"0"}
},
{
"base_weights":[0.0,0.0,0.0,0.0,0.0,0.0,0.0,0.0,0.0,0.0,0.0,0.0,0.0,0.0,0.0,0.0,0.0],
"categories":[],"categories_nodes":[],"categories_segments":[],"categories_sizes":[],
"default_left":[true,true,false,true,false,false,true,true,false,true,false,true,false,true,false,false,false],
"id":12,
"left_children":[1,3,-1,5,-1,-1,7,9,-1,11,-1,13,-1,15,-1,-1,-1],
"loss_changes":[0.0,0.0,0.0,0.0,0.0,0.0,0.0,0.0,0.0,0.0,0.0,0.0,0.0,0.0,0.0,0.0,0.0],
"parents":[2147483647,0,0,1,1,3,3,6,6,7,7,9,9,11,11,13,13],
"right_children":[2,4,-1,6,-1,-1,8,10,-1,12,-1,14,-1,16,-1,-1,-1],
"split_conditions":[7.3926903307437897e-02,4.5770093798637390e-02,-4.6140059828758240e-02,1.6622242983430624e-03,-2.7247024700045586e-02,-2.0289428532123566e-02,4.4964767992496490e-02,6.4369186758995056e-02,1.4611111022531986e-02,2.1418852806091309e+00,4.8828110098838806e-02,6.7895343527197838e-03,5.0672732293605804e-02,4.3908047676086426e+00,5.0050422549247742e-02,5.7506512850522995e-02,5.7578306645154953e-02],
"split_indices":[7,3,0,7,0,0,4,2,0,9,0,7,0,6,0,0,0],
"split_type":[0,0,0,0,0,0,0,0,0,0,0,0,0,0,0,0,0],
"sum_hessian":[0.0,0.0,0.0,0.0,0.0,0.0,0.0,0.0,0.0,0.0,0.0,0.0,0.0,0.0,0.0,0.0,0.0],
"tree_param":{"num_deleted":"0","num_feature":"13","num_nodes":"17","size_leaf_vector":"0"}
},
{
"base_weights":[0.0,0.0,0.0,0.0,0.0,0.0,0.0,0.0,0.0,0.0,0.0,0.0,0.0,0.0,0.0,0.0,0.0,0.0,0.0,0.0,0.0],
"categories":[],"categories_nodes":[],"categories_segments":[],"categories_sizes":[],
"default_left":[true,true,true,true,false,false,false,true,false,true,true,false,false,true,false,false,true,true,false,false,false],
"id":13,
"left_children":[1,3,5,7,-1,-1,-1,9,-1,11,13,-1,-1,15,-1,-1,17,19,-1,-1,-1],
"loss_changes":[0.0,0.0,0.0,0.0,0.0,0.0,0.0,0.0,0.0,0.0,0.0,0.0,0.0,0.0,0.0,0.0,0.0,0.0,0.0,0.0,0.0],
"parents":[2147483647,0,0,1,1,2,2,3,3,7,7,9,9,10,10,13,13,16,16,17,17],
"right_children":[2,4,6,8,-1,-1,-1,10,-1,12,14,-1,-1,16,-1,-1,18,20,-1,-1,-1],
"split_conditions":[1.1954277753829956e-01,-5.7816886901855469e+00,5.0604696273803711e+00,2.8928352519869804e-02,-2.2012993693351746e-02,-4.3264351785182953e-02,7.0348661392927170e-03,4.6874060630798340e+00,1.2637148611247540e-03,8.2988256216049194e-01,4.9950610846281052e-03,1.6852041706442833e-02,4.8056740313768387e-02,1.7692893743515015e-03,6.1809707432985306e-02,5.8722585439682007e-02,1.2159360647201538e+00,9.7967740148305893e-03,5.7480260729789734e-02,5.6609664112329483e-02,5.6769337505102158e-02],
"split_indices":[2,10,6,4,0,0,0,6,0,8,7,0,0,7,0,0,9,2,0,0,0],
"split_type":[0,0,0,0,0,0,0,0,0,0,0,0,0,0,0,0,0,0,0,0,0],
"sum_hessian":[0.0,0.0,0.0,0.0,0.0,0.0,0.0,0.0,0.0,0.0,0.0,0.0,0.0,0.0,0.0,0.0,0.0,0.0,0.0,0.0,0.0],
"tree_param":{"num_deleted":"0","num_feature":"13","num_nodes":"21","size_leaf_vector":"0"}
},
{
"base_weights":[0.0,0.0,0.0,0.0,0.0,0.0,0.0,0.0,0.0,0.0,0.0,0.0,0.0,0.0,0.0,0.0,0.0,0.0,0.0],
"categories":[],"categories_nodes":[],"categories_segments":[],"categories_sizes":[],
"default_left":[true,true,false,true,false,true,true,false,false,false,true,true,false,false,true,true,false,false,false],
"id":14,
"left_children":[1,3,-1,5,-1,7,9,-1,-1,-1,11,13,-1,-1,15,17,-1,-1,-1],
"loss_changes":[0.0,0.0,0.0,0.0,0.0,0.0,0.0,0.0,0.0,0.0,0.0,0.0,0.0,0.0,0.0,0.0,0.0,0.0,0.0],
"parents":[2147483647,0,0,1,1,3,3,5,5,6,6,10,10,11,11,14,14,15,15],
"right_children":[2,4,-1,6,-1,8,10,-1,-1,-1,12,14,-1,-1,16,18,-1,-1,-1],
"split_conditions":[3.6576099693775177e-02,2.9890472888946533e+00,-4.0643047541379929e-02,3.9272863864898682e+00,-2.1973393857479095e-02,1.5484689734876156e-02,8.0119776725769043e-01,4.8304207623004913e-02,-9.6657378599047661e-03,6.2497444450855255e-02,3.9960490539669991e-03,1.7644604668021202e-03,5.3697537630796432e-02,5.8037240058183670e-02,1.6704710200428963e-02,8.6861342191696167e-01,5.6677207350730896e-02,5.5656626820564270e-02,5.6446108967065811e-02],
"split_indices":[3,9,0,6,0,7,8,0,0,0,7,7,0,0,2,9,0,0,0],
"split_type":[0,0,0,0,0,0,0,0,0,0,0,0,0,0,0,0,0,0,0],
"sum_hessian":[0.0,0.0,0.0,0.0,0.0,0.0,0.0,0.0,0.0,0.0,0.0,0.0,0.0,0.0,0.0,0.0,0.0,0.0,0.0],
"tree_param":{"num_deleted":"0","num_feature":"13","num_nodes":"19","size_leaf_vector":"0"}
},
{
"base_weights":[0.0,0.0,0.0,0.0,0.0,0.0,0.0,0.0,0.0,0.0,0.0,0.0,0.0,0.0,0.0,0.0,0.0],
"categories":[],"categories_nodes":[],"categories_segments":[],"categories_sizes":[],
"default_left":[true,true,false,false,true,true,false,false,true,true,false,true,false,true,false,false,false],
"id":15,
"left_children":[1,3,-1,-1,5,7,-1,-1,9,11,-1,13,-1,15,-1,-1,-1],
"loss_changes":[0.0,0.0,0.0,0.0,0.0,0.0,0.0,0.0,0.0,0.0,0.0,0.0,0.0,0.0,0.0,0.0,0.0],
"parents":[2147483647,0,0,1,1,4,4,5,5,8,8,9,9,11,11,13,13],
"right_children":[2,4,-1,-1,6,8,-1,-1,10,12,-1,14,-1,16,-1,-1,-1],
"split_conditions":[7.9920977354049683e-02,1.6841987609863281e+01,-4.2320866137742996e-02,-1.8600245937705040e-02,3.6363203078508377e-02,2.5337331295013428e+00,-5.5424282327294350e-03,2.7492213994264603e-02,5.5173590779304504e-02,1.8501739501953125e+00,4.8322848975658417e-02,4.2758868075907230e-03,5.0646852701902390e-02,1.7661590827628970e-03,5.0573468208312988e-02,5.7205364108085632e-02,5.5108413100242615e-02],
"split_indices":[7,0,0,0,3,6,0,0,2,9,0,7,0,7,0,0,0],
"split_type":[0,0,0,0,0,0,0,0,0,0,0,0,0,0,0,0,0],
"sum_hessian":[0.0,0.0,0.0,0.0,0.0,0.0,0.0,0.0,0.0,0.0,0.0,0.0,0.0,0.0,0.0,0.0,0.0],
"tree_param":{"num_deleted":"0","num_feature":"13","num_nodes":"17","size_leaf_vector":"0"}
},
{
"base_weights":[0.0,0.0,0.0,0.0,0.0,0.0,0.0,0.0,0.0,0.0,0.0,0.0,0.0,0.0,0.0,0.0,0.0,0.0,0.0],
"categories":[],"categories_nodes":[],"categories_segments":[],"categories_sizes":[],
"default_left":[true,true,false,true,true,false,false,true,false,true,false,true,false,false,true,true,false,false,false],
"id":16,
"left_children":[1,3,-1,5,7,-1,-1,9,-1,11,-1,13,-1,-1,15,17,-1,-1,-1],
"loss_changes":[0.0,0.0,0.0,0.0,0.0,0.0,0.0,0.0,0.0,0.0,0.0,0.0,0.0,0.0,0.0,0.0,0.0,0.0,0.0],
"parents":[2147483647,0,0,1,1,3,3,4,4,7,7,9,9,11,11,14,14,15,15],
"right_children":[2,4,-1,6,8,-1,-1,10,-1,12,-1,14,-1,-1,16,18,-1,-1,-1],
"split_conditions":[7.9920977354049683e-02,1.9882837295532227e+01,-4.0322486311197281e-02,1.3036004304885864e+00,3.2167449593544006e-02,1.5590274706482887e-02,-3.0024778097867966e-02,6.4369186758995056e-02,2.6321157929487526e-04,2.0100157260894775e+00,4.1311558336019516e-02,1.7568119801580906e-03,4.5416627079248428e-02,5.6781977415084839e-02,-6.1974573135375977e+00,3.2793499995023012e-03,4.7394078224897385e-02,5.4797146469354630e-02,4.9346454441547394e-02],
"split_indices":[7,0,0,9,3,0,0,2,0,9,0,7,0,0,11,7,0,0,0],
"split_type":[0,0,0,0,0,0,0,0,0,0,0,0,0,0,0,0,0,0,0],
"sum_hessian":[0.0,0.0,0.0,0.0,0.0,0.0,0.0,0.0,0.0,0.0,0.0,0.0,0.0,0.0,0.0,0.0,0.0,0.0,0.0],
"tree_param":{"num_deleted":"0","num_feature":"13","num_nodes":"19","size_leaf_vector":"0"}
},
{
"base_weights":[0.0,0.0,0.0,0.0,0.0,0.0,0.0,0.0,0.0,0.0,0.0,0.0,0.0,0.0,0.0,0.0,0.0],
"categories":[],"categories_nodes":[],"categories_segments":[],"categories_sizes":[],
"default_left":[true,true,false,true,false,true,false,false,true,true,false,true,false,true,false,false,false],
"id":17,
"left_children":[1,3,-1,5,-1,7,-1,-1,9,11,-1,13,-1,15,-1,-1,-1],
"loss_changes":[0.0,0.0,0.0,0.0,0.0,0.0,0.0,0.0,0.0,0.0,0.0,0.0,0.0,0.0,0.0,0.0,0.0],
"parents":[2147483647,0,0,1,1,3,3,5,5,8,8,9,9,11,11,13,13],
"right_children":[2,4,-1,6,-1,8,-1,-1,10,12,-1,14,-1,16,-1,-1,-1],
"split_conditions":[5.6563042104244232e-02,-5.8628926277160645e+00,-4.0209334343671799e-02,5.7155214250087738e-02,-2.6577612385153770e-02,1.7231864929199219e+01,-6.0861827805638313e-03,9.7105493769049644e-03,6.4369186758995056e-02,6.9930856116116047e-03,5.4336346685886383e-02,1.5233585834503174e+00,4.3015226721763611e-02,4.1999001502990723e+00,5.1379997283220291e-02,5.3606368601322174e-02,5.3710035979747772e-02],
"split_indices":[3,10,0,4,0,0,0,0,2,7,0,9,0,6,0,0,0],
"split_type":[0,0,0,0,0,0,0,0,0,0,0,0,0,0,0,0,0],
"sum_hessian":[0.0,0.0,0.0,0.0,0.0,0.0,0.0,0.0,0.0,0.0,0.0,0.0,0.0,0.0,0.0,0.0,0.0],
"tree_param":{"num_deleted":"0","num_feature":"13","num_nodes":"17","size_leaf_vector":"0"}
},
{
"base_weights":[0.0,0.0,0.0,0.0,0.0,0.0,0.0,0.0,0.0,0.0,0.0,0.0,0.0,0.0,0.0,0.0,0.0,0.0,0.0],
"categories":[],"categories_nodes":[],"categories_segments":[],"categories_sizes":[],
"default_left":[true,true,false,true,true,false,false,true,false,true,false,true,false,true,false,true,false,false,false],
"id":18,
"left_children":[1,3,-1,5,7,-1,-1,9,-1,11,-1,13,-1,15,-1,17,-1,-1,-1],
"loss_changes":[0.0,0.0,0.0,0.0,0.0,0.0,0.0,0.0,0.0,0.0,0.0,0.0,0.0,0.0,0.0,0.0,0.0,0.0,0.0],
"parents":[2147483647,0,0,1,1,3,3,4,4,7,7,9,9,11,11,13,13,15,15],
"right_children":[2,4,-1,6,8,-1,-1,10,-1,12,-1,14,-1,16,-1,18,-1,-1,-1],
"split_conditions":[9.6904180943965912e-02,2.0269865989685059e+00,-3.8639958947896957e-02,1.3195824623107910e+00,4.4947788119316101e-02,1.0776373557746410e-02,-2.8725182637572289e-02,2.9580671340227127e-02,2.6413094019517303e-04,6.8738213740289211e-03,1.6838673502206802e-02,1.6991454362869263e+00,4.1841320693492889e-02,2.1299488842487335e-02,4.4337257742881775e-02,1.7750771949067712e-03,5.1739182323217392e-02,5.3488142788410187e-02,5.2518811076879501e-02],
"split_indices":[7,6,0,9,4,0,0,3,0,7,0,9,0,2,0,7,0,0,0],
"split_type":[0,0,0,0,0,0,0,0,0,0,0,0,0,0,0,0,0,0,0],
"sum_hessian":[0.0,0.0,0.0,0.0,0.0,0.0,0.0,0.0,0.0,0.0,0.0,0.0,0.0,0.0,0.0,0.0,0.0,0.0,0.0],
"tree_param":{"num_deleted":"0","num_feature":"13","num_nodes":"19","size_leaf_vector":"0"}
},
{
"base_weights":[0.0,0.0,0.0,0.0,0.0,0.0,0.0,0.0,0.0,0.0,0.0,0.0,0.0,0.0,0.0,0.0,0.0,0.0,0.0,0.0,0.0],
"categories":[],"categories_nodes":[],"categories_segments":[],"categories_sizes":[],
"default_left":[true,true,false,true,false,true,false,true,true,true,false,true,false,true,false,false,true,false,false,false,false],
"id":19,
"left_children":[1,3,-1,5,-1,7,-1,9,11,13,-1,15,-1,17,-1,-1,19,-1,-1,-1,-1],
"loss_changes":[0.0,0.0,0.0,0.0,0.0,0.0,0.0,0.0,0.0,0.0,0.0,0.0,0.0,0.0,0.0,0.0,0.0,0.0,0.0,0.0,0.0],
"parents":[2147483647,0,0,1,1,3,3,5,5,7,7,8,8,9,9,11,11,13,13,16,16],
"right_children":[2,4,-1,6,-1,8,-1,10,12,14,-1,16,-1,18,-1,-1,20,-1,-1,-1,-1],
"split_conditions":[6.2159385532140732e-02,2.9890472888946533e+00,-3.8314446806907654e-02,5.7155214250087738e-02,-2.0807353779673576e-02,7.0944528579711914e+00,-9.9221616983413696e-04,1.8981231376528740e-02,3.4965428058058023e-03,6.1800461262464523e-03,5.0607263110578060e-03,1.7926389118656516e-03,7.9806916415691376e-02,3.6124594211578369e+00,4.1711289435625076e-02,5.4568707942962646e-02,9.4090604782104492e-01,4.6227611601352692e-02,4.9491994082927704e-02,5.3195945918560028e-02,5.2629891782999039e-02],
"split_indices":[3,9,0,4,0,6,0,7,7,7,0,7,0,6,0,0,8,0,0,0,0],
"split_type":[0,0,0,0,0,0,0,0,0,0,0,0,0,0,0,0,0,0,0,0,0],
"sum_hessian":[0.0,0.0,0.0,0.0,0.0,0.0,0.0,0.0,0.0,0.0,0.0,0.0,0.0,0.0,0.0,0.0,0.0,0.0,0.0,0.0,0.0],
"tree_param":{"num_deleted":"0","num_feature":"13","num_nodes":"21","size_leaf_vector":"0"}
},
{
"base_weights":[0.0,0.0,0.0,0.0,0.0,0.0,0.0,0.0,0.0,0.0,0.0,0.0,0.0,0.0,0.0,0.0,0.0,0.0,0.0,0.0,0.0],
"categories":[],"categories_nodes":[],"categories_segments":[],"categories_sizes":[],
"default_left":[true,true,true,false,false,true,false,true,false,false,true,true,false,true,true,false,false,false,true,false,false],
"id":20,
"left_children":[1,3,5,-1,-1,7,-1,9,-1,-1,11,13,-1,15,17,-1,-1,-1,19,-1,-1],
"loss_changes":[0.0,0.0,0.0,0.0,0.0,0.0,0.0,0.0,0.0,0.0,0.0,0.0,0.0,0.0,0.0,0.0,0.0,0.0,0.0,0.0,0.0],
"parents":[2147483647,0,0,1,1,2,2,5,5,7,7,10,10,11,11,13,13,14,14,18,18],
"right_children":[2,4,6,-1,-1,8,-1,10,-1,-1,12,14,-1,16,18,-1,-1,-1,20,-1,-1],
"split_conditions":[6.9940721988677979e-01,5.1844077110290527e+00,3.9441025257110596e+00,-3.8524415343999863e-02,3.0718656256794930e-02,-6.2704234123229980e+00,-1.9551116973161697e-02,2.2053178787231445e+01,1.0175544768571854e-02,3.3560182899236679e-02,4.1045956313610077e-02,4.9966049194335938e+01,3.5019233822822571e-02,-6.5472354888916016e+00,9.3571531772613525e-01,5.0084847956895828e-02,4.1154555976390839e-02,5.5476814508438110e-02,1.3175412178039551e+01,5.4182171821594238e-02,5.4268863052129745e-02],
"split_indices":[8,6,9,0,0,10,0,0,0,0,2,0,0,11,8,0,0,0,6,0,0],
"split_type":[0,0,0,0,0,0,0,0,0,0,0,0,0,0,0,0,0,0,0,0,0],
"sum_hessian":[0.0,0.0,0.0,0.0,0.0,0.0,0.0,0.0,0.0,0.0,0.0,0.0,0.0,0.0,0.0,0.0,0.0,0.0,0.0,0.0,0.0],
"tree_param":{"num_deleted":"0","num_feature":"13","num_nodes":"21","size_leaf_vector":"0"}
},
{
"base_weights":[0.0,0.0,0.0,0.0,0.0,0.0,0.0,0.0,0.0,0.0,0.0,0.0,0.0,0.0,0.0,0.0,0.0],
"categories":[],"categories_nodes":[],"categories_segments":[],"categories_sizes":[],
"default_left":[true,true,false,true,false,false,true,true,false,true,false,true,false,false,true,false,false],
"id":21,
"left_children":[1,3,-1,5,-1,-1,7,9,-1,11,-1,13,-1,-1,15,-1,-1],
"loss_changes":[0.0,0.0,0.0,0.0,0.0,0.0,0.0,0.0,0.0,0.0,0.0,0.0,0.0,0.0,0.0,0.0,0.0],
"parents":[2147483647,0,0,1,1,3,3,6,6,7,7,9,9,11,11,14,14],
"right_children":[2,4,-1,6,-1,-1,8,10,-1,12,-1,14,-1,-1,16,-1,-1],
"split_conditions":[1.0989134013652802e-01,2.0230317115783691e-01,-3.5882301628589630e-02,1.7020298400893807e-03,-1.5580444596707821e-02,-7.6919994316995144e-03,2.5137741118669510e-02,2.4935374259948730e+00,1.1117637157440186e-02,6.7833340726792812e-03,4.0873717516660690e-02,4.3908047676086426e+00,3.4958247095346451e-02,4.9511812627315521e-02,1.9409203901886940e-02,5.0719492137432098e-02,4.7878570854663849e-02],
"split_indices":[7,2,0,7,0,0,4,9,0,7,0,6,0,0,2,0,0],
"split_type":[0,0,0,0,0,0,0,0,0,0,0,0,0,0,0,0,0],
"sum_hessian":[0.0,0.0,0.0,0.0,0.0,0.0,0.0,0.0,0.0,0.0,0.0,0.0,0.0,0.0,0.0,0.0,0.0],
"tree_param":{"num_deleted":"0","num_feature":"13","num_nodes":"17","size_leaf_vector":"0"}
},
{
"base_weights":[0.0,0.0,0.0,0.0,0.0,0.0,0.0,0.0,0.0,0.0,0.0,0.0,0.0,0.0,0.0,0.0,0.0,0.0,0.0,0.0,0.0],
"categories":[],"categories_nodes":[],"categories_segments":[],"categories_sizes":[],
"default_left":[true,true,true,true,false,false,false,true,true,false,false,false,true,true,false,false,true,true,false,false,false],
"id":22,
"left_children":[1,3,5,7,-1,-1,-1,9,11,-1,-1,-1,13,15,-1,-1,17,19,-1,-1,-1],
"loss_changes":[0.0,0.0,0.0,0.0,0.0,0.0,0.0,0.0,0.0,0.0,0.0,0.0,0.0,0.0,0.0,0.0,0.0,0.0,0.0,0.0,0.0],
"parents":[2147483647,0,0,1,1,2,2,3,3,7,7,8,8,12,12,13,13,16,16,17,17],
"right_children":[2,4,6,8,-1,-1,-1,10,12,-1,-1,-1,14,16,-1,-1,18,20,-1,-1,-1],
"split_conditions":[2.1658616065979004e+00,5.1166567951440811e-02,3.7794977426528931e-02,3.8005998134613037e+00,-1.5266081318259239e-02,9.9240709096193314e-03,-4.0159020572900772e-02,1.4485676772892475e-02,7.9847228527069092e-01,3.8810636848211288e-02,-4.8955669626593590e-03,5.4732330143451691e-02,3.9960490539669991e-03,1.7684524646028876e-03,4.2884305119514465e-02,5.3131811320781708e-02,1.6704710200428963e-02,6.9090425968170166e-01,5.1129642874002457e-02,5.0187356770038605e-02,5.1426369696855545e-02],
"split_indices":[9,3,2,6,0,0,0,7,8,0,0,0,7,7,0,0,2,9,0,0,0],
"split_type":[0,0,0,0,0,0,0,0,0,0,0,0,0,0,0,0,0,0,0,0,0],
"sum_hessian":[0.0,0.0,0.0,0.0,0.0,0.0,0.0,0.0,0.0,0.0,0.0,0.0,0.0,0.0,0.0,0.0,0.0,0.0,0.0,0.0,0.0],
"tree_param":{"num_deleted":"0","num_feature":"13","num_nodes":"21","size_leaf_vector":"0"}
},
{
"base_weights":[0.0,0.0,0.0,0.0,0.0,0.0,0.0,0.0,0.0,0.0,0.0,0.0,0.0,0.0,0.0,0.0,0.0,0.0,0.0],
"categories":[],"categories_nodes":[],"categories_segments":[],"categories_sizes":[],
"default_left":[true,true,false,true,false,true,false,false,true,true,false,true,true,true,false,false,false,false,false],
"id":23,
"left_children":[1,3,-1,5,-1,7,-1,-1,9,11,-1,13,15,17,-1,-1,-1,-1,-1],
"loss_changes":[0.0,0.0,0.0,0.0,0.0,0.0,0.0,0.0,0.0,0.0,0.0,0.0,0.0,0.0,0.0,0.0,0.0,0.0,0.0],
"parents":[2147483647,0,0,1,1,3,3,5,5,8,8,9,9,11,11,12,12,13,13],
"right_children":[2,4,-1,6,-1,8,-1,-1,10,12,-1,14,16,18,-1,-1,-1,-1,-1],
"split_conditions":[7.6949723064899445e-02,-5.7004852294921875e+00,-3.6073714494705200e-02,6.3949890434741974e-02,-2.4404723197221756e-02,1.6428331375122070e+01,-7.1404189802706242e-03,4.0090787224471569e-03,8.2760386168956757e-02,1.2541978836059570e+01,4.2996585369110107e-02,3.7708918098360300e-03,9.6066617965698242e-01,1.4395153522491455e+00,2.2394550964236259e-02,6.6155813634395599e-02,5.2586019039154053e-02,4.4914148747920990e-02,3.6483231931924820e-02],
"split_indices":[3,10,0,4,0,0,0,0,2,6,0,4,8,9,0,0,0,0,0],
"split_type":[0,0,0,0,0,0,0,0,0,0,0,0,0,0,0,0,0,0,0],
"sum_hessian":[0.0,0.0,0.0,0.0,0.0,0.0,0.0,0.0,0.0,0.0,0.0,0.0,0.0,0.0,0.0,0.0,0.0,0.0,0.0],
"tree_param":{"num_deleted":"0","num_feature":"13","num_nodes":"19","size_leaf_vector":"0"}
},
{
"base_weights":[0.0,0.0,0.0,0.0,0.0,0.0,0.0,0.0,0.0,0.0,0.0,0.0,0.0,0.0,0.0,0.0,0.0,0.0,0.0,0.0,0.0],
"categories":[],"categories_nodes":[],"categories_segments":[],"categories_sizes":[],
"default_left":[true,true,false,true,true,false,false,true,false,true,true,false,true,false,false,true,false,true,false,false,false],
"id":24,
"left_children":[1,3,-1,5,7,-1,-1,9,-1,11,13,-1,15,-1,-1,17,-1,19,-1,-1,-1],
"loss_changes":[0.0,0.0,0.0,0.0,0.0,0.0,0.0,0.0,0.0,0.0,0.0,0.0,0.0,0.0,0.0,0.0,0.0,0.0,0.0,0.0,0.0],
"parents":[2147483647,0,0,1,1,3,3,4,4,7,7,9,9,10,10,12,12,15,15,17,17],
"right_children":[2,4,-1,6,8,-1,-1,10,-1,12,14,-1,16,-1,-1,18,-1,20,-1,-1,-1],
"split_conditions":[1.2537603080272675e-01,2.0269865989685059e+00,-3.3293813467025757e-02,3.2684992998838425e-02,4.5746859163045883e-02,1.2540328316390514e-02,-2.0504118874669075e-02,5.4507046006619930e-03,1.1549454648047686e-03,3.3742500305175781e+01,5.5500531196594238e+00,1.8337694928050041e-02,1.4594303369522095e+00,2.0487895235419273e-02,4.6859275549650192e-02,1.7833678051829338e-02,5.0617530941963196e-02,1.7927190056070685e-03,4.7893628478050232e-02,5.2507799118757248e-02,5.0001420080661774e-02],
"split_indices":[7,6,0,2,4,0,0,7,0,0,6,0,9,0,0,2,0,7,0,0,0],
"split_type":[0,0,0,0,0,0,0,0,0,0,0,0,0,0,0,0,0,0,0,0,0],
"sum_hessian":[0.0,0.0,0.0,0.0,0.0,0.0,0.0,0.0,0.0,0.0,0.0,0.0,0.0,0.0,0.0,0.0,0.0,0.0,0.0,0.0,0.0],
"tree_param":{"num_deleted":"0","num_feature":"13","num_nodes":"21","size_leaf_vector":"0"}
},
{
"base_weights":[0.0,0.0,0.0,0.0,0.0,0.0,0.0,0.0,0.0,0.0,0.0,0.0,0.0,0.0,0.0,0.0,0.0,0.0,0.0],
"categories":[],"categories_nodes":[],"categories_segments":[],"categories_sizes":[],
"default_left":[true,true,true,true,false,false,false,true,true,true,false,false,true,false,true,false,false,false,false],
"id":25,
"left_children":[1,3,5,7,-1,-1,-1,9,11,13,-1,-1,15,-1,17,-1,-1,-1,-1],
"loss_changes":[0.0,0.0,0.0,0.0,0.0,0.0,0.0,0.0,0.0,0.0,0.0,0.0,0.0,0.0,0.0,0.0,0.0,0.0,0.0],
"parents":[2147483647,0,0,1,1,2,2,3,3,7,7,8,8,9,9,12,12,14,14],
"right_children":[2,4,6,8,-1,-1,-1,10,12,14,-1,-1,16,-1,18,-1,-1,-1,-1],
"split_conditions":[2.4096205234527588e+00,5.2965391427278519e-02,4.5353971421718597e-02,6.4610195159912109e+00,-1.2639115564525127e-02,5.8951289393007755e-03,-3.8398373872041702e-02,1.0044977664947510e+00,8.7479013204574585e-01,2.0659898757934570e+01,-8.6931213736534119e-03,6.9043092429637909e-02,6.2667259216308594e+01,2.7808211743831635e-02,1.5320987440645695e-02,4.7958441078662872e-02,5.1910106092691422e-02,3.6217566579580307e-02,3.4752048552036285e-02],
"split_indices":[9,3,2,6,0,0,0,5,8,0,0,0,0,0,2,0,0,0,0],
"split_type":[0,0,0,0,0,0,0,0,0,0,0,0,0,0,0,0,0,0,0],
"sum_hessian":[0.0,0.0,0.0,0.0,0.0,0.0,0.0,0.0,0.0,0.0,0.0,0.0,0.0,0.0,0.0,0.0,0.0,0.0,0.0],
"tree_param":{"num_deleted":"0","num_feature":"13","num_nodes":"19","size_leaf_vector":"0"}
},
{
"base_weights":[0.0,0.0,0.0,0.0,0.0,0.0,0.0,0.0,0.0,0.0,0.0,0.0,0.0,0.0,0.0,0.0,0.0,0.0,0.0,0.0,0.0],
"categories":[],"categories_nodes":[],"categories_segments":[],"categories_sizes":[],
"default_left":[true,true,true,true,true,false,false,false,true,false,true,false,false,true,false,true,false,false,true,false,false],
"id":26,
"left_children":[1,3,5,7,9,-1,-1,-1,11,-1,13,-1,-1,15,-1,17,-1,-1,19,-1,-1],
"loss_changes":[0.0,0.0,0.0,0.0,0.0,0.0,0.0,0.0,0.0,0.0,0.0,0.0,0.0,0.0,0.0,0.0,0.0,0.0,0.0,0.0,0.0],
"parents":[2147483647,0,0,1,1,2,2,3,3,4,4,8,8,10,10,13,13,15,15,18,18],
"right_children":[2,4,6,8,10,-1,-1,-1,12,-1,14,-1,-1,16,-1,18,-1,-1,20,-1,-1],
"split_conditions":[1.9061186313629150e+00,4.1806597709655762e+00,5.2912965416908264e-02,7.1563553810119629e-01,7.3547714948654175e-01,6.6865212284028530e-03,-3.4948293119668961e-02,-2.1391266956925392e-02,-6.4662923812866211e+00,4.4167790561914444e-02,4.4955550692975521e-03,3.7704262882471085e-02,1.9382465630769730e-02,1.8883585929870605e-02,3.4780092537403107e-02,1.7853584140539169e-03,4.6989638358354568e-02,5.1236771047115326e-02,9.6023550033569336e+00,4.8249710351228714e-02,4.9322020262479782e-02],
"split_indices":[9,6,2,8,8,0,0,0,11,0,7,0,0,2,0,7,0,0,6,0,0],
"split_type":[0,0,0,0,0,0,0,0,0,0,0,0,0,0,0,0,0,0,0,0,0],
"sum_hessian":[0.0,0.0,0.0,0.0,0.0,0.0,0.0,0.0,0.0,0.0,0.0,0.0,0.0,0.0,0.0,0.0,0.0,0.0,0.0,0.0,0.0],
"tree_param":{"num_deleted":"0","num_feature":"13","num_nodes":"21","size_leaf_vector":"0"}
},
{
"base_weights":[0.0,0.0,0.0,0.0,0.0,0.0,0.0,0.0,0.0,0.0,0.0,0.0,0.0,0.0,0.0,0.0,0.0],
"categories":[],"categories_nodes":[],"categories_segments":[],"categories_sizes":[],
"default_left":[true,true,false,false,true,false,true,false,true,true,false,true,false,false,true,false,false],
"id":27,
"left_children":[1,3,-1,-1,5,-1,7,-1,9,11,-1,13,-1,-1,15,-1,-1],
"loss_changes":[0.0,0.0,0.0,0.0,0.0,0.0,0.0,0.0,0.0,0.0,0.0,0.0,0.0,0.0,0.0,0.0,0.0],
"parents":[2147483647,0,0,1,1,4,4,6,6,8,8,9,9,11,11,14,14],
"right_children":[2,4,-1,-1,6,-1,8,-1,10,12,-1,14,-1,-1,16,-1,-1],
"split_conditions":[1.2837307155132294e-01,1.6670131590217352e-03,-3.0414849519729614e-02,-2.4984501302242279e-02,6.2582331895828247e-01,-1.3068670406937599e-02,2.0643051147460938e+01,3.1825110316276550e-02,2.6493833065032959e+00,8.2091912627220154e-02,3.1094850972294807e-02,3.8005998134613037e+00,2.4090394377708435e-02,3.5763218998908997e-02,1.0014992952346802e+00,4.3961197137832642e-02,4.0012244135141373e-02],
"split_indices":[7,7,0,0,8,0,0,0,9,2,0,6,0,0,5,0,0],
"split_type":[0,0,0,0,0,0,0,0,0,0,0,0,0,0,0,0,0],
"sum_hessian":[0.0,0.0,0.0,0.0,0.0,0.0,0.0,0.0,0.0,0.0,0.0,0.0,0.0,0.0,0.0,0.0,0.0],
"tree_param":{"num_deleted":"0","num_feature":"13","num_nodes":"17","size_leaf_vector":"0"}
},
{
"base_weights":[0.0,0.0,0.0,0.0,0.0,0.0,0.0,0.0,0.0,0.0,0.0,0.0,0.0,0.0,0.0,0.0,0.0,0.0,0.0,0.0,0.0],
"categories":[],"categories_nodes":[],"categories_segments":[],"categories_sizes":[],
"default_left":[true,true,true,false,true,false,true,true,false,false,true,true,false,true,false,false,false,false,true,false,false],
"id":28,
"left_children":[1,3,5,-1,7,-1,9,11,-1,-1,13,15,-1,17,-1,-1,-1,-1,19,-1,-1],
"loss_changes":[0.0,0.0,0.0,0.0,0.0,0.0,0.0,0.0,0.0,0.0,0.0,0.0,0.0,0.0,0.0,0.0,0.0,0.0,0.0,0.0,0.0],
"parents":[2147483647,0,0,1,1,2,2,4,4,6,6,7,7,10,10,11,11,13,13,18,18],
"right_children":[2,4,6,-1,8,-1,10,12,-1,-1,14,16,-1,18,-1,-1,-1,-1,20,-1,-1],
"split_conditions":[5.4475264549255371e+00,6.7586034536361694e-01,7.0884108543395996e-01,-3.2570276409387589e-02,2.8019199371337891e+00,3.5942077636718750e-02,3.4114734649658203e+01,1.0044977664947510e+00,-1.5191216953098774e-02,2.5150291621685028e-03,1.4865337610244751e+00,2.9619565010070801e+00,6.1980118043720722e-03,9.0653872489929199e-01,3.7259358912706375e-02,3.3060211688280106e-02,3.0600698664784431e-02,4.5267671346664429e-02,6.4191047668457031e+01,4.9568433314561844e-02,5.1406752318143845e-02],
"split_indices":[6,8,8,0,9,0,0,5,0,0,9,6,0,8,0,0,0,0,0,0,0],
"split_type":[0,0,0,0,0,0,0,0,0,0,0,0,0,0,0,0,0,0,0,0,0],
"sum_hessian":[0.0,0.0,0.0,0.0,0.0,0.0,0.0,0.0,0.0,0.0,0.0,0.0,0.0,0.0,0.0,0.0,0.0,0.0,0.0,0.0,0.0],
"tree_param":{"num_deleted":"0","num_feature":"13","num_nodes":"21","size_leaf_vector":"0"}
},
{
"base_weights":[0.0,0.0,0.0,0.0,0.0,0.0,0.0,0.0,0.0,0.0,0.0,0.0,0.0,0.0,0.0,0.0,0.0],
"categories":[],"categories_nodes":[],"categories_segments":[],"categories_sizes":[],
"default_left":[true,true,false,true,false,false,true,true,false,true,false,true,false,false,true,false,false],
"id":29,
"left_children":[1,3,-1,5,-1,-1,7,9,-1,11,-1,13,-1,-1,15,-1,-1],
"loss_changes":[0.0,0.0,0.0,0.0,0.0,0.0,0.0,0.0,0.0,0.0,0.0,0.0,0.0,0.0,0.0,0.0,0.0],
"parents":[2147483647,0,0,1,1,3,3,6,6,7,7,9,9,11,11,14,14],
"right_children":[2,4,-1,6,-1,-1,8,10,-1,12,-1,14,-1,-1,16,-1,-1],
"split_conditions":[7.8148938715457916e-02,3.0975729227066040e-02,-3.0175311490893364e-02,1.5624799728393555e+01,-1.3585755601525307e-02,-5.7453783228993416e-03,9.1955982148647308e-02,2.8012330532073975e+00,3.4628063440322876e-02,6.9930856116116047e-03,2.4078531190752983e-02,4.0089955329895020e+00,2.7038270607590675e-02,4.5464731752872467e-02,1.7689614323899150e-03,5.1713116466999054e-02,4.4016834348440170e-02],
"split_indices":[3,4,0,0,0,0,2,9,0,7,0,6,0,0,7,0,0],
"split_type":[0,0,0,0,0,0,0,0,0,0,0,0,0,0,0,0,0],
"sum_hessian":[0.0,0.0,0.0,0.0,0.0,0.0,0.0,0.0,0.0,0.0,0.0,0.0,0.0,0.0,0.0,0.0,0.0],
"tree_param":{"num_deleted":"0","num_feature":"13","num_nodes":"17","size_leaf_vector":"0"}
},
{
"base_weights":[0.0,0.0,0.0,0.0,0.0,0.0,0.0,0.0,0.0,0.0,0.0,0.0,0.0,0.0,0.0,0.0,0.0,0.0,0.0,0.0,0.0],
"categories":[],"categories_nodes":[],"categories_segments":[],"categories_sizes":[],
"default_left":[true,true,true,true,true,false,false,true,false,false,true,false,false,true,false,true,false,true,false,false,false],
"id":30,
"left_children":[1,3,5,7,9,-1,-1,11,-1,-1,13,-1,-1,15,-1,17,-1,19,-1,-1,-1],
"loss_changes":[0.0,0.0,0.0,0.0,0.0,0.0,0.0,0.0,0.0,0.0,0.0,0.0,0.0,0.0,0.0,0.0,0.0,0.0,0.0,0.0,0.0],
"parents":[2147483647,0,0,1,1,2,2,3,3,4,4,7,7,10,10,13,13,15,15,17,17],
"right_children":[2,4,6,8,10,-1,-1,12,-1,-1,14,-1,-1,16,-1,18,-1,20,-1,-1,-1],
"split_conditions":[-6.3410925865173340e+00,4.1806597709655762e+00,6.2658026814460754e-02,1.0074962377548218e+00,7.0081293582916260e-01,3.6532041849568486e-04,-3.2510377466678619e-02,-6.2606940269470215e+00,-2.0403929054737091e-02,3.8743861019611359e-02,5.4945670999586582e-03,3.2713882625102997e-02,1.1585765518248081e-02,1.2236949205398560e+00,2.6967506855726242e-02,1.6169618815183640e-02,4.4417712837457657e-02,1.8310546875000000e-03,4.3681807816028595e-02,5.0926167517900467e-02,4.4821530580520630e-02],
"split_indices":[10,6,2,5,8,0,0,11,0,0,7,0,0,9,0,2,0,7,0,0,0],
"split_type":[0,0,0,0,0,0,0,0,0,0,0,0,0,0,0,0,0,0,0,0,0],
"sum_hessian":[0.0,0.0,0.0,0.0,0.0,0.0,0.0,0.0,0.0,0.0,0.0,0.0,0.0,0.0,0.0,0.0,0.0,0.0,0.0,0.0,0.0],
"tree_param":{"num_deleted":"0","num_feature":"13","num_nodes":"21","size_leaf_vector":"0"}
},
{
"base_weights":[0.0,0.0,0.0,0.0,0.0,0.0,0.0,0.0,0.0,0.0,0.0,0.0,0.0,0.0,0.0,0.0,0.0],
"categories":[],"categories_nodes":[],"categories_segments":[],"categories_sizes":[],
"default_left":[true,true,false,false,true,false,true,false,true,true,false,true,false,false,true,false,false],
"id":31,
"left_children":[1,3,-1,-1,5,-1,7,-1,9,11,-1,13,-1,-1,15,-1,-1],
"loss_changes":[0.0,0.0,0.0,0.0,0.0,0.0,0.0,0.0,0.0,0.0,0.0,0.0,0.0,0.0,0.0,0.0,0.0],
"parents":[2147483647,0,0,1,1,4,4,6,6,8,8,9,9,11,11,14,14],
"right_children":[2,4,-1,-1,6,-1,8,-1,10,12,-1,14,-1,-1,16,-1,-1],
"split_conditions":[1.3986170291900635e-01,1.6764078754931688e-03,-2.7656849473714828e-02,-2.1692292764782906e-02,6.2214410305023193e-01,-9.3945963308215141e-03,2.0643051147460938e+01,2.8484683483839035e-02,2.6493833065032959e+00,8.4579549729824066e-02,2.7497073635458946e-02,3.8005998134613037e+00,2.1159801632165909e-02,2.9874803498387337e-02,1.0014992952346802e+00,3.9817053824663162e-02,3.4737411886453629e-02],
"split_indices":[7,7,0,0,8,0,0,0,9,2,0,6,0,0,5,0,0],
"split_type":[0,0,0,0,0,0,0,0,0,0,0,0,0,0,0,0,0],
"sum_hessian":[0.0,0.0,0.0,0.0,0.0,0.0,0.0,0.0,0.0,0.0,0.0,0.0,0.0,0.0,0.0,0.0,0.0],
"tree_param":{"num_deleted":"0","num_feature":"13","num_nodes":"17","size_leaf_vector":"0"}
},
{
"base_weights":[0.0,0.0,0.0,0.0,0.0,0.0,0.0,0.0,0.0,0.0,0.0,0.0,0.0,0.0,0.0,0.0,0.0,0.0,0.0,0.0,0.0,0.0,0.0],
"categories":[],"categories_nodes":[],"categories_segments":[],"categories_sizes":[],
"default_left":[true,true,true,true,false,false,true,false,true,false,true,false,true,true,false,true,false,false,false,false,true,false,false],
"id":32,
"left_children":[1,3,5,7,-1,-1,9,-1,11,-1,13,-1,15,17,-1,19,-1,-1,-1,-1,21,-1,-1],
"loss_changes":[0.0,0.0,0.0,0.0,0.0,0.0,0.0,0.0,0.0,0.0,0.0,0.0,0.0,0.0,0.0,0.0,0.0,0.0,0.0,0.0,0.0,0.0,0.0],
"parents":[2147483647,0,0,1,1,2,2,3,3,6,6,8,8,10,10,12,12,13,13,15,15,20,20],
"right_children":[2,4,6,8,-1,-1,10,-1,12,-1,14,-1,16,18,-1,20,-1,-1,-1,-1,22,-1,-1],
"split_conditions":[7.0944528579711914e+00,5.5944684892892838e-02,8.3353400230407715e-01,1.7611890798434615e-03,-3.3288177102804184e-02,4.9674835056066513e-02,4.6167652130126953e+01,-2.0881464704871178e-02,6.9204795360565186e-01,1.2480393052101135e-02,1.1268894672393799e+00,-6.5319081768393517e-03,7.1113422513008118e-02,9.5229214429855347e-01,4.3857518583536148e-02,3.1125998497009277e+00,2.3964002728462219e-02,4.8909582197666168e-02,4.9148131161928177e-02,2.7012312784790993e-02,9.0385788679122925e-01,1.9297875463962555e-02,4.2371273040771484e-02],
"split_indices":[6,7,8,7,0,0,0,0,8,0,9,0,2,8,0,6,0,0,0,0,8,0,0],
"split_type":[0,0,0,0,0,0,0,0,0,0,0,0,0,0,0,0,0,0,0,0,0,0,0],
"sum_hessian":[0.0,0.0,0.0,0.0,0.0,0.0,0.0,0.0,0.0,0.0,0.0,0.0,0.0,0.0,0.0,0.0,0.0,0.0,0.0,0.0,0.0,0.0,0.0],
"tree_param":{"num_deleted":"0","num_feature":"13","num_nodes":"23","size_leaf_vector":"0"}
},
{
"base_weights":[0.0,0.0,0.0,0.0,0.0,0.0,0.0,0.0,0.0,0.0,0.0,0.0,0.0,0.0,0.0,0.0,0.0,0.0,0.0],
"categories":[],"categories_nodes":[],"categories_segments":[],"categories_sizes":[],
"default_left":[true,true,true,true,true,false,false,false,false,false,true,true,false,true,false,false,true,false,false],
"id":33,
"left_children":[1,3,5,7,9,-1,-1,-1,-1,-1,11,13,-1,15,-1,-1,17,-1,-1],
"loss_changes":[0.0,0.0,0.0,0.0,0.0,0.0,0.0,0.0,0.0,0.0,0.0,0.0,0.0,0.0,0.0,0.0,0.0,0.0,0.0],
"parents":[2147483647,0,0,1,1,2,2,3,3,4,4,10,10,11,11,13,13,16,16],
"right_children":[2,4,6,8,10,-1,-1,-1,-1,-1,12,14,-1,16,-1,-1,18,-1,-1],
"split_conditions":[2.4096205234527588e+00,3.2938530445098877e+00,8.2637625932693481e-01,1.0004997253417969e+00,6.5656077861785889e-01,-3.1690329313278198e-02,4.0628453716635704e-03,2.0641824230551720e-02,-2.0918594673275948e-02,2.9179252684116364e-02,5.8563996106386185e-02,4.4955550692975521e-03,1.8096793442964554e-02,1.7629010835662484e-03,2.3438628762960434e-02,4.7307208180427551e-02,9.3003730773925781e+00,4.4198933988809586e-02,4.6243567019701004e-02],
"split_indices":[9,6,8,5,8,0,0,0,0,0,2,7,0,7,0,0,6,0,0],
"split_type":[0,0,0,0,0,0,0,0,0,0,0,0,0,0,0,0,0,0,0],
"sum_hessian":[0.0,0.0,0.0,0.0,0.0,0.0,0.0,0.0,0.0,0.0,0.0,0.0,0.0,0.0,0.0,0.0,0.0,0.0,0.0],
"tree_param":{"num_deleted":"0","num_feature":"13","num_nodes":"19","size_leaf_vector":"0"}
},
{
"base_weights":[0.0,0.0,0.0,0.0,0.0,0.0,0.0,0.0,0.0,0.0,0.0,0.0,0.0,0.0,0.0,0.0,0.0,0.0,0.0,0.0,0.0],
"categories":[],"categories_nodes":[],"categories_segments":[],"categories_sizes":[],
"default_left":[true,true,true,false,true,false,true,true,false,false,true,true,false,true,false,true,false,false,false,false,false],
"id":34,
"left_children":[1,3,5,-1,7,-1,9,11,-1,-1,13,15,-1,17,-1,19,-1,-1,-1,-1,-1],
"loss_changes":[0.0,0.0,0.0,0.0,0.0,0.0,0.0,0.0,0.0,0.0,0.0,0.0,0.0,0.0,0.0,0.0,0.0,0.0,0.0,0.0,0.0],
"parents":[2147483647,0,0,1,1,2,2,4,4,6,6,7,7,10,10,11,11,13,13,15,15],
"right_children":[2,4,6,-1,8,-1,10,12,-1,-1,14,16,-1,18,-1,20,-1,-1,-1,-1,-1],
"split_conditions":[7.0944528579711914e+00,6.8027538061141968e-01,8.3353400230407715e-01,-2.4241244420409203e-02,3.0696108341217041e+00,4.3803643435239792e-02,4.6167652130126953e+01,1.7482712864875793e-02,-1.0419457219541073e-02,9.7801331430673599e-03,1.1268894672393799e+00,4.8508856445550919e-02,1.4893899788148701e-04,9.5229214429855347e-01,4.1828040033578873e-02,3.0877842903137207e+00,2.4786859750747681e-02,4.7363117337226868e-02,4.8365116119384766e-02,3.2493334263563156e-02,3.2497793436050415e-02],
"split_indices":[6,8,8,0,9,0,0,7,0,0,9,2,0,8,0,6,0,0,0,0,0],
"split_type":[0,0,0,0,0,0,0,0,0,0,0,0,0,0,0,0,0,0,0,0,0],
"sum_hessian":[0.0,0.0,0.0,0.0,0.0,0.0,0.0,0.0,0.0,0.0,0.0,0.0,0.0,0.0,0.0,0.0,0.0,0.0,0.0,0.0,0.0],
"tree_param":{"num_deleted":"0","num_feature":"13","num_nodes":"21","size_leaf_vector":"0"}
},
{
"base_weights":[0.0,0.0,0.0,0.0,0.0,0.0,0.0,0.0,0.0,0.0,0.0,0.0,0.0,0.0,0.0,0.0,0.0,0.0,0.0],
"categories":[],"categories_nodes":[],"categories_segments":[],"categories_sizes":[],
"default_left":[true,true,true,true,false,false,false,false,true,true,false,true,false,true,false,false,true,false,false],
"id":35,
"left_children":[1,3,5,7,-1,-1,-1,-1,9,11,-1,13,-1,15,-1,-1,17,-1,-1],
"loss_changes":[0.0,0.0,0.0,0.0,0.0,0.0,0.0,0.0,0.0,0.0,0.0,0.0,0.0,0.0,0.0,0.0,0.0,0.0,0.0],
"parents":[2147483647,0,0,1,1,2,2,3,3,8,8,9,9,11,11,13,13,16,16],
"right_children":[2,4,6,8,-1,-1,-1,-1,10,12,-1,14,-1,16,-1,-1,18,-1,-1],
"split_conditions":[2.3981209844350815e-02,4.8568263649940491e-02,1.1713743209838867e+00,1.6428331375122070e+01,-1.0074553079903126e-02,-1.6889779362827539e-04,-2.9149975627660751e-02,-1.6385345952585340e-03,6.4369186758995056e-02,2.4575729370117188e+00,3.0230298638343811e-02,5.9940731152892113e-03,2.4729842320084572e-02,4.1999001502990723e+00,2.3615993559360504e-02,4.7006718814373016e-02,1.7710051033645868e-03,5.0696931779384613e-02,4.0607064962387085e-02],
"split_indices":[4,3,9,0,0,0,0,0,2,9,0,7,0,6,0,0,7,0,0],
"split_type":[0,0,0,0,0,0,0,0,0,0,0,0,0,0,0,0,0,0,0],
"sum_hessian":[0.0,0.0,0.0,0.0,0.0,0.0,0.0,0.0,0.0,0.0,0.0,0.0,0.0,0.0,0.0,0.0,0.0,0.0,0.0],
"tree_param":{"num_deleted":"0","num_feature":"13","num_nodes":"19","size_leaf_vector":"0"}
},
{
"base_weights":[0.0,0.0,0.0,0.0,0.0,0.0,0.0,0.0,0.0,0.0,0.0,0.0,0.0,0.0,0.0,0.0,0.0,0.0,0.0],
"categories":[],"categories_nodes":[],"categories_segments":[],"categories_sizes":[],
"default_left":[true,true,false,true,true,true,true,false,true,false,true,false,false,true,false,false,false,false,false],
"id":36,
"left_children":[1,3,-1,5,7,9,11,-1,13,-1,15,-1,-1,17,-1,-1,-1,-1,-1],
"loss_changes":[0.0,0.0,0.0,0.0,0.0,0.0,0.0,0.0,0.0,0.0,0.0,0.0,0.0,0.0,0.0,0.0,0.0,0.0,0.0],
"parents":[2147483647,0,0,1,1,3,3,4,4,5,5,6,6,8,8,10,10,13,13],
"right_children":[2,4,-1,6,8,10,12,-1,14,-1,16,-1,-1,18,-1,-1,-1,-1,-1],
"split_conditions":[3.1968417167663574e+00,6.4610195159912109e+00,-2.0335717126727104e-02,1.0024987459182739e+00,8.4557771682739258e-01,1.9167522430419922e+01,7.3031240701675415e-01,4.5927807688713074e-02,1.6715423583984375e+01,1.8482834100723267e-02,4.4955550692975521e-03,-1.9231155514717102e-02,9.7682205960154533e-03,1.4032948017120361e-01,5.0582960247993469e-02,4.5858602970838547e-02,2.1149769891053438e-03,3.7505228072404861e-02,4.2276822030544281e-02],
"split_indices":[9,6,0,5,8,0,8,0,6,0,7,0,0,1,0,0,0,0,0],
"split_type":[0,0,0,0,0,0,0,0,0,0,0,0,0,0,0,0,0,0,0],
"sum_hessian":[0.0,0.0,0.0,0.0,0.0,0.0,0.0,0.0,0.0,0.0,0.0,0.0,0.0,0.0,0.0,0.0,0.0,0.0,0.0],
"tree_param":{"num_deleted":"0","num_feature":"13","num_nodes":"19","size_leaf_vector":"0"}
},
{
"base_weights":[0.0,0.0,0.0,0.0,0.0,0.0,0.0,0.0,0.0,0.0,0.0,0.0,0.0,0.0,0.0,0.0,0.0],
"categories":[],"categories_nodes":[],"categories_segments":[],"categories_sizes":[],
"default_left":[true,true,false,false,true,false,true,false,true,true,false,true,false,false,true,false,false],
"id":37,
"left_children":[1,3,-1,-1,5,-1,7,-1,9,11,-1,13,-1,-1,15,-1,-1],
"loss_changes":[0.0,0.0,0.0,0.0,0.0,0.0,0.0,0.0,0.0,0.0,0.0,0.0,0.0,0.0,0.0,0.0,0.0],
"parents":[2147483647,0,0,1,1,4,4,6,6,8,8,9,9,11,11,14,14],
"right_children":[2,4,-1,-1,6,-1,8,-1,10,12,-1,14,-1,-1,16,-1,-1],
"split_conditions":[1.5834343433380127e-01,1.6615837812423706e-03,-2.4219851940870285e-02,-1.9474023953080177e-02,6.1772906780242920e-01,-6.2917983159422874e-03,2.0643051147460938e+01,2.5132387876510620e-02,2.7852489948272705e+00,8.8310994207859039e-02,2.5576172396540642e-02,8.4856373071670532e-01,1.5756320208311081e-02,2.8879565652459860e-03,4.0539731979370117e+00,3.9149470627307892e-02,3.8929402828216553e-02],
"split_indices":[7,7,0,0,8,0,0,0,9,2,0,8,0,0,6,0,0],
"split_type":[0,0,0,0,0,0,0,0,0,0,0,0,0,0,0,0,0],
"sum_hessian":[0.0,0.0,0.0,0.0,0.0,0.0,0.0,0.0,0.0,0.0,0.0,0.0,0.0,0.0,0.0,0.0,0.0],
"tree_param":{"num_deleted":"0","num_feature":"13","num_nodes":"17","size_leaf_vector":"0"}
},
{
"base_weights":[0.0,0.0,0.0,0.0,0.0,0.0,0.0,0.0,0.0,0.0,0.0,0.0,0.0,0.0,0.0,0.0,0.0,0.0,0.0,0.0,0.0],
"categories":[],"categories_nodes":[],"categories_segments":[],"categories_sizes":[],
"default_left":[true,true,true,true,false,true,false,false,true,false,false,true,false,true,false,true,false,false,true,false,false],
"id":38,
"left_children":[1,3,5,7,-1,9,-1,-1,11,-1,-1,13,-1,15,-1,17,-1,-1,19,-1,-1],
"loss_changes":[0.0,0.0,0.0,0.0,0.0,0.0,0.0,0.0,0.0,0.0,0.0,0.0,0.0,0.0,0.0,0.0,0.0,0.0,0.0,0.0,0.0],
"parents":[2147483647,0,0,1,1,2,2,3,3,5,5,8,8,11,11,13,13,15,15,18,18],
"right_children":[2,4,6,8,-1,10,-1,-1,12,-1,-1,14,-1,16,-1,18,-1,-1,20,-1,-1],
"split_conditions":[1.0391857475042343e-02,4.1772704571485519e-02,1.5269949436187744e+00,1.6428451538085938e+01,-5.7678357698023319e-03,3.8530733585357666e+00,-2.8423570096492767e-02,-4.5706387027166784e-04,5.5173590779304504e-02,-8.9899469166994095e-03,1.4964632689952850e-02,2.1618657112121582e+00,3.0095487833023071e-02,1.0074962377548218e+00,2.6080407202243805e-02,4.1806597709655762e+00,3.4707028418779373e-02,3.0217101797461510e-02,7.4269428253173828e+00,2.2047342732548714e-02,4.5485243201255798e-02],
"split_indices":[4,3,9,0,0,6,0,0,2,0,0,9,0,5,0,6,0,0,6,0,0],
"split_type":[0,0,0,0,0,0,0,0,0,0,0,0,0,0,0,0,0,0,0,0,0],
"sum_hessian":[0.0,0.0,0.0,0.0,0.0,0.0,0.0,0.0,0.0,0.0,0.0,0.0,0.0,0.0,0.0,0.0,0.0,0.0,0.0,0.0,0.0],
"tree_param":{"num_deleted":"0","num_feature":"13","num_nodes":"21","size_leaf_vector":"0"}
},
{
"base_weights":[0.0,0.0,0.0,0.0,0.0,0.0,0.0,0.0,0.0,0.0,0.0,0.0,0.0,0.0,0.0,0.0,0.0,0.0,0.0,0.0,0.0,0.0,0.0],
"categories":[],"categories_nodes":[],"categories_segments":[],"categories_sizes":[],
"default_left":[true,true,false,true,false,true,true,true,false,false,true,true,false,true,false,true,true,false,false,false,false,false,false],
"id":39,
"left_children":[1,3,-1,5,-1,7,9,11,-1,-1,13,15,-1,17,-1,19,21,-1,-1,-1,-1,-1,-1],
"loss_changes":[0.0,0.0,0.0,0.0,0.0,0.0,0.0,0.0,0.0,0.0,0.0,0.0,0.0,0.0,0.0,0.0,0.0,0.0,0.0,0.0,0.0,0.0,0.0],
"parents":[2147483647,0,0,1,1,3,3,5,5,6,6,7,7,10,10,11,11,13,13,15,15,16,16],
"right_children":[2,4,-1,6,-1,8,10,12,-1,-1,14,16,-1,18,-1,20,22,-1,-1,-1,-1,-1,-1],
"split_conditions":[7.8548677265644073e-02,-5.7004852294921875e+00,-2.2444806993007660e-02,8.1079463958740234e+00,-1.2950290925800800e-02,2.3976292461156845e-02,8.9489895105361938e-01,7.3564790189266205e-02,-5.9737227857112885e-03,5.6004710495471954e-02,1.0784099102020264e+00,9.0427118539810181e-01,1.7191810533404350e-02,5.8728647232055664e-01,3.8031861186027527e-02,-6.5591778755187988e+00,4.2349605560302734e+00,4.4185943901538849e-02,4.9218483269214630e-02,2.0750103518366814e-02,7.7062950003892183e-04,3.1129768118262291e-02,3.4760698676109314e-02],
"split_indices":[3,10,0,6,0,7,8,2,0,0,9,8,0,9,0,11,6,0,0,0,0,0,0],
"split_type":[0,0,0,0,0,0,0,0,0,0,0,0,0,0,0,0,0,0,0,0,0,0,0],
"sum_hessian":[0.0,0.0,0.0,0.0,0.0,0.0,0.0,0.0,0.0,0.0,0.0,0.0,0.0,0.0,0.0,0.0,0.0,0.0,0.0,0.0,0.0,0.0,0.0],
"tree_param":{"num_deleted":"0","num_feature":"13","num_nodes":"23","size_leaf_vector":"0"}
},
{
"base_weights":[0.0,0.0,0.0,0.0,0.0,0.0,0.0,0.0,0.0,0.0,0.0,0.0,0.0,0.0,0.0,0.0,0.0],
"categories":[],"categories_nodes":[],"categories_segments":[],"categories_sizes":[],
"default_left":[true,true,false,false,true,false,true,false,true,true,false,true,false,true,false,false,false],
"id":40,
"left_children":[1,3,-1,-1,5,-1,7,-1,9,11,-1,13,-1,15,-1,-1,-1],
"loss_changes":[0.0,0.0,0.0,0.0,0.0,0.0,0.0,0.0,0.0,0.0,0.0,0.0,0.0,0.0,0.0,0.0,0.0],
"parents":[2147483647,0,0,1,1,4,4,6,6,8,8,9,9,11,11,13,13],
"right_children":[2,4,-1,-1,6,-1,8,-1,10,12,-1,14,-1,16,-1,-1,-1],
"split_conditions":[1.6333849728107452e-01,1.7141087446361780e-03,-2.2289589047431946e-02,-1.4908064156770706e-02,6.1699324846267700e-01,-5.1746182143688202e-03,2.0445995330810547e+01,2.2945193573832512e-02,2.7852489948272705e+00,8.9554816484451294e-02,2.3360859602689743e-02,4.8646312206983566e-03,1.4975146390497684e-02,4.3908047676086426e+00,1.1213493999093771e-03,4.1298642754554749e-02,3.9038293063640594e-02],
"split_indices":[7,7,0,0,8,0,0,0,9,2,0,7,0,6,0,0,0],
"split_type":[0,0,0,0,0,0,0,0,0,0,0,0,0,0,0,0,0],
"sum_hessian":[0.0,0.0,0.0,0.0,0.0,0.0,0.0,0.0,0.0,0.0,0.0,0.0,0.0,0.0,0.0,0.0,0.0],
"tree_param":{"num_deleted":"0","num_feature":"13","num_nodes":"17","size_leaf_vector":"0"}
},
{
"base_weights":[0.0,0.0,0.0,0.0,0.0,0.0,0.0,0.0,0.0,0.0,0.0,0.0,0.0,0.0,0.0,0.0,0.0,0.0,0.0,0.0,0.0,0.0,0.0],
"categories":[],"categories_nodes":[],"categories_segments":[],"categories_sizes":[],
"default_left":[true,true,true,true,true,false,false,true,true,false,false,true,false,true,false,true,false,true,false,false,false,false,false],
"id":41,
"left_children":[1,3,5,7,9,-1,-1,11,13,-1,-1,15,-1,17,-1,19,-1,21,-1,-1,-1,-1,-1],
"loss_changes":[0.0,0.0,0.0,0.0,0.0,0.0,0.0,0.0,0.0,0.0,0.0,0.0,0.0,0.0,0.0,0.0,0.0,0.0,0.0,0.0,0.0,0.0,0.0],
"parents":[2147483647,0,0,1,1,2,2,3,3,4,4,7,7,8,8,11,11,13,13,15,15,17,17],
"right_children":[2,4,6,8,10,-1,-1,12,14,-1,-1,16,-1,18,-1,20,-1,22,-1,-1,-1,-1,-1],
"split_conditions":[2.3981209844350815e-02,-6.3425970077514648e+00,-6.1909165382385254e+00,7.0944528579711914e+00,8.7412494421005249e-01,-2.2762927692383528e-03,-2.4005815386772156e-02,1.7482712864875793e-02,3.4965428058058023e-03,-1.3854860328137875e-02,1.2855044566094875e-02,5.5443700402975082e-03,-8.1044650869444013e-04,4.5459628105163574e-01,5.4126057773828506e-02,9.1158211231231689e-01,2.2789640352129936e-02,9.3103688955307007e-01,4.8550497740507126e-02,1.1323160491883755e-02,3.6798574030399323e-02,4.4300924986600876e-02,4.0205005556344986e-02],
"split_indices":[4,10,11,6,8,0,0,7,7,0,0,7,0,1,0,8,0,12,0,0,0,0,0],
"split_type":[0,0,0,0,0,0,0,0,0,0,0,0,0,0,0,0,0,0,0,0,0,0,0],
"sum_hessian":[0.0,0.0,0.0,0.0,0.0,0.0,0.0,0.0,0.0,0.0,0.0,0.0,0.0,0.0,0.0,0.0,0.0,0.0,0.0,0.0,0.0,0.0,0.0],
"tree_param":{"num_deleted":"0","num_feature":"13","num_nodes":"23","size_leaf_vector":"0"}
},
{
"base_weights":[0.0,0.0,0.0,0.0,0.0,0.0,0.0,0.0,0.0,0.0,0.0,0.0,0.0,0.0,0.0,0.0,0.0],
"categories":[],"categories_nodes":[],"categories_segments":[],"categories_sizes":[],
"default_left":[true,true,false,true,false,false,true,true,false,true,false,true,false,true,false,false,false],
"id":42,
"left_children":[1,3,-1,5,-1,-1,7,9,-1,11,-1,13,-1,15,-1,-1,-1],
"loss_changes":[0.0,0.0,0.0,0.0,0.0,0.0,0.0,0.0,0.0,0.0,0.0,0.0,0.0,0.0,0.0,0.0,0.0],
"parents":[2147483647,0,0,1,1,3,3,6,6,7,7,9,9,11,11,13,13],
"right_children":[2,4,-1,6,-1,-1,8,10,-1,12,-1,14,-1,16,-1,-1,-1],
"split_conditions":[7.8548677265644073e-02,7.2942845523357391e-02,-2.0122664049267769e-02,1.5624799728393555e+01,-1.1623588390648365e-02,-2.3513510823249817e-03,1.1034718155860901e-01,3.2807320822030306e-03,2.5971150025725365e-02,2.5135176181793213e+00,-1.4316984452307224e-03,1.0074962377548218e+00,2.1827576681971550e-02,3.8005998134613037e+00,2.6698952540755272e-02,2.5231536477804184e-02,3.0299626290798187e-02],
"split_indices":[3,4,0,0,0,0,2,4,0,9,0,5,0,6,0,0,0],
"split_type":[0,0,0,0,0,0,0,0,0,0,0,0,0,0,0,0,0],
"sum_hessian":[0.0,0.0,0.0,0.0,0.0,0.0,0.0,0.0,0.0,0.0,0.0,0.0,0.0,0.0,0.0,0.0,0.0],
"tree_param":{"num_deleted":"0","num_feature":"13","num_nodes":"17","size_leaf_vector":"0"}
},
{
"base_weights":[0.0,0.0,0.0,0.0,0.0,0.0,0.0,0.0,0.0,0.0,0.0,0.0,0.0,0.0,0.0,0.0,0.0,0.0,0.0,0.0,0.0],
"categories":[],"categories_nodes":[],"categories_segments":[],"categories_sizes":[],
"default_left":[true,true,false,true,true,true,true,false,true,true,false,false,false,true,false,false,true,false,false,false,false],
"id":43,
"left_children":[1,3,-1,5,7,9,11,-1,13,15,-1,-1,-1,17,-1,-1,19,-1,-1,-1,-1],
"loss_changes":[0.0,0.0,0.0,0.0,0.0,0.0,0.0,0.0,0.0,0.0,0.0,0.0,0.0,0.0,0.0,0.0,0.0,0.0,0.0,0.0,0.0],
"parents":[2147483647,0,0,1,1,3,3,4,4,5,5,6,6,8,8,9,9,13,13,16,16],
"right_children":[2,4,-1,6,8,10,12,-1,14,16,-1,-1,-1,18,-1,-1,20,-1,-1,-1,-1],
"split_conditions":[4.0839638710021973e+00,7.2211394309997559e+00,-2.0363410934805870e-02,1.0024987459182739e+00,8.6197185516357422e-01,7.1023739874362946e-02,3.1937558669596910e-03,4.3250974267721176e-02,1.1077207326889038e+00,2.1086408615112305e+01,1.6119513660669327e-02,-1.2985826469957829e-04,-1.9317746162414551e-02,-6.8414578437805176e+00,3.1364347785711288e-02,1.2829200364649296e-02,2.9859242495149374e-03,4.4459946453571320e-02,3.4103214740753174e-02,4.4004060328006744e-02,-6.2376782298088074e-03],
"split_indices":[9,6,0,5,8,2,4,0,9,0,0,0,0,11,0,0,7,0,0,0,0],
"split_type":[0,0,0,0,0,0,0,0,0,0,0,0,0,0,0,0,0,0,0,0,0],
"sum_hessian":[0.0,0.0,0.0,0.0,0.0,0.0,0.0,0.0,0.0,0.0,0.0,0.0,0.0,0.0,0.0,0.0,0.0,0.0,0.0,0.0,0.0],
"tree_param":{"num_deleted":"0","num_feature":"13","num_nodes":"21","size_leaf_vector":"0"}
},
{
"base_weights":[0.0,0.0,0.0,0.0,0.0,0.0,0.0,0.0,0.0,0.0,0.0,0.0,0.0,0.0,0.0,0.0,0.0,0.0,0.0],
"categories":[],"categories_nodes":[],"categories_segments":[],"categories_sizes":[],
"default_left":[true,true,false,false,true,false,true,true,true,false,false,true,false,true,false,true,false,false,false],
"id":44,
"left_children":[1,3,-1,-1,5,-1,7,9,11,-1,-1,13,-1,15,-1,17,-1,-1,-1],
"loss_changes":[0.0,0.0,0.0,0.0,0.0,0.0,0.0,0.0,0.0,0.0,0.0,0.0,0.0,0.0,0.0,0.0,0.0,0.0,0.0],
"parents":[2147483647,0,0,1,1,4,4,6,6,7,7,8,8,11,11,13,13,15,15],
"right_children":[2,4,-1,-1,6,-1,8,10,12,-1,-1,14,-1,16,-1,18,-1,-1,-1],
"split_conditions":[1.7532664537429810e-01,1.6644509742036462e-03,-2.0663088187575340e-02,-1.5934869647026062e-02,6.1699324846267700e-01,-3.8009365089237690e-03,2.6874254226684570e+01,6.4141519367694855e-02,9.8215462639927864e-03,1.5169466845691204e-02,2.5303425267338753e-02,1.7790559530258179e+00,-6.9482778199017048e-03,3.7314504384994507e-02,3.6303356289863586e-02,6.2076463699340820e+00,2.7823979035019875e-02,3.3508714288473129e-02,3.5455364733934402e-02],
"split_indices":[7,7,0,0,8,0,0,2,7,0,0,9,0,2,0,6,0,0,0],
"split_type":[0,0,0,0,0,0,0,0,0,0,0,0,0,0,0,0,0,0,0],
"sum_hessian":[0.0,0.0,0.0,0.0,0.0,0.0,0.0,0.0,0.0,0.0,0.0,0.0,0.0,0.0,0.0,0.0,0.0,0.0,0.0],
"tree_param":{"num_deleted":"0","num_feature":"13","num_nodes":"19","size_leaf_vector":"0"}
},
{
"base_weights":[0.0,0.0,0.0,0.0,0.0,0.0,0.0,0.0,0.0,0.0,0.0,0.0,0.0,0.0,0.0,0.0,0.0,0.0,0.0,0.0,0.0],
"categories":[],"categories_nodes":[],"categories_segments":[],"categories_sizes":[],
"default_left":[true,true,true,true,true,false,false,true,false,false,true,false,false,false,true,true,false,true,false,false,false],
"id":45,
"left_children":[1,3,5,7,9,-1,-1,11,-1,-1,13,-1,-1,-1,15,17,-1,19,-1,-1,-1],
"loss_changes":[0.0,0.0,0.0,0.0,0.0,0.0,0.0,0.0,0.0,0.0,0.0,0.0,0.0,0.0,0.0,0.0,0.0,0.0,0.0,0.0,0.0],
"parents":[2147483647,0,0,1,1,2,2,3,3,4,4,7,7,10,10,14,14,15,15,17,17],
"right_children":[2,4,6,8,10,-1,-1,12,-1,-1,14,-1,-1,-1,16,18,-1,20,-1,-1,-1],
"split_conditions":[-6.2959794998168945e+00,4.5607194900512695e+00,8.2637625932693481e-01,1.0074962377548218e+00,7.3301458358764648e-01,-2.1228227764368057e-02,2.0557704847306013e-03,-6.2570033073425293e+00,-1.1606284417212009e-02,3.1247243285179138e-02,3.6595363616943359e+01,2.0538827404379845e-02,4.7783362679183483e-03,4.3727974407374859e-03,1.0949211120605469e+00,1.4639430046081543e+01,3.3181734383106232e-02,5.6964466094970703e+01,5.0493199378252029e-02,3.0534679070115089e-02,1.9521813839673996e-02],
"split_indices":[10,6,8,5,8,0,0,11,0,0,0,0,0,0,9,6,0,0,0,0,0],
"split_type":[0,0,0,0,0,0,0,0,0,0,0,0,0,0,0,0,0,0,0,0,0],
"sum_hessian":[0.0,0.0,0.0,0.0,0.0,0.0,0.0,0.0,0.0,0.0,0.0,0.0,0.0,0.0,0.0,0.0,0.0,0.0,0.0,0.0,0.0],
"tree_param":{"num_deleted":"0","num_feature":"13","num_nodes":"21","size_leaf_vector":"0"}
},
{
"base_weights":[0.0,0.0,0.0,0.0,0.0,0.0,0.0,0.0,0.0,0.0,0.0,0.0,0.0,0.0,0.0,0.0,0.0,0.0,0.0,0.0,0.0],
"categories":[],"categories_nodes":[],"categories_segments":[],"categories_sizes":[],
"default_left":[true,true,true,true,true,true,false,true,true,false,false,false,false,false,true,false,false,true,false,false,false],
"id":46,
"left_children":[1,3,5,7,9,11,-1,13,15,-1,-1,-1,-1,-1,17,-1,-1,19,-1,-1,-1],
"loss_changes":[0.0,0.0,0.0,0.0,0.0,0.0,0.0,0.0,0.0,0.0,0.0,0.0,0.0,0.0,0.0,0.0,0.0,0.0,0.0,0.0,0.0],
"parents":[2147483647,0,0,1,1,2,2,3,3,4,4,5,5,7,7,8,8,14,14,17,17],
"right_children":[2,4,6,8,10,12,-1,14,16,-1,-1,-1,-1,-1,18,-1,-1,20,-1,-1,-1],
"split_conditions":[5.5956155993044376e-03,-5.7130885124206543e+00,1.8027007579803467e+00,6.9930856116116047e-03,2.5319580078125000e+01,4.4952526092529297e+00,-2.3739183321595192e-02,4.1044478416442871e+00,4.0539731979370117e+00,-8.6727067828178406e-03,1.5369436703622341e-02,-6.7041865549981594e-03,1.4158296398818493e-02,2.3735983297228813e-02,7.8794318437576294e-01,4.7731599770486355e-03,3.3428575843572617e-02,2.3971740156412125e-03,2.6883376762270927e-02,3.9247337728738785e-02,3.5022795200347900e-02],
"split_indices":[4,11,9,7,0,6,0,6,6,0,0,0,0,0,1,0,0,7,0,0,0],
"split_type":[0,0,0,0,0,0,0,0,0,0,0,0,0,0,0,0,0,0,0,0,0],
"sum_hessian":[0.0,0.0,0.0,0.0,0.0,0.0,0.0,0.0,0.0,0.0,0.0,0.0,0.0,0.0,0.0,0.0,0.0,0.0,0.0,0.0,0.0],
"tree_param":{"num_deleted":"0","num_feature":"13","num_nodes":"21","size_leaf_vector":"0"}
},
{
"base_weights":[0.0,0.0,0.0,0.0,0.0,0.0,0.0,0.0,0.0,0.0,0.0,0.0,0.0,0.0,0.0,0.0,0.0],
"categories":[],"categories_nodes":[],"categories_segments":[],"categories_sizes":[],
"default_left":[true,true,false,false,true,false,true,true,false,true,false,false,true,true,false,false,false],
"id":47,
"left_children":[1,3,-1,-1,5,-1,7,9,-1,11,-1,-1,13,15,-1,-1,-1],
"loss_changes":[0.0,0.0,0.0,0.0,0.0,0.0,0.0,0.0,0.0,0.0,0.0,0.0,0.0,0.0,0.0,0.0,0.0],
"parents":[2147483647,0,0,1,1,4,4,6,6,7,7,9,9,12,12,13,13],
"right_children":[2,4,-1,-1,6,-1,8,10,-1,12,-1,-1,14,16,-1,-1,-1],
"split_conditions":[1.5434738993644714e-01,1.6964174574241042e-03,-1.8557174131274223e-02,-1.2719753198325634e-02,6.2214410305023193e-01,-2.8077268507331610e-03,1.2270551919937134e-01,2.5854465961456299e+00,1.7990741878747940e-02,3.6739130020141602e+00,2.5219269096851349e-02,1.2017832137644291e-02,4.2132330127060413e-03,9.2964887619018555e+00,-3.6548858042806387e-03,3.8155004382133484e-02,3.4607701003551483e-02],
"split_indices":[7,7,0,0,8,0,2,9,0,6,0,0,7,6,0,0,0],
"split_type":[0,0,0,0,0,0,0,0,0,0,0,0,0,0,0,0,0],
"sum_hessian":[0.0,0.0,0.0,0.0,0.0,0.0,0.0,0.0,0.0,0.0,0.0,0.0,0.0,0.0,0.0,0.0,0.0],
"tree_param":{"num_deleted":"0","num_feature":"13","num_nodes":"17","size_leaf_vector":"0"}
},
{
"base_weights":[0.0,0.0,0.0,0.0,0.0,0.0,0.0,0.0,0.0,0.0,0.0,0.0,0.0,0.0,0.0,0.0,0.0,0.0,0.0,0.0,0.0],
"categories":[],"categories_nodes":[],"categories_segments":[],"categories_sizes":[],
"default_left":[true,true,true,true,false,false,true,false,true,false,true,true,false,false,false,true,false,true,false,false,false],
"id":48,
"left_children":[1,3,5,7,-1,-1,9,-1,11,-1,13,15,-1,-1,-1,17,-1,19,-1,-1,-1],
"loss_changes":[0.0,0.0,0.0,0.0,0.0,0.0,0.0,0.0,0.0,0.0,0.0,0.0,0.0,0.0,0.0,0.0,0.0,0.0,0.0,0.0,0.0],
"parents":[2147483647,0,0,1,1,2,2,3,3,6,6,8,8,10,10,11,11,15,15,17,17],
"right_children":[2,4,6,8,-1,-1,10,-1,12,-1,14,16,-1,-1,-1,18,-1,20,-1,-1,-1],
"split_conditions":[7.9812593460083008e+00,6.0939744114875793e-02,8.6853438615798950e-01,1.7351553542539477e-03,-2.2707007825374603e-02,3.8468774408102036e-02,5.2595878601074219e+01,-1.1742428876459599e-02,1.3780834674835205e+00,3.1848243088461459e-04,9.5905554294586182e-01,3.6499347686767578e+01,-7.9703703522682190e-03,4.1513901203870773e-02,3.2180961221456528e-02,9.1955982148647308e-02,1.6573837492614985e-03,3.9067184925079346e+00,1.5250026248395443e-02,1.1995704844594002e-02,1.0061479173600674e-02],
"split_indices":[6,7,8,7,0,0,0,0,1,0,9,0,0,0,0,2,0,6,0,0,0],
"split_type":[0,0,0,0,0,0,0,0,0,0,0,0,0,0,0,0,0,0,0,0,0],
"sum_hessian":[0.0,0.0,0.0,0.0,0.0,0.0,0.0,0.0,0.0,0.0,0.0,0.0,0.0,0.0,0.0,0.0,0.0,0.0,0.0,0.0,0.0],
"tree_param":{"num_deleted":"0","num_feature":"13","num_nodes":"21","size_leaf_vector":"0"}
},
{
"base_weights":[0.0,0.0,0.0,0.0,0.0,0.0,0.0,0.0,0.0,0.0,0.0,0.0,0.0,0.0,0.0,0.0,0.0,0.0,0.0,0.0,0.0,0.0,0.0],
"categories":[],"categories_nodes":[],"categories_segments":[],"categories_sizes":[],
"default_left":[true,true,true,true,false,true,false,true,false,false,false,true,true,false,true,true,false,true,false,false,false,false,false],
"id":49,
"left_children":[1,3,5,7,-1,9,-1,11,-1,-1,-1,13,15,-1,17,19,-1,21,-1,-1,-1,-1,-1],
"loss_changes":[0.0,0.0,0.0,0.0,0.0,0.0,0.0,0.0,0.0,0.0,0.0,0.0,0.0,0.0,0.0,0.0,0.0,0.0,0.0,0.0,0.0,0.0,0.0],
"parents":[2147483647,0,0,1,1,2,2,3,3,5,5,7,7,11,11,12,12,14,14,15,15,17,17],
"right_children":[2,4,6,8,-1,10,-1,12,-1,-1,-1,14,16,-1,18,20,-1,22,-1,-1,-1,-1,-1],
"split_conditions":[3.1974946614354849e-03,-5.0137696266174316e+00,-7.0692729949951172e+00,1.5004211664199829e+00,-3.5437261685729027e-03,4.4310345649719238e+00,-1.7386889085173607e-02,4.9950610846281052e-03,-1.2931621167808771e-03,-6.4837005920708179e-03,1.6735302284359932e-02,4.1999001502990723e+00,5.0674662590026855e+00,2.0848792046308517e-02,1.1160515546798706e+00,-6.5469250679016113e+00,3.3537793904542923e-02,1.8840810516849160e-03,2.8254082426428795e-02,1.2422213330864906e-02,1.5657398616895080e-03,4.9111757427453995e-02,3.1384531408548355e-02],
"split_indices":[4,11,10,1,0,6,0,7,0,0,0,6,6,0,9,11,0,7,0,0,0,0,0],
"split_type":[0,0,0,0,0,0,0,0,0,0,0,0,0,0,0,0,0,0,0,0,0,0,0],
"sum_hessian":[0.0,0.0,0.0,0.0,0.0,0.0,0.0,0.0,0.0,0.0,0.0,0.0,0.0,0.0,0.0,0.0,0.0,0.0,0.0,0.0,0.0,0.0,0.0],
"tree_param":{"num_deleted":"0","num_feature":"13","num_nodes":"23","size_leaf_vector":"0"}
},
{
"base_weights":[0.0,0.0,0.0,0.0,0.0,0.0,0.0,0.0,0.0,0.0,0.0,0.0,0.0,0.0,0.0,0.0,0.0],
"categories":[],"categories_nodes":[],"categories_segments":[],"categories_sizes":[],
"default_left":[true,true,false,true,false,true,false,true,false,true,false,true,false,false,true,false,false],
"id":50,
"left_children":[1,3,-1,5,-1,7,-1,9,-1,11,-1,13,-1,-1,15,-1,-1],
"loss_changes":[0.0,0.0,0.0,0.0,0.0,0.0,0.0,0.0,0.0,0.0,0.0,0.0,0.0,0.0,0.0,0.0,0.0],
"parents":[2147483647,0,0,1,1,3,3,5,5,7,7,9,9,11,11,14,14],
"right_children":[2,4,-1,6,-1,8,-1,10,-1,12,-1,14,-1,-1,16,-1,-1],
"split_conditions":[7.8548677265644073e-02,7.2942845523357391e-02,-1.6607807949185371e-02,1.2873837351799011e-01,-8.3165280520915985e-03,3.6452577915042639e-03,1.3370933011174202e-02,2.5854465961456299e+00,-2.9083706904202700e-03,1.1988146230578423e-02,1.2821708805859089e-02,3.4205396175384521e+00,8.4724985063076019e-03,2.3299211636185646e-02,-6.2838273048400879e+00,3.3860903233289719e-02,1.2598538771271706e-02],
"split_indices":[3,4,0,2,0,4,0,9,0,7,0,6,0,0,11,0,0],
"split_type":[0,0,0,0,0,0,0,0,0,0,0,0,0,0,0,0,0],
"sum_hessian":[0.0,0.0,0.0,0.0,0.0,0.0,0.0,0.0,0.0,0.0,0.0,0.0,0.0,0.0,0.0,0.0,0.0],
"tree_param":{"num_deleted":"0","num_feature":"13","num_nodes":"17","size_leaf_vector":"0"}
},
{
"base_weights":[0.0,0.0,0.0,0.0,0.0,0.0,0.0,0.0,0.0,0.0,0.0,0.0,0.0,0.0,0.0,0.0,0.0,0.0,0.0,0.0,0.0,0.0,0.0],
"categories":[],"categories_nodes":[],"categories_segments":[],"categories_sizes":[],
"default_left":[true,true,false,true,true,true,true,false,true,true,false,false,false,true,false,false,true,false,false,false,true,false,false],
"id":51,
"left_children":[1,3,-1,5,7,9,11,-1,13,15,-1,-1,-1,17,-1,-1,19,-1,-1,-1,21,-1,-1],
"loss_changes":[0.0,0.0,0.0,0.0,0.0,0.0,0.0,0.0,0.0,0.0,0.0,0.0,0.0,0.0,0.0,0.0,0.0,0.0,0.0,0.0,0.0,0.0,0.0],
"parents":[2147483647,0,0,1,1,3,3,4,4,5,5,6,6,8,8,9,9,13,13,16,16,20,20],
"right_children":[2,4,-1,6,8,10,12,-1,14,16,-1,-1,-1,18,-1,-1,20,-1,-1,-1,22,-1,-1],
"split_conditions":[-5.5561227798461914e+00,8.2346324920654297e+00,-1.7867024987936020e-02,1.7482712864875793e-02,8.8676375150680542e-01,9.1955982148647308e-02,1.9137752532958984e+01,4.0165793150663376e-02,1.1023744344711304e+00,8.4860235452651978e-01,1.1951858177781105e-02,1.7267734510824084e-03,-1.7405003309249878e-02,1.3887930870056152e+01,2.4904679507017136e-02,-8.4982189582660794e-04,2.9613785743713379e+00,3.2698296010494232e-02,4.4401746243238449e-02,1.9043378531932831e-02,9.4971686601638794e-01,2.0051604136824608e-02,2.3071162402629852e-02],
"split_indices":[10,6,0,7,8,2,0,0,9,8,0,0,0,6,0,0,6,0,0,0,9,0,0],
"split_type":[0,0,0,0,0,0,0,0,0,0,0,0,0,0,0,0,0,0,0,0,0,0,0],
"sum_hessian":[0.0,0.0,0.0,0.0,0.0,0.0,0.0,0.0,0.0,0.0,0.0,0.0,0.0,0.0,0.0,0.0,0.0,0.0,0.0,0.0,0.0,0.0,0.0],
"tree_param":{"num_deleted":"0","num_feature":"13","num_nodes":"23","size_leaf_vector":"0"}
},
{
"base_weights":[0.0,0.0,0.0,0.0,0.0,0.0,0.0,0.0,0.0,0.0,0.0,0.0,0.0,0.0,0.0,0.0,0.0],
"categories":[],"categories_nodes":[],"categories_segments":[],"categories_sizes":[],
"default_left":[true,true,false,false,true,true,false,true,false,true,false,true,false,false,true,false,false],
"id":52,
"left_children":[1,3,-1,-1,5,7,-1,9,-1,11,-1,13,-1,-1,15,-1,-1],
"loss_changes":[0.0,0.0,0.0,0.0,0.0,0.0,0.0,0.0,0.0,0.0,0.0,0.0,0.0,0.0,0.0,0.0,0.0],
"parents":[2147483647,0,0,1,1,4,4,5,5,7,7,9,9,11,11,14,14],
"right_children":[2,4,-1,-1,6,8,-1,10,-1,12,-1,14,-1,-1,16,-1,-1],
"split_conditions":[1.8132071197032928e-01,1.7212462844327092e-03,-1.6819603741168976e-02,-1.0783717036247253e-02,2.0104947090148926e+00,9.2877201735973358e-02,-3.5336383152753115e-03,2.5374939441680908e+00,1.6191795468330383e-02,1.2749593257904053e+00,2.0954623818397522e-02,-1.2209270000457764e+00,-7.5918766669929028e-03,-5.1959347911179066e-03,4.4340329170227051e+00,1.6488485038280487e-02,2.1647825837135315e-02],
"split_indices":[7,7,0,0,5,2,0,9,0,1,0,1,0,0,6,0,0],
"split_type":[0,0,0,0,0,0,0,0,0,0,0,0,0,0,0,0,0],
"sum_hessian":[0.0,0.0,0.0,0.0,0.0,0.0,0.0,0.0,0.0,0.0,0.0,0.0,0.0,0.0,0.0,0.0,0.0],
"tree_param":{"num_deleted":"0","num_feature":"13","num_nodes":"17","size_leaf_vector":"0"}
},
{
"base_weights":[0.0,0.0,0.0,0.0,0.0,0.0,0.0,0.0,0.0,0.0,0.0,0.0,0.0,0.0,0.0,0.0,0.0,0.0,0.0],
"categories":[],"categories_nodes":[],"categories_segments":[],"categories_sizes":[],
"default_left":[true,true,true,false,true,false,false,true,false,true,false,true,false,true,false,true,false,false,false],
"id":53,
"left_children":[1,3,5,-1,7,-1,-1,9,-1,11,-1,13,-1,15,-1,17,-1,-1,-1],
"loss_changes":[0.0,0.0,0.0,0.0,0.0,0.0,0.0,0.0,0.0,0.0,0.0,0.0,0.0,0.0,0.0,0.0,0.0,0.0,0.0],
"parents":[2147483647,0,0,1,1,2,2,4,4,7,7,9,9,11,11,13,13,15,15],
"right_children":[2,4,6,-1,8,-1,-1,10,-1,12,-1,14,-1,16,-1,18,-1,-1,-1],
"split_conditions":[1.9387332722544670e-02,1.5624919891357422e+01,1.5034430027008057e+00,-3.5178910475224257e-03,1.1954277753829956e-01,1.9431394757702947e-03,-2.0913025364279747e-02,1.8354540690779686e-02,1.7901374027132988e-02,2.2777509689331055e+00,-1.0166685096919537e-02,1.2922039031982422e+01,1.9464259967207909e-02,4.4955550692975521e-03,5.3596045821905136e-02,4.9728727340698242e+00,-3.5078851506114006e-03,4.0958359837532043e-02,3.0841743573546410e-02],
"split_indices":[3,0,9,0,2,0,0,4,0,9,0,6,0,7,0,6,0,0,0],
"split_type":[0,0,0,0,0,0,0,0,0,0,0,0,0,0,0,0,0,0,0],
"sum_hessian":[0.0,0.0,0.0,0.0,0.0,0.0,0.0,0.0,0.0,0.0,0.0,0.0,0.0,0.0,0.0,0.0,0.0,0.0,0.0],
"tree_param":{"num_deleted":"0","num_feature":"13","num_nodes":"19","size_leaf_vector":"0"}
},
{
"base_weights":[0.0,0.0,0.0,0.0,0.0,0.0,0.0,0.0,0.0,0.0,0.0,0.0,0.0,0.0,0.0,0.0,0.0,0.0,0.0,0.0,0.0],
"categories":[],"categories_nodes":[],"categories_segments":[],"categories_sizes":[],
"default_left":[true,true,true,false,true,false,true,false,false,true,false,false,true,true,false,true,false,false,true,false,false],
"id":54,
"left_children":[1,3,5,-1,7,-1,9,-1,-1,11,-1,-1,13,15,-1,17,-1,-1,19,-1,-1],
"loss_changes":[0.0,0.0,0.0,0.0,0.0,0.0,0.0,0.0,0.0,0.0,0.0,0.0,0.0,0.0,0.0,0.0,0.0,0.0,0.0,0.0,0.0],
"parents":[2147483647,0,0,1,1,2,2,4,4,6,6,9,9,12,12,13,13,15,15,18,18],
"right_children":[2,4,6,-1,8,-1,10,-1,-1,12,-1,-1,14,16,-1,18,-1,-1,20,-1,-1],
"split_conditions":[3.2938530445098877e+00,6.8056368827819824e-01,6.0448396205902100e-01,-2.0309032872319221e-02,-6.1917448043823242e+00,2.0008584484457970e-02,1.7482712864875793e-02,1.3980535790324211e-02,-5.0743279280140996e-04,1.7637207638472319e-03,-9.1722561046481133e-03,-9.8731545731425285e-03,1.7550828456878662e+00,3.9802137762308121e-02,2.5831110775470734e-02,6.1727728843688965e+00,1.5118693932890892e-02,2.0437633618712425e-02,2.3922640830278397e-03,3.8850642740726471e-02,-1.9171274034306407e-03],
"split_indices":[6,8,8,0,11,0,7,0,0,7,0,0,9,2,0,6,0,0,7,0,0],
"split_type":[0,0,0,0,0,0,0,0,0,0,0,0,0,0,0,0,0,0,0,0,0],
"sum_hessian":[0.0,0.0,0.0,0.0,0.0,0.0,0.0,0.0,0.0,0.0,0.0,0.0,0.0,0.0,0.0,0.0,0.0,0.0,0.0,0.0,0.0],
"tree_param":{"num_deleted":"0","num_feature":"13","num_nodes":"21","size_leaf_vector":"0"}
},
{
"base_weights":[0.0,0.0,0.0,0.0,0.0,0.0,0.0,0.0,0.0,0.0,0.0,0.0,0.0,0.0,0.0,0.0,0.0,0.0,0.0,0.0,0.0],
"categories":[],"categories_nodes":[],"categories_segments":[],"categories_sizes":[],
"default_left":[true,true,false,true,true,true,true,false,true,false,true,false,false,true,false,true,false,false,false,false,false],
"id":55,
"left_children":[1,3,-1,5,7,9,11,-1,13,-1,15,-1,-1,17,-1,19,-1,-1,-1,-1,-1],
"loss_changes":[0.0,0.0,0.0,0.0,0.0,0.0,0.0,0.0,0.0,0.0,0.0,0.0,0.0,0.0,0.0,0.0,0.0,0.0,0.0,0.0,0.0],
"parents":[2147483647,0,0,1,1,3,3,4,4,5,5,6,6,8,8,10,10,13,13,15,15],
"right_children":[2,4,-1,6,8,10,12,-1,14,-1,16,-1,-1,18,-1,20,-1,-1,-1,-1,-1],
"split_conditions":[4.4156360626220703e+00,7.2211394309997559e+00,-1.5986347571015358e-02,1.0024987459182739e+00,8.5978430509567261e-01,1.9167522430419922e+01,3.4900566101074219e+01,3.1701713800430298e-02,1.3073251582682133e-02,1.0906239040195942e-02,5.4945670999586582e-03,-2.4295488838106394e-03,-2.4349890649318695e-02,-6.6489567756652832e+00,8.1994645297527313e-03,4.3940215110778809e+00,-5.4963207803666592e-03,3.2628312706947327e-02,3.1878866255283356e-02,3.7961650639772415e-02,2.1299283951520920e-02],
"split_indices":[9,6,0,5,8,0,0,0,2,0,7,0,0,11,0,6,0,0,0,0,0],
"split_type":[0,0,0,0,0,0,0,0,0,0,0,0,0,0,0,0,0,0,0,0,0],
"sum_hessian":[0.0,0.0,0.0,0.0,0.0,0.0,0.0,0.0,0.0,0.0,0.0,0.0,0.0,0.0,0.0,0.0,0.0,0.0,0.0,0.0,0.0],
"tree_param":{"num_deleted":"0","num_feature":"13","num_nodes":"21","size_leaf_vector":"0"}
},
{
"base_weights":[0.0,0.0,0.0,0.0,0.0,0.0,0.0,0.0,0.0,0.0,0.0,0.0,0.0,0.0,0.0,0.0,0.0,0.0,0.0,0.0,0.0,0.0,0.0],
"categories":[],"categories_nodes":[],"categories_segments":[],"categories_sizes":[],
"default_left":[true,true,true,true,true,true,true,true,true,false,false,false,false,false,false,false,true,false,false,false,true,false,false],
"id":56,
"left_children":[1,3,5,7,9,11,13,15,17,-1,-1,-1,-1,-1,-1,-1,19,-1,-1,-1,21,-1,-1],
"loss_changes":[0.0,0.0,0.0,0.0,0.0,0.0,0.0,0.0,0.0,0.0,0.0,0.0,0.0,0.0,0.0,0.0,0.0,0.0,0.0,0.0,0.0,0.0,0.0],
"parents":[2147483647,0,0,1,1,2,2,3,3,4,4,5,5,6,6,7,7,8,8,16,16,20,20],
"right_children":[2,4,6,8,10,12,14,16,18,-1,-1,-1,-1,-1,-1,-1,20,-1,-1,-1,22,-1,-1],
"split_conditions":[3.1974946614354849e-03,-6.7575960159301758e+00,9.9156612157821655e-01,5.4945670999586582e-03,2.7409100905060768e-02,3.6420139312744141e+01,3.4876018524169922e+01,4.6771612167358398e+00,4.0539731979370117e+00,1.1060633696615696e-02,-5.7767550460994244e-03,6.2597584910690784e-03,-5.3065558895468712e-03,-1.0515624657273293e-02,-2.0032303407788277e-02,1.8649443984031677e-02,1.8036025576293468e-03,3.8619521073997021e-03,2.9318820685148239e-02,4.5225780457258224e-02,8.2838428020477295e-01,2.2185711190104485e-02,3.0863849446177483e-02],
"split_indices":[4,10,9,7,2,0,0,6,6,0,0,0,0,0,0,0,7,0,0,0,9,0,0],
"split_type":[0,0,0,0,0,0,0,0,0,0,0,0,0,0,0,0,0,0,0,0,0,0,0],
"sum_hessian":[0.0,0.0,0.0,0.0,0.0,0.0,0.0,0.0,0.0,0.0,0.0,0.0,0.0,0.0,0.0,0.0,0.0,0.0,0.0,0.0,0.0,0.0,0.0],
"tree_param":{"num_deleted":"0","num_feature":"13","num_nodes":"23","size_leaf_vector":"0"}
},
{
"base_weights":[0.0,0.0,0.0,0.0,0.0,0.0,0.0,0.0,0.0,0.0,0.0,0.0,0.0,0.0,0.0,0.0,0.0,0.0,0.0],
"categories":[],"categories_nodes":[],"categories_segments":[],"categories_sizes":[],
"default_left":[true,true,false,false,true,false,true,true,true,false,false,true,false,true,false,true,false,false,false],
"id":57,
"left_children":[1,3,-1,-1,5,-1,7,9,11,-1,-1,13,-1,15,-1,17,-1,-1,-1],
"loss_changes":[0.0,0.0,0.0,0.0,0.0,0.0,0.0,0.0,0.0,0.0,0.0,0.0,0.0,0.0,0.0,0.0,0.0,0.0,0.0],
"parents":[2147483647,0,0,1,1,4,4,6,6,7,7,8,8,11,11,13,13,15,15],
"right_children":[2,4,-1,-1,6,-1,8,10,12,-1,-1,14,-1,16,-1,18,-1,-1,-1],
"split_conditions":[1.8132071197032928e-01,1.7212462844327092e-03,-1.5124403871595860e-02,-9.5782652497291565e-03,6.1404985189437866e-01,-3.4500127658247948e-03,2.6874254226684570e+01,6.4141519367694855e-02,9.7972303628921509e-03,1.0168951004743576e-02,2.1180042997002602e-02,1.7510873079299927e+00,-8.8216979056596756e-03,3.7314504384994507e-02,2.9146464541554451e-02,2.6253033429384232e-03,1.9588015973567963e-02,3.7423111498355865e-02,-9.0445933165028691e-04],
"split_indices":[7,7,0,0,8,0,0,2,7,0,0,9,0,2,0,7,0,0,0],
"split_type":[0,0,0,0,0,0,0,0,0,0,0,0,0,0,0,0,0,0,0],
"sum_hessian":[0.0,0.0,0.0,0.0,0.0,0.0,0.0,0.0,0.0,0.0,0.0,0.0,0.0,0.0,0.0,0.0,0.0,0.0,0.0],
"tree_param":{"num_deleted":"0","num_feature":"13","num_nodes":"19","size_leaf_vector":"0"}
},
{
"base_weights":[0.0,0.0,0.0,0.0,0.0,0.0,0.0,0.0,0.0,0.0,0.0,0.0,0.0,0.0,0.0,0.0,0.0],
"categories":[],"categories_nodes":[],"categories_segments":[],"categories_sizes":[],
"default_left":[true,true,false,true,false,true,false,false,true,true,false,true,false,true,false,false,false],
"id":58,
"left_children":[1,3,-1,5,-1,7,-1,-1,9,11,-1,13,-1,15,-1,-1,-1],
"loss_changes":[0.0,0.0,0.0,0.0,0.0,0.0,0.0,0.0,0.0,0.0,0.0,0.0,0.0,0.0,0.0,0.0,0.0],
"parents":[2147483647,0,0,1,1,3,3,5,5,8,8,9,9,11,11,13,13],
"right_children":[2,4,-1,6,-1,8,-1,-1,10,12,-1,14,-1,16,-1,-1,-1],
"split_conditions":[7.8548677265644073e-02,7.2942845523357391e-02,-1.2943875975906849e-02,1.2873837351799011e-01,-6.8111806176602840e-03,-1.6131893396377563e+00,1.2029202654957771e-02,-7.6287277042865753e-03,1.5797110795974731e+00,2.9217762947082520e+00,-6.7366156727075577e-03,1.2987159192562103e-02,1.1519172228872776e-02,3.4205396175384521e+00,8.6571238934993744e-03,2.0182851701974869e-02,1.7706293612718582e-02],
"split_indices":[3,4,0,2,0,1,0,0,1,9,0,7,0,6,0,0,0],
"split_type":[0,0,0,0,0,0,0,0,0,0,0,0,0,0,0,0,0],
"sum_hessian":[0.0,0.0,0.0,0.0,0.0,0.0,0.0,0.0,0.0,0.0,0.0,0.0,0.0,0.0,0.0,0.0,0.0],
"tree_param":{"num_deleted":"0","num_feature":"13","num_nodes":"17","size_leaf_vector":"0"}
},
{
"base_weights":[0.0,0.0,0.0,0.0,0.0,0.0,0.0,0.0,0.0,0.0,0.0,0.0,0.0,0.0,0.0,0.0,0.0,0.0,0.0,0.0,0.0],
"categories":[],"categories_nodes":[],"categories_segments":[],"categories_sizes":[],
"default_left":[true,true,false,true,true,true,false,false,true,false,false,true,false,false,true,true,false,false,true,false,false],
"id":59,
"left_children":[1,3,-1,5,7,9,-1,-1,11,-1,-1,13,-1,-1,15,17,-1,-1,19,-1,-1],
"loss_changes":[0.0,0.0,0.0,0.0,0.0,0.0,0.0,0.0,0.0,0.0,0.0,0.0,0.0,0.0,0.0,0.0,0.0,0.0,0.0,0.0,0.0],
"parents":[2147483647,0,0,1,1,3,3,4,4,5,5,8,8,11,11,14,14,15,15,18,18],
"right_children":[2,4,-1,6,8,10,-1,-1,12,-1,-1,14,-1,-1,16,18,-1,-1,20,-1,-1],
"split_conditions":[-5.5561227798461914e+00,3.2938530445098877e+00,-1.4399823732674122e-02,1.0004997253417969e+00,6.2729495763778687e-01,-6.2606968879699707e+00,-1.3247909024357796e-02,2.2935528308153152e-02,1.6483701765537262e-02,1.3949298299849033e-02,2.6092387270182371e-03,6.1727728843688965e+00,-5.4340586066246033e-03,1.6368968412280083e-02,3.1871881801635027e-03,4.8871765136718750e+01,-7.2188964113593102e-03,8.8423555716872215e-03,-6.3965134620666504e+00,4.0501404553651810e-02,4.1622608900070190e-02],
"split_indices":[10,6,0,5,8,11,0,0,7,0,0,6,0,0,7,0,0,0,11,0,0],
"split_type":[0,0,0,0,0,0,0,0,0,0,0,0,0,0,0,0,0,0,0,0,0],
"sum_hessian":[0.0,0.0,0.0,0.0,0.0,0.0,0.0,0.0,0.0,0.0,0.0,0.0,0.0,0.0,0.0,0.0,0.0,0.0,0.0,0.0,0.0],
"tree_param":{"num_deleted":"0","num_feature":"13","num_nodes":"21","size_leaf_vector":"0"}
},
{
"base_weights":[0.0,0.0,0.0,0.0,0.0,0.0,0.0,0.0,0.0,0.0,0.0,0.0,0.0,0.0,0.0,0.0,0.0,0.0,0.0,0.0,0.0,0.0,0.0],
"categories":[],"categories_nodes":[],"categories_segments":[],"categories_sizes":[],
"default_left":[true,true,true,true,true,false,true,false,true,false,true,true,false,false,true,false,false,false,false,false,true,false,false],
"id":60,
"left_children":[1,3,5,7,9,-1,11,-1,13,-1,15,17,-1,-1,19,-1,-1,-1,-1,-1,21,-1,-1],
"loss_changes":[0.0,0.0,0.0,0.0,0.0,0.0,0.0,0.0,0.0,0.0,0.0,0.0,0.0,0.0,0.0,0.0,0.0,0.0,0.0,0.0,0.0,0.0,0.0],
"parents":[2147483647,0,0,1,1,2,2,3,3,4,4,6,6,8,8,10,10,11,11,14,14,20,20],
"right_children":[2,4,6,8,10,-1,12,-1,14,-1,16,18,-1,-1,20,-1,-1,-1,-1,-1,22,-1,-1],
"split_conditions":[1.5987473307177424e-03,-6.1879348754882812e+00,2.6421790122985840e+00,7.7009576559066772e-01,8.0727678537368774e-01,-1.3587143272161484e-02,5.4998008728027344e+01,1.4417219907045364e-02,4.1806597709655762e+00,-5.4816948249936104e-03,2.6290411949157715e+00,-7.1534757614135742e+00,-2.2023998200893402e-02,1.7321327701210976e-02,7.5515365600585938e+00,1.2631912250071764e-03,1.2833573855459690e-02,1.4200153760612011e-02,-3.0713398009538651e-03,5.2599026821553707e-03,9.5656430721282959e-01,4.1587486863136292e-02,2.8126884251832962e-02],
"split_indices":[4,11,6,8,8,0,0,0,6,0,9,10,0,0,6,0,0,0,0,0,8,0,0],
"split_type":[0,0,0,0,0,0,0,0,0,0,0,0,0,0,0,0,0,0,0,0,0,0,0],
"sum_hessian":[0.0,0.0,0.0,0.0,0.0,0.0,0.0,0.0,0.0,0.0,0.0,0.0,0.0,0.0,0.0,0.0,0.0,0.0,0.0,0.0,0.0,0.0,0.0],
"tree_param":{"num_deleted":"0","num_feature":"13","num_nodes":"23","size_leaf_vector":"0"}
},
{
"base_weights":[0.0,0.0,0.0,0.0,0.0,0.0,0.0,0.0,0.0,0.0,0.0,0.0,0.0,0.0,0.0,0.0,0.0,0.0,0.0,0.0,0.0,0.0,0.0],
"categories":[],"categories_nodes":[],"categories_segments":[],"categories_sizes":[],
"default_left":[true,true,false,false,true,true,true,true,false,false,false,true,true,true,false,true,false,false,false,false,true,false,false],
"id":61,
"left_children":[1,3,-1,-1,5,7,9,11,-1,-1,-1,13,15,17,-1,19,-1,-1,-1,-1,21,-1,-1],
"loss_changes":[0.0,0.0,0.0,0.0,0.0,0.0,0.0,0.0,0.0,0.0,0.0,0.0,0.0,0.0,0.0,0.0,0.0,0.0,0.0,0.0,0.0,0.0,0.0],
"parents":[2147483647,0,0,1,1,4,4,5,5,6,6,7,7,11,11,12,12,13,13,15,15,20,20],
"right_children":[2,4,-1,-1,6,8,10,12,-1,-1,-1,14,16,18,-1,20,-1,-1,-1,-1,22,-1,-1],
"split_conditions":[1.8132071197032928e-01,1.7212462844327092e-03,-1.3612376525998116e-02,-9.0354932472109795e-03,2.3616678714752197e+00,1.5004459619522095e+00,3.5765457153320312e+00,3.6516643524169922e+01,-9.8791802302002907e-03,1.2112925760447979e-02,1.6546892002224922e-02,9.1955982148647308e-02,4.4133318588137627e-03,4.4425601959228516e+00,1.0498238727450371e-02,7.3498249053955078e+00,-1.0427889414131641e-02,5.9866784140467644e-03,-6.1614043079316616e-03,3.1150776892900467e-02,-6.7992029190063477e+00,4.0030527859926224e-02,1.3934996910393238e-02],
"split_indices":[7,7,0,0,9,1,9,0,0,0,0,2,7,6,0,6,0,0,0,0,11,0,0],
"split_type":[0,0,0,0,0,0,0,0,0,0,0,0,0,0,0,0,0,0,0,0,0,0,0],
"sum_hessian":[0.0,0.0,0.0,0.0,0.0,0.0,0.0,0.0,0.0,0.0,0.0,0.0,0.0,0.0,0.0,0.0,0.0,0.0,0.0,0.0,0.0,0.0,0.0],
"tree_param":{"num_deleted":"0","num_feature":"13","num_nodes":"23","size_leaf_vector":"0"}
},
{
"base_weights":[0.0,0.0,0.0,0.0,0.0,0.0,0.0,0.0,0.0,0.0,0.0,0.0,0.0,0.0,0.0,0.0,0.0,0.0,0.0,0.0,0.0],
"categories":[],"categories_nodes":[],"categories_segments":[],"categories_sizes":[],
"default_left":[true,true,true,true,false,false,true,false,true,false,false,true,false,true,true,true,false,false,false,false,false],
"id":62,
"left_children":[1,3,5,7,-1,-1,9,-1,11,-1,-1,13,-1,15,17,19,-1,-1,-1,-1,-1],
"loss_changes":[0.0,0.0,0.0,0.0,0.0,0.0,0.0,0.0,0.0,0.0,0.0,0.0,0.0,0.0,0.0,0.0,0.0,0.0,0.0,0.0,0.0],
"parents":[2147483647,0,0,1,1,2,2,3,3,6,6,8,8,11,11,13,13,14,14,15,15],
"right_children":[2,4,6,8,-1,-1,10,-1,12,-1,-1,14,-1,16,18,20,-1,-1,-1,-1,-1],
"split_conditions":[8.9947528839111328e+00,6.7932829260826111e-02,8.9478468894958496e-01,1.7314036376774311e-03,-1.6613347455859184e-02,3.4487325698137283e-02,9.7171741724014282e-01,-7.9170065000653267e-03,1.3780834674835205e+00,2.3973444476723671e-02,-1.0405658744275570e-02,3.6499347686767578e+01,-7.1733398362994194e-03,9.1955982148647308e-02,2.7905472088605165e-03,1.0798513889312744e+00,1.2406856752932072e-02,3.7258371710777283e-02,-8.9777214452624321e-03,2.2560469806194305e-03,9.0838605538010597e-03],
"split_indices":[6,7,8,7,0,0,8,0,1,0,0,0,0,2,7,9,0,0,0,0,0],
"split_type":[0,0,0,0,0,0,0,0,0,0,0,0,0,0,0,0,0,0,0,0,0],
"sum_hessian":[0.0,0.0,0.0,0.0,0.0,0.0,0.0,0.0,0.0,0.0,0.0,0.0,0.0,0.0,0.0,0.0,0.0,0.0,0.0,0.0,0.0],
"tree_param":{"num_deleted":"0","num_feature":"13","num_nodes":"21","size_leaf_vector":"0"}
},
{
"base_weights":[0.0,0.0,0.0,0.0,0.0,0.0,0.0,0.0,0.0,0.0,0.0,0.0,0.0,0.0,0.0,0.0,0.0],
"categories":[],"categories_nodes":[],"categories_segments":[],"categories_sizes":[],
"default_left":[true,true,false,true,false,true,false,false,true,true,false,false,true,false,true,false,false],
"id":63,
"left_children":[1,3,-1,5,-1,7,-1,-1,9,11,-1,-1,13,-1,15,-1,-1],
"loss_changes":[0.0,0.0,0.0,0.0,0.0,0.0,0.0,0.0,0.0,0.0,0.0,0.0,0.0,0.0,0.0,0.0,0.0],
"parents":[2147483647,0,0,1,1,3,3,5,5,8,8,9,9,12,12,14,14],
"right_children":[2,4,-1,6,-1,8,-1,-1,10,12,-1,-1,14,-1,16,-1,-1],
"split_conditions":[7.8548677265644073e-02,7.2942845523357391e-02,-1.1246298439800739e-02,3.1968392431735992e-02,-5.6934463791549206e-03,1.6982130050659180e+01,9.2511987313628197e-03,-4.3139215558767319e-03,2.2897391319274902e+00,3.6739130020141602e+00,1.5330145135521889e-02,1.3210833072662354e-02,3.1905990600585938e+01,-1.0337776504456997e-02,9.1446380615234375e+01,2.5001771748065948e-02,-6.7802751436829567e-03],
"split_indices":[3,4,0,7,0,0,0,0,9,6,0,0,0,0,0,0,0],
"split_type":[0,0,0,0,0,0,0,0,0,0,0,0,0,0,0,0,0],
"sum_hessian":[0.0,0.0,0.0,0.0,0.0,0.0,0.0,0.0,0.0,0.0,0.0,0.0,0.0,0.0,0.0,0.0,0.0],
"tree_param":{"num_deleted":"0","num_feature":"13","num_nodes":"17","size_leaf_vector":"0"}
},
{
"base_weights":[0.0,0.0,0.0,0.0,0.0,0.0,0.0,0.0,0.0,0.0,0.0,0.0,0.0,0.0,0.0,0.0,0.0,0.0,0.0,0.0,0.0],
"categories":[],"categories_nodes":[],"categories_segments":[],"categories_sizes":[],
"default_left":[true,true,false,true,true,true,true,false,true,false,true,false,false,true,false,false,false,true,false,false,false],
"id":64,
"left_children":[1,3,-1,5,7,9,11,-1,13,-1,15,-1,-1,17,-1,-1,-1,19,-1,-1,-1],
"loss_changes":[0.0,0.0,0.0,0.0,0.0,0.0,0.0,0.0,0.0,0.0,0.0,0.0,0.0,0.0,0.0,0.0,0.0,0.0,0.0,0.0,0.0],
"parents":[2147483647,0,0,1,1,3,3,4,4,5,5,6,6,8,8,10,10,13,13,17,17],
"right_children":[2,4,-1,6,8,10,12,-1,14,-1,16,-1,-1,18,-1,-1,-1,20,-1,-1,-1],
"split_conditions":[4.4156360626220703e+00,5.5742130279541016e+00,-1.2854524888098240e-02,1.0074962377548218e+00,7.7619415521621704e-01,1.9167522430419922e+01,7.3031240701675415e-01,2.3382343351840973e-02,-6.8117265701293945e+00,9.4603858888149261e-03,4.4955550692975521e-03,-1.2022594921290874e-02,5.0813741981983185e-03,9.3531703948974609e-01,-1.0057068429887295e-02,3.2988034188747406e-02,-6.0017802752554417e-03,1.9980245269834995e-03,2.9430089518427849e-02,4.4963724911212921e-02,5.1174899563193321e-03],
"split_indices":[9,6,0,5,8,0,8,0,10,0,7,0,0,9,0,0,0,7,0,0,0],
"split_type":[0,0,0,0,0,0,0,0,0,0,0,0,0,0,0,0,0,0,0,0,0],
"sum_hessian":[0.0,0.0,0.0,0.0,0.0,0.0,0.0,0.0,0.0,0.0,0.0,0.0,0.0,0.0,0.0,0.0,0.0,0.0,0.0,0.0,0.0],
"tree_param":{"num_deleted":"0","num_feature":"13","num_nodes":"21","size_leaf_vector":"0"}
},
{
"base_weights":[0.0,0.0,0.0,0.0,0.0,0.0,0.0,0.0,0.0,0.0,0.0,0.0,0.0,0.0,0.0,0.0,0.0,0.0,0.0,0.0,0.0,0.0,0.0,0.0,0.0],
"categories":[],"categories_nodes":[],"categories_segments":[],"categories_sizes":[],
"default_left":[true,true,true,false,true,true,false,true,false,false,true,true,true,false,false,false,true,true,false,false,true,false,false,false,false],
"id":65,
"left_children":[1,3,5,-1,7,9,-1,11,-1,-1,13,15,17,-1,-1,-1,19,21,-1,-1,23,-1,-1,-1,-1],
"loss_changes":[0.0,0.0,0.0,0.0,0.0,0.0,0.0,0.0,0.0,0.0,0.0,0.0,0.0,0.0,0.0,0.0,0.0,0.0,0.0,0.0,0.0,0.0,0.0,0.0,0.0],
"parents":[2147483647,0,0,1,1,2,2,4,4,5,5,7,7,10,10,11,11,12,12,16,16,17,17,20,20],
"right_children":[2,4,6,-1,8,10,-1,12,-1,-1,14,16,18,-1,-1,-1,20,22,-1,-1,24,-1,-1,-1,-1],
"split_conditions":[1.5987473307177424e-03,-1.6851531267166138e+00,5.7408603668212891e+01,-7.4189198203384876e-03,1.6793262958526611e+00,2.8734383583068848e+00,-2.4556929245591164e-02,4.4955550692975521e-03,-5.8628292754292488e-03,-1.0717465542256832e-02,1.0998166799545288e+00,8.9585554599761963e-01,5.5742130279541016e+00,1.3382405973970890e-02,-1.8466009059920907e-03,-1.3016155920922756e-02,5.8070964813232422e+00,-6.9419088363647461e+00,2.6275424286723137e-02,2.6485430076718330e-02,9.5868426561355591e-01,8.8934227824211121e-03,2.9487004503607750e-03,4.2017500847578049e-02,4.6928091906011105e-03],
"split_indices":[4,1,0,0,1,6,0,7,0,0,9,8,6,0,0,0,6,10,0,0,8,0,0,0,0],
"split_type":[0,0,0,0,0,0,0,0,0,0,0,0,0,0,0,0,0,0,0,0,0,0,0,0,0],
"sum_hessian":[0.0,0.0,0.0,0.0,0.0,0.0,0.0,0.0,0.0,0.0,0.0,0.0,0.0,0.0,0.0,0.0,0.0,0.0,0.0,0.0,0.0,0.0,0.0,0.0,0.0],
"tree_param":{"num_deleted":"0","num_feature":"13","num_nodes":"25","size_leaf_vector":"0"}
},
{
"base_weights":[0.0,0.0,0.0,0.0,0.0,0.0,0.0,0.0,0.0,0.0,0.0,0.0,0.0,0.0,0.0,0.0,0.0],
"categories":[],"categories_nodes":[],"categories_segments":[],"categories_sizes":[],
"default_left":[true,true,false,false,true,true,false,false,true,true,false,true,false,true,false,false,false],
"id":66,
"left_children":[1,3,-1,-1,5,7,-1,-1,9,11,-1,13,-1,15,-1,-1,-1],
"loss_changes":[0.0,0.0,0.0,0.0,0.0,0.0,0.0,0.0,0.0,0.0,0.0,0.0,0.0,0.0,0.0,0.0,0.0],
"parents":[2147483647,0,0,1,1,4,4,5,5,8,8,9,9,11,11,13,13],
"right_children":[2,4,-1,-1,6,8,-1,-1,10,12,-1,14,-1,16,-1,-1,-1],
"split_conditions":[1.8132071197032928e-01,6.1331403255462646e-01,-1.2088528834283352e-02,-4.7636623494327068e-03,2.6724614202976227e-02,1.6556967748329043e-03,1.0253782384097576e-02,-7.1963616646826267e-03,9.2042446136474609e-02,8.9583396911621094e-03,1.5975346788764000e-02,1.7353352308273315e+00,-1.0105009190738201e-02,4.4340329170227051e+00,2.5373639538884163e-02,2.0782763138413429e-02,8.7040094658732414e-03],
"split_indices":[7,8,0,0,7,7,0,0,2,7,0,9,0,6,0,0,0],
"split_type":[0,0,0,0,0,0,0,0,0,0,0,0,0,0,0,0,0],
"sum_hessian":[0.0,0.0,0.0,0.0,0.0,0.0,0.0,0.0,0.0,0.0,0.0,0.0,0.0,0.0,0.0,0.0,0.0],
"tree_param":{"num_deleted":"0","num_feature":"13","num_nodes":"17","size_leaf_vector":"0"}
},
{
"base_weights":[0.0,0.0,0.0,0.0,0.0,0.0,0.0,0.0,0.0,0.0,0.0,0.0,0.0,0.0,0.0,0.0,0.0,0.0,0.0,0.0,0.0],
"categories":[],"categories_nodes":[],"categories_segments":[],"categories_sizes":[],
"default_left":[true,true,true,true,true,false,true,true,false,true,false,false,false,false,true,false,false,false,true,false,false],
"id":67,
"left_children":[1,3,5,7,9,-1,11,13,-1,15,-1,-1,-1,-1,17,-1,-1,-1,19,-1,-1],
"loss_changes":[0.0,0.0,0.0,0.0,0.0,0.0,0.0,0.0,0.0,0.0,0.0,0.0,0.0,0.0,0.0,0.0,0.0,0.0,0.0,0.0,0.0],
"parents":[2147483647,0,0,1,1,2,2,3,3,4,4,6,6,7,7,9,9,14,14,18,18],
"right_children":[2,4,6,8,10,-1,12,14,-1,16,-1,-1,-1,-1,18,-1,-1,-1,20,-1,-1],
"split_conditions":[9.3748121261596680e+00,1.0074962377548218e+00,9.0280562639236450e-01,9.4559264183044434e-01,3.8098560333251953e+01,3.2756060361862183e-02,6.3020093366503716e-03,2.4975305423140526e-03,2.0150005817413330e-02,3.9637949466705322e+00,-2.4076035246253014e-02,2.3544536903500557e-02,-1.0441945865750313e-02,-1.0646820068359375e-02,2.0654102325439453e+01,-9.7322594374418259e-03,1.0898063890635967e-02,1.1332370340824127e-02,5.9864288195967674e-03,2.2522458806633949e-02,-1.0422398336231709e-02],
"split_indices":[6,5,8,8,0,0,2,7,0,6,0,0,0,0,0,0,0,0,7,0,0],
"split_type":[0,0,0,0,0,0,0,0,0,0,0,0,0,0,0,0,0,0,0,0,0],
"sum_hessian":[0.0,0.0,0.0,0.0,0.0,0.0,0.0,0.0,0.0,0.0,0.0,0.0,0.0,0.0,0.0,0.0,0.0,0.0,0.0,0.0,0.0],
"tree_param":{"num_deleted":"0","num_feature":"13","num_nodes":"21","size_leaf_vector":"0"}
},
{
"base_weights":[0.0,0.0,0.0,0.0,0.0,0.0,0.0,0.0,0.0,0.0,0.0,0.0,0.0,0.0,0.0,0.0,0.0,0.0,0.0,0.0,0.0],
"categories":[],"categories_nodes":[],"categories_segments":[],"categories_sizes":[],
"default_left":[true,true,true,true,true,true,false,true,true,false,false,false,false,true,true,false,false,false,false,false,false],
"id":68,
"left_children":[1,3,5,7,9,11,-1,13,15,-1,-1,-1,-1,17,19,-1,-1,-1,-1,-1,-1],
"loss_changes":[0.0,0.0,0.0,0.0,0.0,0.0,0.0,0.0,0.0,0.0,0.0,0.0,0.0,0.0,0.0,0.0,0.0,0.0,0.0,0.0,0.0],
"parents":[2147483647,0,0,1,1,2,2,3,3,4,4,5,5,7,7,8,8,13,13,14,14],
"right_children":[2,4,6,8,10,12,-1,14,16,-1,-1,-1,-1,18,20,-1,-1,-1,-1,-1,-1],
"split_conditions":[-5.6699204444885254e+00,9.3748121261596680e+00,1.0004997253417969e+00,4.1068187713623047e+01,2.4975305423140526e-03,9.0246546268463135e-01,-1.4949379488825798e-02,2.8624281883239746e+00,8.8326483964920044e-01,2.5769105181097984e-02,3.5419695079326630e-02,-3.2460901420563459e-03,1.2165998108685017e-02,-6.8770198822021484e+00,7.6190423965454102e-01,-1.9437465816736221e-02,2.6151308789849281e-02,4.1094589978456497e-03,-2.6217920240014791e-03,1.5286868438124657e-02,-1.2403911678120494e-03],
"split_indices":[11,6,5,0,7,8,0,6,8,0,0,0,0,11,8,0,0,0,0,0,0],
"split_type":[0,0,0,0,0,0,0,0,0,0,0,0,0,0,0,0,0,0,0,0,0],
"sum_hessian":[0.0,0.0,0.0,0.0,0.0,0.0,0.0,0.0,0.0,0.0,0.0,0.0,0.0,0.0,0.0,0.0,0.0,0.0,0.0,0.0,0.0],
"tree_param":{"num_deleted":"0","num_feature":"13","num_nodes":"21","size_leaf_vector":"0"}
},
{
"base_weights":[0.0,0.0,0.0,0.0,0.0,0.0,0.0,0.0,0.0,0.0,0.0,0.0,0.0,0.0,0.0,0.0,0.0,0.0,0.0,0.0,0.0],
"categories":[],"categories_nodes":[],"categories_segments":[],"categories_sizes":[],
"default_left":[true,true,false,true,true,true,true,false,true,true,false,false,false,false,false,false,true,false,true,false,false],
"id":69,
"left_children":[1,3,-1,5,7,9,11,-1,13,15,-1,-1,-1,-1,-1,-1,17,-1,19,-1,-1],
"loss_changes":[0.0,0.0,0.0,0.0,0.0,0.0,0.0,0.0,0.0,0.0,0.0,0.0,0.0,0.0,0.0,0.0,0.0,0.0,0.0,0.0,0.0],
"parents":[2147483647,0,0,1,1,3,3,4,4,5,5,6,6,8,8,9,9,16,16,18,18],
"right_children":[2,4,-1,6,8,10,12,-1,14,16,-1,-1,-1,-1,-1,-1,18,-1,20,-1,-1],
