{"learner":{"attributes":{},"feature_names":[],"feature_types":[],"gradient_booster":{"model":{"gbtree_model_param":{"num_trees":"500","size_leaf_vector":"0"},
"tree_info":[0,0,0,0,0,0,0,0,0,0,0,0,0,0,0,0,0,0,0,0,0,0,0,0,0,0,0,0,0,0,0,0,0,0,0,0,0,0,0,0,0,0,0,0,0,0,0,0,0,0,0,0,0,0,0,0,0,0,0,0,0,0,0,0,0,0,0,0,0,0,0,0,0,0,0,0,0,0,0,0,0,0,0,0,0,0,0,0,0,0,0,0,0,0,0,0,0,0,0,0,0,0,0,0,0,0,0,0,0,0,0,0,0,0,0,0,0,0,0,0,0,0,0,0,0,0,0,0,0,0,0,0,0,0,0,0,0,0,0,0,0,0,0,0,0,0,0,0,0,0,0,0,0,0,0,0,0,0,0,0,0,0,0,0,0,0,0,0,0,0,0,0,0,0,0,0,0,0,0,0,0,0,0,0,0,0,0,0,0,0,0,0,0,0,0,0,0,0,0,0,0,0,0,0,0,0,0,0,0,0,0,0,0,0,0,0,0,0,0,0,0,0,0,0,0,0,0,0,0,0,0,0,0,0,0,0,0,0,0,0,0,0,0,0,0,0,0,0,0,0,0,0,0,0,0,0,0,0,0,0,0,0,0,0,0,0,0,0,0,0,0,0,0,0,0,0,0,0,0,0,0,0,0,0,0,0,0,0,0,0,0,0,0,0,0,0,0,0,0,0,0,0,0,0,0,0,0,0,0,0,0,0,0,0,0,0,0,0,0,0,0,0,0,0,0,0,0,0,0,0,0,0,0,0,0,0,0,0,0,0,0,0,0,0,0,0,0,0,0,0,0,0,0,0,0,0,0,0,0,0,0,0,0,0,0,0,0,0,0,0,0,0,0,0,0,0,0,0,0,0,0,0,0,0,0,0,0,0,0,0,0,0,0,0,0,0,0,0,0,0,0,0,0,0,0,0,0,0,0,0,0,0,0,0,0,0,0,0,0,0,0,0,0,0,0,0,0,0,0,0,0,0,0,0,0,0,0,0,0,0,0,0,0,0,0,0,0,0,0,0,0,0,0,0,0,0,0,0,0,0,0,0,0,0,0,0,0,0,0,0,0,0,0,0,0,0,0,0,0,0,0,0,0,0,0,0,0,0,0,0,0,0,0,0,0,0,0,0,0,0],
"trees":
[
{
"base_weights":[0.0,0.0,0.0,0.0,0.0,0.0,0.0,0.0,0.0,0.0,0.0,0.0,0.0,0.0,0.0,0.0,0.0,0.0,0.0,0.0,0.0],
"categories":[],"categories_nodes":[],"categories_segments":[],"categories_sizes":[],
"default_left":[true,true,true,true,false,true,false,false,false,false,true,false,true,true,false,false,true,false,true,false,false],
"id":0,
"left_children":[1,3,5,7,-1,9,-1,-1,-1,-1,11,-1,13,15,-1,-1,17,-1,19,-1,-1],
"loss_changes":[0.0,0.0,0.0,0.0,0.0,0.0,0.0,0.0,0.0,0.0,0.0,0.0,0.0,0.0,0.0,0.0,0.0,0.0,0.0,0.0,0.0],
"parents":[2147483647,0,0,1,1,2,2,3,3,5,5,10,10,12,12,13,13,16,16,18,18],
"right_children":[2,4,6,8,-1,10,-1,-1,-1,-1,12,-1,14,16,-1,-1,18,-1,20,-1,-1],
"split_conditions":[9.9500244855880737e-01,2.2631290555000305e-01,5.5445179343223572e-02,-9.9877440929412842e-01,-3.2578013837337494e-02,1.9977708816528320e+01,-1.2535139918327332e-02,-9.8895877599716187e-02,-8.3491571247577667e-02,5.7727225124835968e-02,9.9987006187438965e-01,8.1772714853286743e-02,6.9240280427038670e-03,9.9998080730438232e-01,9.2902183532714844e-02,9.6873015165328979e-02,9.9999445676803589e-01,9.9097318947315216e-02,4.4475090026855469e+01,9.9491044878959656e-02,9.9886402487754822e-02],
"split_indices":[12,12,7,12,0,0,0,0,0,0,12,0,7,12,0,0,12,0,0,0,0],
"split_type":[0,0,0,0,0,0,0,0,0,0,0,0,0,0,0,0,0,0,0,0,0],
"sum_hessian":[0.0,0.0,0.0,0.0,0.0,0.0,0.0,0.0,0.0,0.0,0.0,0.0,0.0,0.0,0.0,0.0,0.0,0.0,0.0,0.0,0.0],
"tree_param":{"num_deleted":"0","num_feature":"13","num_nodes":"21","size_leaf_vector":"0"}
},
{
"base_weights":[0.0,0.0,0.0,0.0,0.0,0.0,0.0,0.0,0.0,0.0,0.0,0.0,0.0,0.0,0.0,0.0,0.0,0.0,0.0,0.0,0.0],
"categories":[],"categories_nodes":[],"categories_segments":[],"categories_sizes":[],
"default_left":[true,true,true,true,false,true,false,false,false,false,true,false,true,true,false,false,true,false,true,false,false],
"id":1,
"left_children":[1,3,5,7,-1,9,-1,-1,-1,-1,11,-1,13,15,-1,-1,17,-1,19,-1,-1],
"loss_changes":[0.0,0.0,0.0,0.0,0.0,0.0,0.0,0.0,0.0,0.0,0.0,0.0,0.0,0.0,0.0,0.0,0.0,0.0,0.0,0.0,0.0],
"parents":[2147483647,0,0,1,1,2,2,3,3,5,5,10,10,12,12,13,13,16,16,18,18],
"right_children":[2,4,6,8,-1,10,-1,-1,-1,-1,12,-1,14,16,-1,-1,18,-1,20,-1,-1],
"split_conditions":[9.9200391769409180e-01,-2.9219669103622437e-01,1.3706772029399872e-01,-9.9964636564254761e-01,-3.6892902106046677e-02,9.9980813264846802e-01,-1.7189942300319672e-02,-9.0242713689804077e-02,-7.9607494175434113e-02,5.5965568870306015e-02,2.0828359603881836e+01,7.0882931351661682e-02,7.4925916269421577e-03,9.9997729063034058e-01,8.0067686736583710e-02,8.7706834077835083e-02,9.9999445676803589e-01,9.0090699493885040e-02,2.7557022403925657e-03,9.0816393494606018e-02,9.0429350733757019e-02],
"split_indices":[12,12,2,12,0,12,0,0,0,0,0,0,7,12,0,0,12,0,7,0,0],
"split_type":[0,0,0,0,0,0,0,0,0,0,0,0,0,0,0,0,0,0,0,0,0],
"sum_hessian":[0.0,0.0,0.0,0.0,0.0,0.0,0.0,0.0,0.0,0.0,0.0,0.0,0.0,0.0,0.0,0.0,0.0,0.0,0.0,0.0,0.0],
"tree_param":{"num_deleted":"0","num_feature":"13","num_nodes":"21","size_leaf_vector":"0"}
},
{
"base_weights":[0.0,0.0,0.0,0.0,0.0,0.0,0.0,0.0,0.0,0.0,0.0,0.0,0.0,0.0,0.0,0.0,0.0,0.0,0.0,0.0,0.0],
"categories":[],"categories_nodes":[],"categories_segments":[],"categories_sizes":[],
"default_left":[true,true,true,true,false,true,false,false,false,false,true,false,true,false,true,true,false,false,true,false,false],
"id":2,
"left_children":[1,3,5,7,-1,9,-1,-1,-1,-1,11,-1,13,-1,15,17,-1,-1,19,-1,-1],
"loss_changes":[0.0,0.0,0.0,0.0,0.0,0.0,0.0,0.0,0.0,0.0,0.0,0.0,0.0,0.0,0.0,0.0,0.0,0.0,0.0,0.0,0.0],
"parents":[2147483647,0,0,1,1,2,2,3,3,5,5,10,10,12,12,14,14,15,15,18,18],
"right_children":[2,4,6,8,-1,10,-1,-1,-1,-1,12,-1,14,-1,16,18,-1,-1,20,-1,-1],
"split_conditions":[9.8600691556930542e-01,-5.4543185234069824e-01,6.3437275588512421e-02,-9.9977284669876099e-01,-3.8972489535808563e-02,1.7923475265502930e+01,-2.2519612684845924e-02,-8.3550669252872467e-02,-7.4731998145580292e-02,3.9021201431751251e-02,9.9979013204574585e-01,6.2487233430147171e-02,9.9996668100357056e-01,7.7062122523784637e-02,-5.7308835983276367e+00,3.9130434989929199e+00,8.0593466758728027e-02,8.2591935992240906e-02,-5.9363708496093750e+00,8.4037706255912781e-02,8.3724930882453918e-02],
"split_indices":[12,12,7,12,0,0,0,0,0,0,12,0,12,0,10,6,0,0,11,0,0],
"split_type":[0,0,0,0,0,0,0,0,0,0,0,0,0,0,0,0,0,0,0,0,0],
"sum_hessian":[0.0,0.0,0.0,0.0,0.0,0.0,0.0,0.0,0.0,0.0,0.0,0.0,0.0,0.0,0.0,0.0,0.0,0.0,0.0,0.0,0.0],
"tree_param":{"num_deleted":"0","num_feature":"13","num_nodes":"21","size_leaf_vector":"0"}
},
{
"base_weights":[0.0,0.0,0.0,0.0,0.0,0.0,0.0,0.0,0.0,0.0,0.0,0.0,0.0,0.0,0.0,0.0,0.0,0.0,0.0,0.0,0.0,0.0,0.0],
"categories":[],"categories_nodes":[],"categories_segments":[],"categories_sizes":[],
"default_left":[true,true,true,true,false,true,false,true,false,true,false,false,false,false,true,true,false,false,true,true,false,false,false],
"id":3,
"left_children":[1,3,5,7,-1,9,-1,11,-1,13,-1,-1,-1,-1,15,17,-1,-1,19,21,-1,-1,-1],
"loss_changes":[0.0,0.0,0.0,0.0,0.0,0.0,0.0,0.0,0.0,0.0,0.0,0.0,0.0,0.0,0.0,0.0,0.0,0.0,0.0,0.0,0.0,0.0,0.0],
"parents":[2147483647,0,0,1,1,2,2,3,3,5,5,7,7,9,9,14,14,15,15,18,18,19,19],
"right_children":[2,4,6,8,-1,10,-1,12,-1,14,-1,-1,-1,-1,16,18,-1,-1,20,22,-1,-1,-1],
"split_conditions":[9.9700146913528442e-01,6.7464673519134521e-01,1.2656334042549133e-01,-9.9246811866760254e-01,-1.6074823215603828e-02,3.0694696903228760e+00,-9.6671301871538162e-03,6.1976778507232666e-01,-5.9070102870464325e-02,9.9990701675415039e-01,5.2944350987672806e-02,-7.6375916600227356e-02,-7.8462861478328705e-02,6.1922889202833176e-02,4.0290188044309616e-02,9.9998617172241211e-01,7.2143182158470154e-02,7.5569882988929749e-02,-6.0204315185546875e+00,2.4975305423140526e-03,7.7430360019207001e-02,7.8771844506263733e-02,7.9172596335411072e-02],
"split_indices":[12,12,2,12,0,9,0,8,0,12,0,0,0,0,2,12,0,0,10,7,0,0,0],
"split_type":[0,0,0,0,0,0,0,0,0,0,0,0,0,0,0,0,0,0,0,0,0,0,0],
"sum_hessian":[0.0,0.0,0.0,0.0,0.0,0.0,0.0,0.0,0.0,0.0,0.0,0.0,0.0,0.0,0.0,0.0,0.0,0.0,0.0,0.0,0.0,0.0,0.0],
"tree_param":{"num_deleted":"0","num_feature":"13","num_nodes":"23","size_leaf_vector":"0"}
},
{
"base_weights":[0.0,0.0,0.0,0.0,0.0,0.0,0.0,0.0,0.0,0.0,0.0,0.0,0.0,0.0,0.0,0.0,0.0,0.0,0.0,0.0,0.0,0.0,0.0],
"categories":[],"categories_nodes":[],"categories_segments":[],"categories_sizes":[],
"default_left":[true,true,true,true,false,true,false,true,false,false,true,false,false,false,true,true,false,false,true,false,true,false,false],
"id":4,
"left_children":[1,3,5,7,-1,9,-1,11,-1,-1,13,-1,-1,-1,15,17,-1,-1,19,-1,21,-1,-1],
"loss_changes":[0.0,0.0,0.0,0.0,0.0,0.0,0.0,0.0,0.0,0.0,0.0,0.0,0.0,0.0,0.0,0.0,0.0,0.0,0.0,0.0,0.0,0.0,0.0],
"parents":[2147483647,0,0,1,1,2,2,3,3,5,5,7,7,10,10,14,14,15,15,18,18,20,20],
"right_children":[2,4,6,8,-1,10,-1,12,-1,-1,14,-1,-1,-1,16,18,-1,-1,20,-1,22,-1,-1],
"split_conditions":[9.9700146913528442e-01,6.9560474157333374e-01,5.1948636770248413e-02,-9.9152624607086182e-01,-1.4126884751021862e-02,1.9097322463989258e+01,-9.5493718981742859e-03,6.1755979061126709e-01,-5.4282572120428085e-02,3.8732446730136871e-02,9.9991899728775024e-01,-7.2001926600933075e-02,-7.4153557419776917e-02,6.3000865280628204e-02,-5.6625537872314453e+00,9.9998480081558228e-01,7.0988386869430542e-02,7.2416901588439941e-02,5.2173914909362793e+00,7.3884479701519012e-02,2.5506732054054737e-03,7.4596129357814789e-02,7.4758529663085938e-02],
"split_indices":[12,12,7,12,0,0,0,8,0,0,12,0,0,0,10,12,0,0,6,0,7,0,0],
"split_type":[0,0,0,0,0,0,0,0,0,0,0,0,0,0,0,0,0,0,0,0,0,0,0],
"sum_hessian":[0.0,0.0,0.0,0.0,0.0,0.0,0.0,0.0,0.0,0.0,0.0,0.0,0.0,0.0,0.0,0.0,0.0,0.0,0.0,0.0,0.0,0.0,0.0],
"tree_param":{"num_deleted":"0","num_feature":"13","num_nodes":"23","size_leaf_vector":"0"}
},
{
"base_weights":[0.0,0.0,0.0,0.0,0.0,0.0,0.0,0.0,0.0,0.0,0.0,0.0,0.0,0.0,0.0,0.0,0.0,0.0,0.0,0.0,0.0],
"categories":[],"categories_nodes":[],"categories_segments":[],"categories_sizes":[],
"default_left":[true,true,true,true,false,true,false,false,false,false,true,true,false,false,true,true,false,true,false,false,false],
"id":5,
"left_children":[1,3,5,7,-1,9,-1,-1,-1,-1,11,13,-1,-1,15,17,-1,19,-1,-1,-1],
"loss_changes":[0.0,0.0,0.0,0.0,0.0,0.0,0.0,0.0,0.0,0.0,0.0,0.0,0.0,0.0,0.0,0.0,0.0,0.0,0.0,0.0,0.0],
"parents":[2147483647,0,0,1,1,2,2,3,3,5,5,10,10,11,11,14,14,15,15,17,17],
"right_children":[2,4,6,8,-1,10,-1,-1,-1,-1,12,14,-1,-1,16,18,-1,20,-1,-1,-1],
"split_conditions":[9.8400795459747314e-01,-6.7081952095031738e-01,1.5012179315090179e-01,3.9020490646362305e+00,-3.1193999573588371e-02,9.9960833787918091e-01,-2.2658620029687881e-02,-7.0263706147670746e-02,-6.3731946051120758e-02,3.4288976341485977e-02,2.8816745281219482e+00,9.9996763467788696e-01,4.9754131585359573e-02,6.1907809227705002e-02,-5.9267702102661133e+00,4.9950610846281052e-03,6.6925637423992157e-02,1.8366670701652765e-03,7.0092573761940002e-02,7.0867851376533508e-02,7.0974566042423248e-02],
"split_indices":[12,12,2,6,0,12,0,0,0,0,9,12,0,0,10,7,0,7,0,0,0],
"split_type":[0,0,0,0,0,0,0,0,0,0,0,0,0,0,0,0,0,0,0,0,0],
"sum_hessian":[0.0,0.0,0.0,0.0,0.0,0.0,0.0,0.0,0.0,0.0,0.0,0.0,0.0,0.0,0.0,0.0,0.0,0.0,0.0,0.0,0.0],
"tree_param":{"num_deleted":"0","num_feature":"13","num_nodes":"21","size_leaf_vector":"0"}
},
{
"base_weights":[0.0,0.0,0.0,0.0,0.0,0.0,0.0,0.0,0.0,0.0,0.0,0.0,0.0,0.0,0.0,0.0,0.0,0.0,0.0,0.0,0.0],
"categories":[],"categories_nodes":[],"categories_segments":[],"categories_sizes":[],
"default_left":[true,true,true,true,false,true,false,false,false,false,true,true,false,false,true,true,false,true,false,false,false],
"id":6,
"left_children":[1,3,5,7,-1,9,-1,-1,-1,-1,11,13,-1,-1,15,17,-1,19,-1,-1,-1],
"loss_changes":[0.0,0.0,0.0,0.0,0.0,0.0,0.0,0.0,0.0,0.0,0.0,0.0,0.0,0.0,0.0,0.0,0.0,0.0,0.0,0.0,0.0],
"parents":[2147483647,0,0,1,1,2,2,3,3,5,5,10,10,11,11,14,14,15,15,17,17],
"right_children":[2,4,6,8,-1,10,-1,-1,-1,-1,12,14,-1,-1,16,18,-1,20,-1,-1,-1],
"split_conditions":[9.7501242160797119e-01,-8.4010404348373413e-01,6.7932829260826111e-02,3.9020490646362305e+00,-3.2622788101434708e-02,1.6974544851109385e-03,-2.5115687400102615e-02,-6.7511379718780518e-02,-6.1824552714824677e-02,2.2260427474975586e-02,1.9571941345930099e-02,9.9993753433227539e-01,4.7818016260862350e-02,5.8827463537454605e-02,5.9471013955771923e-03,1.9586818218231201e+00,6.7394174635410309e-02,1.8347749486565590e-02,6.8160429596900940e-02,6.8002454936504364e-02,6.8065129220485687e-02],
"split_indices":[12,12,7,6,0,7,0,0,0,0,7,12,0,0,7,9,0,2,0,0,0],
"split_type":[0,0,0,0,0,0,0,0,0,0,0,0,0,0,0,0,0,0,0,0,0],
"sum_hessian":[0.0,0.0,0.0,0.0,0.0,0.0,0.0,0.0,0.0,0.0,0.0,0.0,0.0,0.0,0.0,0.0,0.0,0.0,0.0,0.0,0.0],
"tree_param":{"num_deleted":"0","num_feature":"13","num_nodes":"21","size_leaf_vector":"0"}
},
{
"base_weights":[0.0,0.0,0.0,0.0,0.0,0.0,0.0,0.0,0.0,0.0,0.0,0.0,0.0,0.0,0.0,0.0,0.0,0.0,0.0,0.0,0.0,0.0,0.0],
"categories":[],"categories_nodes":[],"categories_segments":[],"categories_sizes":[],
"default_left":[true,true,true,true,false,true,false,true,false,true,false,false,false,false,true,true,false,true,false,false,true,false,false],
"id":7,
"left_children":[1,3,5,7,-1,9,-1,11,-1,13,-1,-1,-1,-1,15,17,-1,19,-1,-1,21,-1,-1],
"loss_changes":[0.0,0.0,0.0,0.0,0.0,0.0,0.0,0.0,0.0,0.0,0.0,0.0,0.0,0.0,0.0,0.0,0.0,0.0,0.0,0.0,0.0,0.0,0.0],
"parents":[2147483647,0,0,1,1,2,2,3,3,5,5,7,7,9,9,14,14,15,15,17,17,20,20],
"right_children":[2,4,6,8,-1,10,-1,12,-1,14,-1,-1,-1,-1,16,18,-1,20,-1,-1,22,-1,-1],
"split_conditions":[9.9800091981887817e-01,8.0728679895401001e-01,1.2228548526763916e-01,-9.8193615674972534e-01,-7.8486502170562744e-03,-5.3094477653503418e+00,-8.4549300372600555e-03,-9.9998193979263306e-01,-4.1458059102296829e-02,9.9993103742599487e-01,4.0244843810796738e-02,-6.6127419471740723e-02,-6.1325937509536743e-02,4.9661803990602493e-02,3.8495767861604691e-02,4.4955550692975521e-03,5.8959670364856720e-02,1.7988327890634537e-03,6.4581036567687988e-02,6.4813144505023956e-02,1.4871963262557983e+00,6.5583117306232452e-02,6.5849401056766510e-02],
"split_indices":[12,12,2,12,0,10,0,12,0,12,0,0,0,0,2,7,0,7,0,0,9,0,0],
"split_type":[0,0,0,0,0,0,0,0,0,0,0,0,0,0,0,0,0,0,0,0,0,0,0],
"sum_hessian":[0.0,0.0,0.0,0.0,0.0,0.0,0.0,0.0,0.0,0.0,0.0,0.0,0.0,0.0,0.0,0.0,0.0,0.0,0.0,0.0,0.0,0.0,0.0],
"tree_param":{"num_deleted":"0","num_feature":"13","num_nodes":"23","size_leaf_vector":"0"}
},
{
"base_weights":[0.0,0.0,0.0,0.0,0.0,0.0,0.0,0.0,0.0,0.0,0.0,0.0,0.0,0.0,0.0,0.0,0.0,0.0,0.0,0.0,0.0,0.0,0.0],
"categories":[],"categories_nodes":[],"categories_segments":[],"categories_sizes":[],
"default_left":[true,true,true,true,false,true,false,false,false,false,true,true,true,false,false,false,true,false,true,true,false,false,false],
"id":8,
"left_children":[1,3,5,7,-1,9,-1,-1,-1,-1,11,13,15,-1,-1,-1,17,-1,19,21,-1,-1,-1],
"loss_changes":[0.0,0.0,0.0,0.0,0.0,0.0,0.0,0.0,0.0,0.0,0.0,0.0,0.0,0.0,0.0,0.0,0.0,0.0,0.0,0.0,0.0,0.0,0.0],
"parents":[2147483647,0,0,1,1,2,2,3,3,5,5,10,10,11,11,12,12,16,16,18,18,19,19],
"right_children":[2,4,6,8,-1,10,-1,-1,-1,-1,12,14,16,-1,-1,-1,18,-1,20,22,-1,-1,-1],
"split_conditions":[9.9800091981887817e-01,8.3624333143234253e-01,3.3977042883634567e-02,4.8775610923767090e+00,-6.4196558669209480e-03,1.8981113433837891e+01,-1.0254640132188797e-02,-6.0275953263044357e-02,-4.4915005564689636e-02,2.9523571953177452e-02,4.9475264549255371e+00,8.5908341407775879e-01,8.6068654060363770e-01,4.5444037765264511e-02,6.0984108597040176e-02,6.4048230648040771e-02,4.5587890625000000e+01,6.1198424547910690e-02,1.5887354612350464e+00,3.2008609268814325e-03,6.3390187919139862e-02,6.3204236328601837e-02,6.3612490892410278e-02],
"split_indices":[12,12,3,6,0,0,0,0,0,0,6,8,8,0,0,0,0,0,9,2,0,0,0],
"split_type":[0,0,0,0,0,0,0,0,0,0,0,0,0,0,0,0,0,0,0,0,0,0,0],
"sum_hessian":[0.0,0.0,0.0,0.0,0.0,0.0,0.0,0.0,0.0,0.0,0.0,0.0,0.0,0.0,0.0,0.0,0.0,0.0,0.0,0.0,0.0,0.0,0.0],
"tree_param":{"num_deleted":"0","num_feature":"13","num_nodes":"23","size_leaf_vector":"0"}
},
{
"base_weights":[0.0,0.0,0.0,0.0,0.0,0.0,0.0,0.0,0.0,0.0,0.0,0.0,0.0,0.0,0.0,0.0,0.0,0.0,0.0,0.0,0.0],
"categories":[],"categories_nodes":[],"categories_segments":[],"categories_sizes":[],
"default_left":[true,true,true,true,false,true,false,false,false,false,true,false,true,true,false,true,false,true,false,false,false],
"id":9,
"left_children":[1,3,5,7,-1,9,-1,-1,-1,-1,11,-1,13,15,-1,17,-1,19,-1,-1,-1],
"loss_changes":[0.0,0.0,0.0,0.0,0.0,0.0,0.0,0.0,0.0,0.0,0.0,0.0,0.0,0.0,0.0,0.0,0.0,0.0,0.0,0.0,0.0],
"parents":[2147483647,0,0,1,1,2,2,3,3,5,5,10,10,12,12,13,13,15,15,17,17],
"right_children":[2,4,6,8,-1,10,-1,-1,-1,-1,12,-1,14,16,-1,18,-1,20,-1,-1,-1],
"split_conditions":[9.9800091981887817e-01,4.4183543324470520e-01,4.9451105296611786e-02,-9.9711805582046509e-01,-9.1272834688425064e-03,1.7294819699600339e-03,-9.8034720867872238e-03,-6.0962658375501633e-02,-4.1277177631855011e-02,2.6721831411123276e-02,9.9990403652191162e-01,4.8435814678668976e-02,4.3382782489061356e-02,5.5208965204656124e-03,5.9054527431726456e-02,1.9187253713607788e+00,5.9563506394624710e-02,9.9999207258224487e-01,6.1724502593278885e-02,6.0162428766489029e-02,6.2241997569799423e-02],
"split_indices":[12,12,7,12,0,7,0,0,0,0,12,0,2,7,0,9,0,12,0,0,0],
"split_type":[0,0,0,0,0,0,0,0,0,0,0,0,0,0,0,0,0,0,0,0,0],
"sum_hessian":[0.0,0.0,0.0,0.0,0.0,0.0,0.0,0.0,0.0,0.0,0.0,0.0,0.0,0.0,0.0,0.0,0.0,0.0,0.0,0.0,0.0],
"tree_param":{"num_deleted":"0","num_feature":"13","num_nodes":"21","size_leaf_vector":"0"}
},
{
"base_weights":[0.0,0.0,0.0,0.0,0.0,0.0,0.0,0.0,0.0,0.0,0.0,0.0,0.0,0.0,0.0,0.0,0.0,0.0,0.0,0.0,0.0,0.0,0.0],
"categories":[],"categories_nodes":[],"categories_segments":[],"categories_sizes":[],
"default_left":[true,true,true,true,false,true,false,false,false,true,false,false,true,true,false,true,true,true,false,false,false,false,false],
"id":10,
"left_children":[1,3,5,7,-1,9,-1,-1,-1,11,-1,-1,13,15,-1,17,19,21,-1,-1,-1,-1,-1],
"loss_changes":[0.0,0.0,0.0,0.0,0.0,0.0,0.0,0.0,0.0,0.0,0.0,0.0,0.0,0.0,0.0,0.0,0.0,0.0,0.0,0.0,0.0,0.0,0.0],
"parents":[2147483647,0,0,1,1,2,2,3,3,5,5,9,9,12,12,13,13,15,15,16,16,17,17],
"right_children":[2,4,6,8,-1,10,-1,-1,-1,12,-1,-1,14,16,-1,18,20,22,-1,-1,-1,-1,-1],
"split_conditions":[9.6601694822311401e-01,4.8775610923767090e+00,4.5169480144977570e-02,7.0430360734462738e-02,-3.4017585217952728e-02,3.4130947589874268e+00,-2.9227400198578835e-02,-4.9994423985481262e-02,-5.9589687734842300e-02,2.4636714935302734e+01,1.4243125915527344e-02,3.6490686237812042e-02,4.5626990497112274e-02,9.8950529098510742e+00,5.7854730635881424e-02,5.2281238555908203e+01,9.4783234596252441e-01,-6.1613087654113770e+00,5.9543527662754059e-02,6.1638083308935165e-02,6.0073833912611008e-02,5.8168970048427582e-02,5.5231139063835144e-02],
"split_indices":[12,6,3,7,0,9,0,0,0,0,0,0,2,6,0,0,8,11,0,0,0,0,0],
"split_type":[0,0,0,0,0,0,0,0,0,0,0,0,0,0,0,0,0,0,0,0,0,0,0],
"sum_hessian":[0.0,0.0,0.0,0.0,0.0,0.0,0.0,0.0,0.0,0.0,0.0,0.0,0.0,0.0,0.0,0.0,0.0,0.0,0.0,0.0,0.0,0.0,0.0],
"tree_param":{"num_deleted":"0","num_feature":"13","num_nodes":"23","size_leaf_vector":"0"}
},
{
"base_weights":[0.0,0.0,0.0,0.0,0.0,0.0,0.0,0.0,0.0,0.0,0.0,0.0,0.0,0.0,0.0,0.0,0.0,0.0,0.0,0.0,0.0,0.0,0.0],
"categories":[],"categories_nodes":[],"categories_segments":[],"categories_sizes":[],
"default_left":[true,true,true,true,true,true,false,false,false,false,false,true,false,false,true,true,false,false,true,true,false,false,false],
"id":11,
"left_children":[1,3,5,7,9,11,-1,-1,-1,-1,-1,13,-1,-1,15,17,-1,-1,19,21,-1,-1,-1],
"loss_changes":[0.0,0.0,0.0,0.0,0.0,0.0,0.0,0.0,0.0,0.0,0.0,0.0,0.0,0.0,0.0,0.0,0.0,0.0,0.0,0.0,0.0,0.0,0.0],
"parents":[2147483647,0,0,1,1,2,2,3,3,4,4,5,5,11,11,14,14,15,15,18,18,19,19],
"right_children":[2,4,6,8,10,12,-1,-1,-1,-1,-1,14,-1,-1,16,18,-1,-1,20,22,-1,-1,-1],
"split_conditions":[9.9900043010711670e-01,-5.7942353188991547e-02,1.1082121729850769e-01,-9.9952930212020874e-01,3.8480758666992188e+00,-5.3542394638061523e+00,-6.7508849315345287e-03,-5.9034522622823715e-02,-4.1691236197948456e-02,-3.2381087541580200e-02,2.7843054383993149e-02,9.9996799230575562e-01,3.3982165157794952e-02,4.4722091406583786e-02,6.4935795962810516e-03,1.8040448194369674e-03,5.5371344089508057e-02,5.7366847991943359e-02,1.6630045175552368e+00,6.7966017723083496e+00,5.9628315269947052e-02,5.9251040220260620e-02,5.9221725910902023e-02],
"split_indices":[12,12,2,12,6,10,0,0,0,0,0,12,0,0,7,7,0,0,9,6,0,0,0],
"split_type":[0,0,0,0,0,0,0,0,0,0,0,0,0,0,0,0,0,0,0,0,0,0,0],
"sum_hessian":[0.0,0.0,0.0,0.0,0.0,0.0,0.0,0.0,0.0,0.0,0.0,0.0,0.0,0.0,0.0,0.0,0.0,0.0,0.0,0.0,0.0,0.0,0.0],
"tree_param":{"num_deleted":"0","num_feature":"13","num_nodes":"23","size_leaf_vector":"0"}
},
{
"base_weights":[0.0,0.0,0.0,0.0,0.0,0.0,0.0,0.0,0.0,0.0,0.0,0.0,0.0,0.0,0.0,0.0,0.0,0.0,0.0,0.0,0.0,0.0,0.0],
"categories":[],"categories_nodes":[],"categories_segments":[],"categories_sizes":[],
"default_left":[true,true,true,true,true,true,false,false,false,false,false,true,false,false,true,true,false,false,true,true,false,false,false],
"id":12,
"left_children":[1,3,5,7,9,11,-1,-1,-1,-1,-1,13,-1,-1,15,17,-1,-1,19,21,-1,-1,-1],
"loss_changes":[0.0,0.0,0.0,0.0,0.0,0.0,0.0,0.0,0.0,0.0,0.0,0.0,0.0,0.0,0.0,0.0,0.0,0.0,0.0,0.0,0.0,0.0,0.0],
"parents":[2147483647,0,0,1,1,2,2,3,3,4,4,5,5,11,11,14,14,15,15,18,18,19,19],
"right_children":[2,4,6,8,10,12,-1,-1,-1,-1,-1,14,-1,-1,16,18,-1,-1,20,22,-1,-1,-1],
"split_conditions":[9.9900043010711670e-01,4.2978499084711075e-02,1.1082121729850769e-01,-2.2477546334266663e-01,1.8862954378128052e+00,2.9176354408264160e+00,-6.0673877596855164e-03,-4.5363966375589371e-02,1.6266942024230957e-02,-4.5213285833597183e-02,-5.7994164526462555e-02,9.9996697902679443e-01,3.1940151005983353e-02,4.2962461709976196e-02,5.9940731152892113e-03,1.8059532158076763e-03,5.3326766937971115e-02,5.6398458778858185e-02,2.8816855046898127e-03,1.3105446100234985e+00,5.7772483676671982e-02,5.8082174509763718e-02,5.8270595967769623e-02],
"split_indices":[12,3,2,12,9,9,0,0,0,0,0,12,0,0,7,7,0,0,7,9,0,0,0],
"split_type":[0,0,0,0,0,0,0,0,0,0,0,0,0,0,0,0,0,0,0,0,0,0,0],
"sum_hessian":[0.0,0.0,0.0,0.0,0.0,0.0,0.0,0.0,0.0,0.0,0.0,0.0,0.0,0.0,0.0,0.0,0.0,0.0,0.0,0.0,0.0,0.0,0.0],
"tree_param":{"num_deleted":"0","num_feature":"13","num_nodes":"23","size_leaf_vector":"0"}
},
{
"base_weights":[0.0,0.0,0.0,0.0,0.0,0.0,0.0,0.0,0.0,0.0,0.0,0.0,0.0,0.0,0.0,0.0,0.0,0.0,0.0,0.0,0.0,0.0,0.0,0.0,0.0],
"categories":[],"categories_nodes":[],"categories_segments":[],"categories_sizes":[],
"default_left":[true,true,true,true,true,true,false,false,false,false,false,false,true,true,false,true,false,true,false,true,true,false,false,false,false],
"id":13,
"left_children":[1,3,5,7,9,11,-1,-1,-1,-1,-1,-1,13,15,-1,17,-1,19,-1,21,23,-1,-1,-1,-1],
"loss_changes":[0.0,0.0,0.0,0.0,0.0,0.0,0.0,0.0,0.0,0.0,0.0,0.0,0.0,0.0,0.0,0.0,0.0,0.0,0.0,0.0,0.0,0.0,0.0,0.0,0.0],
"parents":[2147483647,0,0,1,1,2,2,3,3,4,4,5,5,12,12,13,13,15,15,17,17,19,19,20,20],
"right_children":[2,4,6,8,10,12,-1,-1,-1,-1,-1,-1,14,16,-1,18,-1,20,-1,22,24,-1,-1,-1,-1],
"split_conditions":[9.9900043010711670e-01,5.1973998546600342e-02,4.1958514600992203e-02,-5.6543469429016113e-01,1.7824687957763672e+00,1.7392731970176101e-03,-6.6418335773050785e-03,-4.5816499739885330e-02,1.3062069192528725e-02,-4.3984007090330124e-02,-5.6077491492033005e-02,2.0111246034502983e-02,5.2679095417261124e-02,2.3582458496093750e+00,5.1219828426837921e-02,5.4553714580833912e-03,5.3380951285362244e-02,3.2118023373186588e-03,5.0982352346181870e-02,9.9999696016311646e-01,-6.5372157096862793e+00,5.2962623536586761e-02,5.7569932192564011e-02,5.6465573608875275e-02,5.4941166192293167e-02],
"split_indices":[12,3,7,12,9,7,0,0,0,0,0,0,2,9,0,7,0,2,0,12,11,0,0,0,0],
"split_type":[0,0,0,0,0,0,0,0,0,0,0,0,0,0,0,0,0,0,0,0,0,0,0,0,0],
"sum_hessian":[0.0,0.0,0.0,0.0,0.0,0.0,0.0,0.0,0.0,0.0,0.0,0.0,0.0,0.0,0.0,0.0,0.0,0.0,0.0,0.0,0.0,0.0,0.0,0.0,0.0],
"tree_param":{"num_deleted":"0","num_feature":"13","num_nodes":"25","size_leaf_vector":"0"}
},
{
"base_weights":[0.0,0.0,0.0,0.0,0.0,0.0,0.0,0.0,0.0,0.0,0.0,0.0,0.0,0.0,0.0,0.0,0.0,0.0,0.0,0.0,0.0],
"categories":[],"categories_nodes":[],"categories_segments":[],"categories_sizes":[],
"default_left":[true,true,true,true,false,true,false,false,false,false,true,true,false,true,false,true,false,false,true,false,false],
"id":14,
"left_children":[1,3,5,7,-1,9,-1,-1,-1,-1,11,13,-1,15,-1,17,-1,-1,19,-1,-1],
"loss_changes":[0.0,0.0,0.0,0.0,0.0,0.0,0.0,0.0,0.0,0.0,0.0,0.0,0.0,0.0,0.0,0.0,0.0,0.0,0.0,0.0,0.0],
"parents":[2147483647,0,0,1,1,2,2,3,3,5,5,10,10,11,11,13,13,15,15,18,18],
"right_children":[2,4,6,8,-1,10,-1,-1,-1,-1,12,14,-1,16,-1,18,-1,-1,20,-1,-1],
"split_conditions":[9.4202893972396851e-01,4.8775610923767090e+00,7.5425423681735992e-02,6.6933818161487579e-02,-2.6659846305847168e-02,1.6951668076217175e-03,-2.7490004897117615e-02,-4.4479429721832275e-02,-5.3533926606178284e-02,2.6668307837098837e-03,7.8324407339096069e-02,2.6419363021850586e+00,4.1474077850580215e-02,5.8198068290948868e-03,4.7005917876958847e-02,9.9997103214263916e-01,4.5475538820028305e-02,4.6312734484672546e-02,1.8892597872763872e-03,5.6715704500675201e-02,5.6062884628772736e-02],
"split_indices":[12,6,7,7,0,7,0,0,0,0,2,9,0,7,0,12,0,0,7,0,0],
"split_type":[0,0,0,0,0,0,0,0,0,0,0,0,0,0,0,0,0,0,0,0,0],
"sum_hessian":[0.0,0.0,0.0,0.0,0.0,0.0,0.0,0.0,0.0,0.0,0.0,0.0,0.0,0.0,0.0,0.0,0.0,0.0,0.0,0.0,0.0],
"tree_param":{"num_deleted":"0","num_feature":"13","num_nodes":"21","size_leaf_vector":"0"}
},
{
"base_weights":[0.0,0.0,0.0,0.0,0.0,0.0,0.0,0.0,0.0,0.0,0.0,0.0,0.0,0.0,0.0,0.0,0.0,0.0,0.0,0.0,0.0,0.0,0.0],
"categories":[],"categories_nodes":[],"categories_segments":[],"categories_sizes":[],
"default_left":[true,true,true,true,true,true,false,false,false,false,false,true,false,true,true,false,false,true,false,false,true,false,false],
"id":15,
"left_children":[1,3,5,7,9,11,-1,-1,-1,-1,-1,13,-1,15,17,-1,-1,19,-1,-1,21,-1,-1],
"loss_changes":[0.0,0.0,0.0,0.0,0.0,0.0,0.0,0.0,0.0,0.0,0.0,0.0,0.0,0.0,0.0,0.0,0.0,0.0,0.0,0.0,0.0,0.0,0.0],
"parents":[2147483647,0,0,1,1,2,2,3,3,4,4,5,5,11,11,13,13,14,14,17,17,20,20],
"right_children":[2,4,6,8,10,12,-1,-1,-1,-1,-1,14,-1,16,18,-1,-1,20,-1,-1,22,-1,-1],
"split_conditions":[9.9900043010711670e-01,-9.2607396841049194e-01,2.9566258192062378e-02,-9.9996304512023926e-01,4.7156419754028320e+00,-5.3457040786743164e+00,-8.6764600127935410e-03,-5.6309618055820465e-02,-4.4446215033531189e-02,-2.7252435684204102e-02,3.5377860069274902e-02,4.4347825050354004e+00,1.9214740023016930e-02,9.9998795986175537e-01,4.4955550692975521e-03,2.9123049229383469e-02,5.0829488784074783e-02,1.8302730750292540e-03,5.4119847714900970e-02,5.5614471435546875e-02,1.1926037259399891e-02,5.3626131266355515e-02,5.4603595286607742e-02],
"split_indices":[12,12,3,12,6,10,0,0,0,0,0,6,0,12,7,0,0,7,0,0,2,0,0],
"split_type":[0,0,0,0,0,0,0,0,0,0,0,0,0,0,0,0,0,0,0,0,0,0,0],
"sum_hessian":[0.0,0.0,0.0,0.0,0.0,0.0,0.0,0.0,0.0,0.0,0.0,0.0,0.0,0.0,0.0,0.0,0.0,0.0,0.0,0.0,0.0,0.0,0.0],
"tree_param":{"num_deleted":"0","num_feature":"13","num_nodes":"23","size_leaf_vector":"0"}
},
{
"base_weights":[0.0,0.0,0.0,0.0,0.0,0.0,0.0,0.0,0.0,0.0,0.0,0.0,0.0,0.0,0.0,0.0,0.0,0.0,0.0,0.0,0.0,0.0,0.0],
"categories":[],"categories_nodes":[],"categories_segments":[],"categories_sizes":[],
"default_left":[true,true,true,true,false,true,false,false,false,false,true,false,true,true,false,true,true,true,false,false,false,false,false],
"id":16,
"left_children":[1,3,5,7,-1,9,-1,-1,-1,-1,11,-1,13,15,-1,17,19,21,-1,-1,-1,-1,-1],
"loss_changes":[0.0,0.0,0.0,0.0,0.0,0.0,0.0,0.0,0.0,0.0,0.0,0.0,0.0,0.0,0.0,0.0,0.0,0.0,0.0,0.0,0.0,0.0,0.0],
"parents":[2147483647,0,0,1,1,2,2,3,3,5,5,10,10,12,12,13,13,15,15,16,16,17,17],
"right_children":[2,4,6,8,-1,10,-1,-1,-1,-1,12,-1,14,16,-1,18,20,22,-1,-1,-1,-1,-1],
"split_conditions":[9.1604191064834595e-01,-9.7127413749694824e-01,7.8422456979751587e-02,5.9916031360626221e-01,-1.5215576626360416e-02,1.7102659225463867e+01,-2.6635451242327690e-02,-4.7059971839189529e-02,-5.3890660405158997e-02,1.5709273284301162e-03,1.9790104627609253e+00,3.0534442514181137e-02,5.9238478541374207e-02,5.9499851226806641e+01,4.5163709670305252e-02,5.2872733213007450e-03,1.5007362365722656e+00,3.8703327178955078e+01,4.2229898273944855e-02,5.3510874509811401e-02,5.2659332752227783e-02,4.8878017812967300e-02,5.2131086587905884e-02],
"split_indices":[12,12,7,8,0,0,0,0,0,0,6,0,2,0,0,7,9,0,0,0,0,0,0],
"split_type":[0,0,0,0,0,0,0,0,0,0,0,0,0,0,0,0,0,0,0,0,0,0,0],
"sum_hessian":[0.0,0.0,0.0,0.0,0.0,0.0,0.0,0.0,0.0,0.0,0.0,0.0,0.0,0.0,0.0,0.0,0.0,0.0,0.0,0.0,0.0,0.0,0.0],
"tree_param":{"num_deleted":"0","num_feature":"13","num_nodes":"23","size_leaf_vector":"0"}
},
{
"base_weights":[0.0,0.0,0.0,0.0,0.0,0.0,0.0,0.0,0.0,0.0,0.0,0.0,0.0,0.0,0.0,0.0,0.0,0.0,0.0,0.0,0.0],
"categories":[],"categories_nodes":[],"categories_segments":[],"categories_sizes":[],
"default_left":[true,true,true,true,false,true,false,false,false,false,true,true,false,true,false,false,true,true,false,false,false],
"id":17,
"left_children":[1,3,5,7,-1,9,-1,-1,-1,-1,11,13,-1,15,-1,-1,17,19,-1,-1,-1],
"loss_changes":[0.0,0.0,0.0,0.0,0.0,0.0,0.0,0.0,0.0,0.0,0.0,0.0,0.0,0.0,0.0,0.0,0.0,0.0,0.0,0.0,0.0],
"parents":[2147483647,0,0,1,1,2,2,3,3,5,5,10,10,11,11,13,13,16,16,17,17],
"right_children":[2,4,6,8,-1,10,-1,-1,-1,-1,12,14,-1,16,-1,-1,18,20,-1,-1,-1],
"split_conditions":[9.9900043010711670e-01,6.8165898323059082e-02,1.1082121729850769e-01,-8.3716291189193726e-01,-4.5951053500175476e-02,9.9990606307983398e-01,-8.9549571275711060e-03,-4.2745191603899002e-02,1.0695697739720345e-02,2.1638605743646622e-02,-5.5345296859741211e+00,6.4935795962810516e-03,3.1771302223205566e-02,1.7943108687177300e-03,4.5692652463912964e-02,4.9631610512733459e-02,1.6470218896865845e+00,4.6726636886596680e+00,5.3798824548721313e-02,5.3102809935808182e-02,5.3510166704654694e-02],
"split_indices":[12,3,2,12,0,12,0,0,0,0,10,7,0,7,0,0,9,6,0,0,0],
"split_type":[0,0,0,0,0,0,0,0,0,0,0,0,0,0,0,0,0,0,0,0,0],
"sum_hessian":[0.0,0.0,0.0,0.0,0.0,0.0,0.0,0.0,0.0,0.0,0.0,0.0,0.0,0.0,0.0,0.0,0.0,0.0,0.0,0.0,0.0],
"tree_param":{"num_deleted":"0","num_feature":"13","num_nodes":"21","size_leaf_vector":"0"}
},
{
"base_weights":[0.0,0.0,0.0,0.0,0.0,0.0,0.0,0.0,0.0,0.0,0.0,0.0,0.0,0.0,0.0,0.0,0.0,0.0,0.0,0.0,0.0,0.0,0.0],
"categories":[],"categories_nodes":[],"categories_segments":[],"categories_sizes":[],
"default_left":[true,true,true,true,false,true,false,true,false,true,false,false,false,true,false,false,true,false,true,true,false,false,false],
"id":18,
"left_children":[1,3,5,7,-1,9,-1,11,-1,13,-1,-1,-1,15,-1,-1,17,-1,19,21,-1,-1,-1],
"loss_changes":[0.0,0.0,0.0,0.0,0.0,0.0,0.0,0.0,0.0,0.0,0.0,0.0,0.0,0.0,0.0,0.0,0.0,0.0,0.0,0.0,0.0,0.0,0.0],
"parents":[2147483647,0,0,1,1,2,2,3,3,5,5,7,7,9,9,13,13,16,16,18,18,19,19],
"right_children":[2,4,6,8,-1,10,-1,12,-1,14,-1,-1,-1,16,-1,-1,18,-1,20,22,-1,-1,-1],
"split_conditions":[9.9900043010711670e-01,5.8530735969543457e+00,3.4170904159545898e+00,1.2987159192562103e-01,-1.9413753179833293e-03,2.1575376391410828e-02,-1.2444414198398590e-02,4.4255697727203369e-01,-5.1874067634344101e-02,6.4935795962810516e-03,1.2080947868525982e-02,-4.4052109122276306e-02,4.9791806377470493e-03,2.9996772766113281e+01,3.7479508668184280e-02,3.6185193806886673e-02,1.8170236144214869e-03,5.4110251367092133e-02,1.8208729103207588e-02,1.4521727561950684e+00,5.1843337714672089e-02,5.0728276371955872e-02,5.1658257842063904e-02],
"split_indices":[12,6,9,7,0,3,0,12,0,7,0,0,0,0,0,0,7,0,2,9,0,0,0],
"split_type":[0,0,0,0,0,0,0,0,0,0,0,0,0,0,0,0,0,0,0,0,0,0,0],
"sum_hessian":[0.0,0.0,0.0,0.0,0.0,0.0,0.0,0.0,0.0,0.0,0.0,0.0,0.0,0.0,0.0,0.0,0.0,0.0,0.0,0.0,0.0,0.0,0.0],
"tree_param":{"num_deleted":"0","num_feature":"13","num_nodes":"23","size_leaf_vector":"0"}
},
{
"base_weights":[0.0,0.0,0.0,0.0,0.0,0.0,0.0,0.0,0.0,0.0,0.0,0.0,0.0,0.0,0.0,0.0,0.0,0.0,0.0],
"categories":[],"categories_nodes":[],"categories_segments":[],"categories_sizes":[],
"default_left":[true,true,true,false,false,true,false,false,true,true,false,true,false,true,false,true,false,false,false],
"id":19,
"left_children":[1,3,5,-1,-1,7,-1,-1,9,11,-1,13,-1,15,-1,17,-1,-1,-1],
"loss_changes":[0.0,0.0,0.0,0.0,0.0,0.0,0.0,0.0,0.0,0.0,0.0,0.0,0.0,0.0,0.0,0.0,0.0,0.0,0.0],
"parents":[2147483647,0,0,1,1,2,2,5,5,8,8,9,9,11,11,13,13,15,15],
"right_children":[2,4,6,-1,-1,8,-1,-1,10,12,-1,14,-1,16,-1,18,-1,-1,-1],
"split_conditions":[8.7806093692779541e-01,-9.9530720710754395e-01,8.2418508827686310e-02,-5.0365827977657318e-02,-1.3751993887126446e-02,1.6883037751540542e-03,-2.4765396490693092e-02,-6.8232063204050064e-03,8.4851443767547607e-02,2.6778969764709473e+00,3.3771347254514694e-02,5.8433678932487965e-03,3.9371553808450699e-02,2.3322356864809990e-02,3.7964414805173874e-02,1.8694504396989942e-03,4.8696339130401611e-02,5.2201084792613983e-02,4.7881156206130981e-02],
"split_indices":[12,12,7,0,0,7,0,0,2,9,0,7,0,2,0,7,0,0,0],
"split_type":[0,0,0,0,0,0,0,0,0,0,0,0,0,0,0,0,0,0,0],
"sum_hessian":[0.0,0.0,0.0,0.0,0.0,0.0,0.0,0.0,0.0,0.0,0.0,0.0,0.0,0.0,0.0,0.0,0.0,0.0,0.0],
"tree_param":{"num_deleted":"0","num_feature":"13","num_nodes":"19","size_leaf_vector":"0"}
},
{
"base_weights":[0.0,0.0,0.0,0.0,0.0,0.0,0.0,0.0,0.0,0.0,0.0,0.0,0.0,0.0,0.0,0.0,0.0,0.0,0.0,0.0,0.0,0.0,0.0],
"categories":[],"categories_nodes":[],"categories_segments":[],"categories_sizes":[],
"default_left":[true,true,true,false,true,false,false,true,false,true,true,false,true,true,false,false,false,true,false,false,true,false,false],
"id":20,
"left_children":[1,3,5,-1,7,-1,-1,9,-1,11,13,-1,15,17,-1,-1,-1,19,-1,-1,21,-1,-1],
"loss_changes":[0.0,0.0,0.0,0.0,0.0,0.0,0.0,0.0,0.0,0.0,0.0,0.0,0.0,0.0,0.0,0.0,0.0,0.0,0.0,0.0,0.0,0.0,0.0],
"parents":[2147483647,0,0,1,1,2,2,4,4,7,7,9,9,10,10,12,12,13,13,17,17,20,20],
"right_children":[2,4,6,-1,8,-1,-1,10,-1,12,14,-1,16,18,-1,-1,-1,20,-1,-1,22,-1,-1],
"split_conditions":[5.8970499783754349e-02,-7.7111446857452393e-01,2.0500221252441406e+00,-3.7279993295669556e-02,3.1294043064117432e+00,-2.7470158413052559e-02,-5.1298253238201141e-02,4.9475264549255371e+00,-8.6006810888648033e-03,7.6066768169403076e-01,7.4925916269421577e-03,5.8454455574974418e-04,1.3911584615707397e+00,1.8288960680365562e-02,5.8160968124866486e-02,3.9824742823839188e-02,2.7658509090542793e-02,1.8421270651742816e-03,4.7964159399271011e-02,5.2319262176752090e-02,1.3120270967483521e+00,4.6830520033836365e-02,4.7128207981586456e-02],
"split_indices":[3,12,9,0,9,0,0,6,0,8,7,0,9,2,0,0,0,7,0,0,9,0,0],
"split_type":[0,0,0,0,0,0,0,0,0,0,0,0,0,0,0,0,0,0,0,0,0,0,0],
"sum_hessian":[0.0,0.0,0.0,0.0,0.0,0.0,0.0,0.0,0.0,0.0,0.0,0.0,0.0,0.0,0.0,0.0,0.0,0.0,0.0,0.0,0.0,0.0,0.0],
"tree_param":{"num_deleted":"0","num_feature":"13","num_nodes":"23","size_leaf_vector":"0"}
},
{
"base_weights":[0.0,0.0,0.0,0.0,0.0,0.0,0.0,0.0,0.0,0.0,0.0,0.0,0.0,0.0,0.0,0.0,0.0,0.0,0.0,0.0,0.0,0.0,0.0],
"categories":[],"categories_nodes":[],"categories_segments":[],"categories_sizes":[],
"default_left":[true,true,true,true,false,true,false,true,false,false,true,false,false,true,false,false,true,true,false,false,true,false,false],
"id":21,
"left_children":[1,3,5,7,-1,9,-1,11,-1,-1,13,-1,-1,15,-1,-1,17,19,-1,-1,21,-1,-1],
"loss_changes":[0.0,0.0,0.0,0.0,0.0,0.0,0.0,0.0,0.0,0.0,0.0,0.0,0.0,0.0,0.0,0.0,0.0,0.0,0.0,0.0,0.0,0.0,0.0],
"parents":[2147483647,0,0,1,1,2,2,3,3,5,5,7,7,10,10,13,13,16,16,17,17,20,20],
"right_children":[2,4,6,8,-1,10,-1,12,-1,-1,14,-1,-1,16,-1,-1,18,20,-1,-1,22,-1,-1],
"split_conditions":[9.9900043010711670e-01,5.8530735969543457e+00,1.1082121729850769e-01,1.2987159192562103e-01,1.1769192060455680e-03,9.9992203712463379e-01,-8.9799733832478523e-03,-5.7942353188991547e-02,-4.8185221850872040e-02,1.5128405764698982e-02,6.4935795962810516e-03,-4.2871847748756409e-02,2.0667745266109705e-03,2.9996772766113281e+01,3.5878766328096390e-02,3.1683154404163361e-02,1.9506905078887939e+00,1.8429810879752040e-03,5.1656350493431091e-02,5.3002666682004929e-02,6.5967016220092773e+00,5.1147654652595520e-02,5.1571514457464218e-02],
"split_indices":[12,6,2,7,0,12,0,12,0,0,7,0,0,0,0,0,9,7,0,0,6,0,0],
"split_type":[0,0,0,0,0,0,0,0,0,0,0,0,0,0,0,0,0,0,0,0,0,0,0],
"sum_hessian":[0.0,0.0,0.0,0.0,0.0,0.0,0.0,0.0,0.0,0.0,0.0,0.0,0.0,0.0,0.0,0.0,0.0,0.0,0.0,0.0,0.0,0.0,0.0],
"tree_param":{"num_deleted":"0","num_feature":"13","num_nodes":"23","size_leaf_vector":"0"}
},
{
"base_weights":[0.0,0.0,0.0,0.0,0.0,0.0,0.0,0.0,0.0,0.0,0.0,0.0,0.0,0.0,0.0,0.0,0.0,0.0,0.0],
"categories":[],"categories_nodes":[],"categories_segments":[],"categories_sizes":[],
"default_left":[true,true,true,false,true,false,false,true,false,true,false,true,false,true,false,true,false,false,false],
"id":22,
"left_children":[1,3,5,-1,7,-1,-1,9,-1,11,-1,13,-1,15,-1,17,-1,-1,-1],
"loss_changes":[0.0,0.0,0.0,0.0,0.0,0.0,0.0,0.0,0.0,0.0,0.0,0.0,0.0,0.0,0.0,0.0,0.0,0.0,0.0],
"parents":[2147483647,0,0,1,1,2,2,4,4,7,7,9,9,11,11,13,13,15,15],
"right_children":[2,4,6,-1,8,-1,-1,10,-1,12,-1,14,-1,16,-1,18,-1,-1,-1],
"split_conditions":[7.0164896547794342e-02,-9.0304845571517944e-01,1.8703221082687378e+00,-3.7889990955591202e-02,2.7218489646911621e+00,-2.6468176394701004e-02,-4.8691172152757645e-02,1.1507181078195572e-01,-7.3117781430482864e-03,-5.2677955627441406e+00,3.2290916889905930e-02,4.5315425843000412e-02,1.7957840114831924e-02,5.9940731152892113e-03,3.4492418169975281e-02,1.7969682812690735e-03,3.0988242477178574e-02,4.2807772755622864e-02,4.6135626733303070e-02],
"split_indices":[3,12,9,0,9,0,0,2,0,11,0,2,0,7,0,7,0,0,0],
"split_type":[0,0,0,0,0,0,0,0,0,0,0,0,0,0,0,0,0,0,0],
"sum_hessian":[0.0,0.0,0.0,0.0,0.0,0.0,0.0,0.0,0.0,0.0,0.0,0.0,0.0,0.0,0.0,0.0,0.0,0.0,0.0],
"tree_param":{"num_deleted":"0","num_feature":"13","num_nodes":"19","size_leaf_vector":"0"}
},
{
"base_weights":[0.0,0.0,0.0,0.0,0.0,0.0,0.0,0.0,0.0,0.0,0.0,0.0,0.0,0.0,0.0,0.0,0.0,0.0,0.0,0.0,0.0,0.0,0.0,0.0,0.0],
"categories":[],"categories_nodes":[],"categories_segments":[],"categories_sizes":[],
"default_left":[true,true,true,false,true,true,false,false,true,false,false,true,true,true,false,true,false,false,true,true,false,false,false,false,false],
"id":23,
"left_children":[1,3,5,-1,7,9,-1,-1,11,-1,-1,13,15,17,-1,19,-1,-1,21,23,-1,-1,-1,-1,-1],
"loss_changes":[0.0,0.0,0.0,0.0,0.0,0.0,0.0,0.0,0.0,0.0,0.0,0.0,0.0,0.0,0.0,0.0,0.0,0.0,0.0,0.0,0.0,0.0,0.0,0.0,0.0],
"parents":[2147483647,0,0,1,1,2,2,4,4,5,5,8,8,11,11,12,12,13,13,15,15,18,18,19,19],
"right_children":[2,4,6,-1,8,10,-1,-1,12,-1,-1,14,16,18,-1,20,-1,-1,22,24,-1,-1,-1,-1,-1],
"split_conditions":[3.8180898874998093e-02,-5.8470793068408966e-02,2.4134151935577393e+00,-2.6293840259313583e-02,1.6209518432617188e+01,-8.1209397315979004e-01,-4.7165185213088989e-02,-1.1151108890771866e-02,5.9370312690734863e+00,-4.3686449527740479e-02,4.6987235546112061e-03,1.0489628650248051e-02,5.9940731152892113e-03,2.2945832461118698e-03,-1.7516816733404994e-03,1.8308213949203491e+00,4.9556333571672440e-02,2.8359157964587212e-02,1.5118489041924477e-02,7.9448185861110687e-03,4.5084927231073380e-02,3.9426501840353012e-02,4.0609579533338547e-02,4.6913400292396545e-02,4.7501292079687119e-02],
"split_indices":[3,12,9,0,0,12,0,0,6,0,0,7,7,7,0,9,0,0,2,2,0,0,0,0,0],
"split_type":[0,0,0,0,0,0,0,0,0,0,0,0,0,0,0,0,0,0,0,0,0,0,0,0,0],
"sum_hessian":[0.0,0.0,0.0,0.0,0.0,0.0,0.0,0.0,0.0,0.0,0.0,0.0,0.0,0.0,0.0,0.0,0.0,0.0,0.0,0.0,0.0,0.0,0.0,0.0,0.0],
"tree_param":{"num_deleted":"0","num_feature":"13","num_nodes":"25","size_leaf_vector":"0"}
},
{
"base_weights":[0.0,0.0,0.0,0.0,0.0,0.0,0.0,0.0,0.0,0.0,0.0,0.0,0.0,0.0,0.0,0.0,0.0,0.0,0.0],
"categories":[],"categories_nodes":[],"categories_segments":[],"categories_sizes":[],
"default_left":[true,true,true,false,true,false,false,true,false,false,true,true,false,true,false,true,false,false,false],
"id":24,
"left_children":[1,3,5,-1,7,-1,-1,9,-1,-1,11,13,-1,15,-1,17,-1,-1,-1],
"loss_changes":[0.0,0.0,0.0,0.0,0.0,0.0,0.0,0.0,0.0,0.0,0.0,0.0,0.0,0.0,0.0,0.0,0.0,0.0,0.0],
"parents":[2147483647,0,0,1,1,2,2,4,4,7,7,10,10,11,11,13,13,15,15],
"right_children":[2,4,6,-1,8,-1,-1,10,-1,-1,12,14,-1,16,-1,18,-1,-1,-1],
"split_conditions":[8.0759599804878235e-02,-9.6201896667480469e-01,1.7145820856094360e+00,-3.8615096360445023e-02,3.7287502288818359e+00,-2.5380276143550873e-02,-4.5467101037502289e-02,1.6206172943115234e+01,-1.5333296731114388e-02,-1.0887195821851492e-03,1.0740035772323608e-01,-5.1158628463745117e+00,3.6492321640253067e-02,4.5246291905641556e-02,1.8526703119277954e-02,5.4945670999586582e-03,3.2645307481288910e-02,4.4291432946920395e-02,3.0834861099720001e-02],
"split_indices":[3,12,9,0,9,0,0,0,0,0,2,11,0,2,0,7,0,0,0],
"split_type":[0,0,0,0,0,0,0,0,0,0,0,0,0,0,0,0,0,0,0],
"sum_hessian":[0.0,0.0,0.0,0.0,0.0,0.0,0.0,0.0,0.0,0.0,0.0,0.0,0.0,0.0,0.0,0.0,0.0,0.0,0.0],
"tree_param":{"num_deleted":"0","num_feature":"13","num_nodes":"19","size_leaf_vector":"0"}
},
{
"base_weights":[0.0,0.0,0.0,0.0,0.0,0.0,0.0,0.0,0.0,0.0,0.0,0.0,0.0,0.0,0.0,0.0,0.0,0.0,0.0],
"categories":[],"categories_nodes":[],"categories_segments":[],"categories_sizes":[],
"default_left":[true,true,true,true,false,true,false,false,false,false,true,true,false,false,true,false,true,false,false],
"id":25,
"left_children":[1,3,5,7,-1,9,-1,-1,-1,-1,11,13,-1,-1,15,-1,17,-1,-1],
"loss_changes":[0.0,0.0,0.0,0.0,0.0,0.0,0.0,0.0,0.0,0.0,0.0,0.0,0.0,0.0,0.0,0.0,0.0,0.0,0.0],
"parents":[2147483647,0,0,1,1,2,2,3,3,5,5,10,10,11,11,14,14,16,16],
"right_children":[2,4,6,8,-1,10,-1,-1,-1,-1,12,14,-1,-1,16,-1,18,-1,-1],
"split_conditions":[9.9900043010711670e-01,4.8775610923767090e+00,-5.2091345787048340e+00,1.0239875316619873e-01,1.6285626916214824e-03,9.9987953901290894e-01,-1.1959629133343697e-02,-1.9993985071778297e-02,-4.4331908226013184e-02,3.6020991392433643e-03,5.4945670999586582e-03,9.9998503923416138e-01,2.8458239510655403e-02,3.1289637088775635e-02,9.3065869808197021e-01,4.6056341379880905e-02,1.8447807524353266e-03,4.8360951244831085e-02,5.1609806716442108e-02],
"split_indices":[12,6,10,7,0,12,0,0,0,0,7,12,0,0,8,0,7,0,0],
"split_type":[0,0,0,0,0,0,0,0,0,0,0,0,0,0,0,0,0,0,0],
"sum_hessian":[0.0,0.0,0.0,0.0,0.0,0.0,0.0,0.0,0.0,0.0,0.0,0.0,0.0,0.0,0.0,0.0,0.0,0.0,0.0],
"tree_param":{"num_deleted":"0","num_feature":"13","num_nodes":"19","size_leaf_vector":"0"}
},
{
"base_weights":[0.0,0.0,0.0,0.0,0.0,0.0,0.0,0.0,0.0,0.0,0.0,0.0,0.0,0.0,0.0,0.0,0.0,0.0,0.0,0.0,0.0,0.0,0.0],
"categories":[],"categories_nodes":[],"categories_segments":[],"categories_sizes":[],
"default_left":[true,true,true,false,true,false,false,true,true,false,false,true,false,true,true,false,true,false,false,true,false,false,false],
"id":26,
"left_children":[1,3,5,-1,7,-1,-1,9,11,-1,-1,13,-1,15,17,-1,19,-1,-1,21,-1,-1,-1],
"loss_changes":[0.0,0.0,0.0,0.0,0.0,0.0,0.0,0.0,0.0,0.0,0.0,0.0,0.0,0.0,0.0,0.0,0.0,0.0,0.0,0.0,0.0,0.0,0.0],
"parents":[2147483647,0,0,1,1,2,2,4,4,7,7,8,8,11,11,13,13,14,14,16,16,19,19],
"right_children":[2,4,6,-1,8,-1,-1,10,12,-1,-1,14,-1,16,18,-1,20,-1,-1,22,-1,-1,-1],
"split_conditions":[8.1559196114540100e-02,-9.7001498937606812e-01,1.7145820856094360e+00,-3.7565134465694427e-02,2.1895160675048828e+01,-2.3098774254322052e-02,-4.3111052364110947e-02,1.7295475006103516e+00,9.9553965032100677e-02,1.3759622350335121e-02,-2.5222647935152054e-02,9.4312839508056641e+00,3.2551348209381104e-02,8.2738631963729858e-01,9.2659515142440796e-01,7.5753927230834961e-03,1.8787690401077271e+00,4.6349689364433289e-02,4.0586713701486588e-02,4.8606009483337402e+00,3.1365249305963516e-02,3.9936818182468414e-02,3.9048843085765839e-02],
"split_indices":[3,12,9,0,0,0,0,9,2,0,0,6,0,8,8,0,9,0,0,6,0,0,0],
"split_type":[0,0,0,0,0,0,0,0,0,0,0,0,0,0,0,0,0,0,0,0,0,0,0],
"sum_hessian":[0.0,0.0,0.0,0.0,0.0,0.0,0.0,0.0,0.0,0.0,0.0,0.0,0.0,0.0,0.0,0.0,0.0,0.0,0.0,0.0,0.0,0.0,0.0],
"tree_param":{"num_deleted":"0","num_feature":"13","num_nodes":"23","size_leaf_vector":"0"}
},
{
"base_weights":[0.0,0.0,0.0,0.0,0.0,0.0,0.0,0.0,0.0,0.0,0.0,0.0,0.0,0.0,0.0,0.0,0.0,0.0,0.0],
"categories":[],"categories_nodes":[],"categories_segments":[],"categories_sizes":[],
"default_left":[true,true,true,false,false,true,false,false,true,true,false,false,true,true,false,true,false,false,false],
"id":27,
"left_children":[1,3,5,-1,-1,7,-1,-1,9,11,-1,-1,13,15,-1,17,-1,-1,-1],
"loss_changes":[0.0,0.0,0.0,0.0,0.0,0.0,0.0,0.0,0.0,0.0,0.0,0.0,0.0,0.0,0.0,0.0,0.0,0.0,0.0],
"parents":[2147483647,0,0,1,1,2,2,5,5,8,8,9,9,12,12,13,13,15,15],
"right_children":[2,4,6,-1,-1,8,-1,-1,10,12,-1,-1,14,16,-1,18,-1,-1,-1],
"split_conditions":[-9.8600697517395020e-01,-9.9998599290847778e-01,1.8931281566619873e-01,-5.1869180053472519e-02,-3.4056928008794785e-02,1.6074726590886712e-03,-2.8027862310409546e-02,-1.8358346074819565e-02,2.0114941596984863e+00,9.9702244997024536e-01,3.2139707356691360e-02,4.8016328364610672e-03,5.6250371038913727e-02,2.5020887851715088e+00,3.0785189941525459e-02,5.8268099091947079e-03,3.8512073457241058e-02,4.3371982872486115e-02,3.1887300312519073e-02],
"split_indices":[12,12,7,0,0,7,0,0,5,12,0,0,2,9,0,7,0,0,0],
"split_type":[0,0,0,0,0,0,0,0,0,0,0,0,0,0,0,0,0,0,0],
"sum_hessian":[0.0,0.0,0.0,0.0,0.0,0.0,0.0,0.0,0.0,0.0,0.0,0.0,0.0,0.0,0.0,0.0,0.0,0.0,0.0],
"tree_param":{"num_deleted":"0","num_feature":"13","num_nodes":"19","size_leaf_vector":"0"}
},
{
"base_weights":[0.0,0.0,0.0,0.0,0.0,0.0,0.0,0.0,0.0,0.0,0.0,0.0,0.0,0.0,0.0,0.0,0.0,0.0,0.0,0.0,0.0],
"categories":[],"categories_nodes":[],"categories_segments":[],"categories_sizes":[],
"default_left":[true,true,true,true,true,false,false,true,false,false,false,true,false,false,true,true,false,false,true,false,false],
"id":28,
"left_children":[1,3,5,7,9,-1,-1,11,-1,-1,-1,13,-1,-1,15,17,-1,-1,19,-1,-1],
"loss_changes":[0.0,0.0,0.0,0.0,0.0,0.0,0.0,0.0,0.0,0.0,0.0,0.0,0.0,0.0,0.0,0.0,0.0,0.0,0.0,0.0,0.0],
"parents":[2147483647,0,0,1,1,2,2,3,3,4,4,7,7,11,11,14,14,15,15,18,18],
"right_children":[2,4,6,8,10,-1,-1,12,-1,-1,-1,14,-1,-1,16,18,-1,-1,20,-1,-1],
"split_conditions":[8.2158900797367096e-02,-4.9618349075317383e+00,2.8465766906738281e+00,6.3367724418640137e-02,4.4948652386665344e-02,-3.9305467158555984e-02,-2.1263137459754944e-02,2.0009994506835938e+00,-7.5616911053657532e-03,4.0668230503797531e-03,-3.0448092147707939e-02,9.9900043010711670e-01,3.5233899950981140e-02,5.2037774585187435e-03,5.9940731152892113e-03,9.9997246265411377e-01,2.7888011187314987e-02,1.8831014633178711e-02,1.8089481163769960e-03,3.9314579218626022e-02,4.9511093646287918e-02],
"split_indices":[3,11,6,4,2,0,0,5,0,0,0,12,0,0,7,12,0,0,7,0,0],
"split_type":[0,0,0,0,0,0,0,0,0,0,0,0,0,0,0,0,0,0,0,0,0],
"sum_hessian":[0.0,0.0,0.0,0.0,0.0,0.0,0.0,0.0,0.0,0.0,0.0,0.0,0.0,0.0,0.0,0.0,0.0,0.0,0.0,0.0,0.0],
"tree_param":{"num_deleted":"0","num_feature":"13","num_nodes":"21","size_leaf_vector":"0"}
},
{
"base_weights":[0.0,0.0,0.0,0.0,0.0,0.0,0.0,0.0,0.0,0.0,0.0,0.0,0.0,0.0,0.0,0.0,0.0,0.0,0.0],
"categories":[],"categories_nodes":[],"categories_segments":[],"categories_sizes":[],
"default_left":[true,true,true,false,false,true,false,false,true,true,false,false,true,true,false,true,false,false,false],
"id":29,
"left_children":[1,3,5,-1,-1,7,-1,-1,9,11,-1,-1,13,15,-1,17,-1,-1,-1],
"loss_changes":[0.0,0.0,0.0,0.0,0.0,0.0,0.0,0.0,0.0,0.0,0.0,0.0,0.0,0.0,0.0,0.0,0.0,0.0,0.0],
"parents":[2147483647,0,0,1,1,2,2,5,5,8,8,9,9,12,12,13,13,15,15],
"right_children":[2,4,6,-1,-1,8,-1,-1,10,12,-1,-1,14,16,-1,18,-1,-1,-1],
"split_conditions":[-9.8800599575042725e-01,6.1240798234939575e-01,1.9480738043785095e-01,-3.4944590181112289e-02,-4.8116918653249741e-02,1.6541412333026528e-03,-2.5307923555374146e-02,-1.4447661116719246e-02,2.0114941596984863e+00,9.9701941013336182e-01,2.9225938022136688e-02,4.6352278441190720e-03,5.6250371038913727e-02,2.5020887851715088e+00,2.8597179800271988e-02,9.9995678663253784e-01,3.6270551383495331e-02,1.4861477538943291e-02,4.6287231147289276e-02],
"split_indices":[12,8,7,0,0,7,0,0,5,12,0,0,2,9,0,12,0,0,0],
"split_type":[0,0,0,0,0,0,0,0,0,0,0,0,0,0,0,0,0,0,0],
"sum_hessian":[0.0,0.0,0.0,0.0,0.0,0.0,0.0,0.0,0.0,0.0,0.0,0.0,0.0,0.0,0.0,0.0,0.0,0.0,0.0],
"tree_param":{"num_deleted":"0","num_feature":"13","num_nodes":"19","size_leaf_vector":"0"}
},
{
"base_weights":[0.0,0.0,0.0,0.0,0.0,0.0,0.0,0.0,0.0,0.0,0.0,0.0,0.0,0.0,0.0,0.0,0.0,0.0,0.0,0.0,0.0,0.0,0.0,0.0,0.0],
"categories":[],"categories_nodes":[],"categories_segments":[],"categories_sizes":[],
"default_left":[true,true,true,true,true,false,true,false,false,true,false,false,true,false,false,false,true,true,false,true,false,false,true,false,false],
"id":30,
"left_children":[1,3,5,7,9,-1,11,-1,-1,13,-1,-1,15,-1,-1,-1,17,19,-1,21,-1,-1,23,-1,-1],
"loss_changes":[0.0,0.0,0.0,0.0,0.0,0.0,0.0,0.0,0.0,0.0,0.0,0.0,0.0,0.0,0.0,0.0,0.0,0.0,0.0,0.0,0.0,0.0,0.0,0.0,0.0],
"parents":[2147483647,0,0,1,1,2,2,3,3,4,4,6,6,9,9,12,12,16,16,17,17,19,19,22,22],
"right_children":[2,4,6,8,10,-1,12,-1,-1,14,-1,-1,16,-1,-1,-1,18,20,-1,22,-1,-1,24,-1,-1],
"split_conditions":[3.9020490646362305e+00,7.7423596382141113e-01,-9.4702649116516113e-01,9.7403690218925476e-02,2.1872177124023438e+00,-2.9360022395849228e-02,7.1280252933502197e-01,-1.9118651747703552e-02,-4.3913949280977249e-02,-6.3628826141357422e+00,-7.4957911856472492e-03,3.8230646401643753e-02,2.9657047271728516e+01,3.0359163880348206e-02,1.6859149560332298e-02,2.3243944160640240e-03,3.6148369312286377e-02,2.0585727691650391e+00,2.6678273454308510e-02,5.1980800628662109e+01,3.0153229832649231e-02,3.2650087028741837e-02,1.8873619846999645e-03,4.7808621078729630e-02,3.5877753049135208e-02],
"split_indices":[6,8,12,7,9,0,8,0,0,10,0,0,0,0,0,0,2,9,0,0,0,0,7,0,0],
"split_type":[0,0,0,0,0,0,0,0,0,0,0,0,0,0,0,0,0,0,0,0,0,0,0,0,0],
"sum_hessian":[0.0,0.0,0.0,0.0,0.0,0.0,0.0,0.0,0.0,0.0,0.0,0.0,0.0,0.0,0.0,0.0,0.0,0.0,0.0,0.0,0.0,0.0,0.0,0.0,0.0],
"tree_param":{"num_deleted":"0","num_feature":"13","num_nodes":"25","size_leaf_vector":"0"}
},
{
"base_weights":[0.0,0.0,0.0,0.0,0.0,0.0,0.0,0.0,0.0,0.0,0.0,0.0,0.0,0.0,0.0,0.0,0.0,0.0,0.0,0.0,0.0,0.0,0.0],
"categories":[],"categories_nodes":[],"categories_segments":[],"categories_sizes":[],
"default_left":[true,true,true,false,true,false,false,true,true,false,true,true,false,false,false,true,false,false,true,true,false,false,false],
"id":31,
"left_children":[1,3,5,-1,7,-1,-1,9,11,-1,13,15,-1,-1,-1,17,-1,-1,19,21,-1,-1,-1],
"loss_changes":[0.0,0.0,0.0,0.0,0.0,0.0,0.0,0.0,0.0,0.0,0.0,0.0,0.0,0.0,0.0,0.0,0.0,0.0,0.0,0.0,0.0,0.0,0.0],
"parents":[2147483647,0,0,1,1,2,2,4,4,7,7,8,8,10,10,11,11,15,15,18,18,19,19],
"right_children":[2,4,6,-1,8,-1,-1,10,12,-1,14,16,-1,-1,-1,18,-1,-1,20,22,-1,-1,-1],
"split_conditions":[-5.5399413108825684e+00,-9.9800097942352295e-01,5.4107099771499634e-02,-4.2955052107572556e-02,3.5732133388519287e+00,2.9721714090555906e-03,-3.1915962696075439e-02,7.3554342985153198e-01,9.2057444155216217e-02,-1.8087532371282578e-02,1.0765798091888428e+00,5.9940731152892113e-03,4.8443380743265152e-02,2.6089476421475410e-02,1.3616674579679966e-02,4.5745567321777344e+01,2.3610871285200119e-02,3.0555594712495804e-02,1.4169671535491943e+00,1.9277909304946661e-03,4.2195320129394531e-02,4.5223154127597809e-02,3.7124458700418472e-02],
"split_indices":[10,12,2,0,6,0,0,8,2,0,9,7,0,0,0,0,0,0,9,7,0,0,0],
"split_type":[0,0,0,0,0,0,0,0,0,0,0,0,0,0,0,0,0,0,0,0,0,0,0],
"sum_hessian":[0.0,0.0,0.0,0.0,0.0,0.0,0.0,0.0,0.0,0.0,0.0,0.0,0.0,0.0,0.0,0.0,0.0,0.0,0.0,0.0,0.0,0.0,0.0],
"tree_param":{"num_deleted":"0","num_feature":"13","num_nodes":"23","size_leaf_vector":"0"}
},
{
"base_weights":[0.0,0.0,0.0,0.0,0.0,0.0,0.0,0.0,0.0,0.0,0.0,0.0,0.0,0.0,0.0,0.0,0.0,0.0,0.0,0.0,0.0,0.0,0.0,0.0,0.0,0.0,0.0],
"categories":[],"categories_nodes":[],"categories_segments":[],"categories_sizes":[],
"default_left":[true,true,true,false,true,true,true,true,true,false,false,false,false,false,true,false,true,true,false,false,true,false,false,true,false,false,false],
"id":32,
"left_children":[1,3,5,-1,7,9,11,13,15,-1,-1,-1,-1,-1,17,-1,19,21,-1,-1,23,-1,-1,25,-1,-1,-1],
"loss_changes":[0.0,0.0,0.0,0.0,0.0,0.0,0.0,0.0,0.0,0.0,0.0,0.0,0.0,0.0,0.0,0.0,0.0,0.0,0.0,0.0,0.0,0.0,0.0,0.0,0.0,0.0,0.0],
"parents":[2147483647,0,0,1,1,2,2,4,4,5,5,6,6,7,7,8,8,14,14,16,16,17,17,20,20,23,23],
"right_children":[2,4,6,-1,8,10,12,14,16,-1,-1,-1,-1,-1,18,-1,20,22,-1,-1,24,-1,-1,26,-1,-1,-1],
"split_conditions":[-5.1712484359741211e+00,-9.9600201845169067e-01,4.7009035944938660e-02,-3.8319259881973267e-02,4.6176910400390625e+00,-4.4684901237487793e+00,-5.8420795202255249e-01,7.1045529842376709e-01,8.0122709274291992e-01,1.1786033399403095e-02,-3.9896154776215553e-03,-4.0284931659698486e-02,-2.4778023362159729e-02,-1.5940187498927116e-02,-5.9708251953125000e+00,5.4458159953355789e-02,4.5689579010009766e+01,2.9927452087402344e+01,7.9416306689381599e-03,2.0795140415430069e-02,1.2249663472175598e-02,2.3033961653709412e-02,2.9151560738682747e-02,1.1008559465408325e+00,3.6608133465051651e-02,3.8708277046680450e-02,4.1520990431308746e-02],
"split_indices":[11,12,2,0,6,11,12,8,8,0,0,0,0,0,10,0,0,0,0,0,2,0,0,9,0,0,0],
"split_type":[0,0,0,0,0,0,0,0,0,0,0,0,0,0,0,0,0,0,0,0,0,0,0,0,0,0,0],
"sum_hessian":[0.0,0.0,0.0,0.0,0.0,0.0,0.0,0.0,0.0,0.0,0.0,0.0,0.0,0.0,0.0,0.0,0.0,0.0,0.0,0.0,0.0,0.0,0.0,0.0,0.0,0.0,0.0],
"tree_param":{"num_deleted":"0","num_feature":"13","num_nodes":"27","size_leaf_vector":"0"}
},
{
"base_weights":[0.0,0.0,0.0,0.0,0.0,0.0,0.0,0.0,0.0,0.0,0.0,0.0,0.0,0.0,0.0,0.0,0.0,0.0,0.0,0.0,0.0,0.0,0.0],
"categories":[],"categories_nodes":[],"categories_segments":[],"categories_sizes":[],
"default_left":[true,true,true,false,true,false,false,true,true,false,true,true,false,false,false,true,false,true,false,false,true,false,false],
"id":33,
"left_children":[1,3,5,-1,7,-1,-1,9,11,-1,13,15,-1,-1,-1,17,-1,19,-1,-1,21,-1,-1],
"loss_changes":[0.0,0.0,0.0,0.0,0.0,0.0,0.0,0.0,0.0,0.0,0.0,0.0,0.0,0.0,0.0,0.0,0.0,0.0,0.0,0.0,0.0,0.0,0.0],
"parents":[2147483647,0,0,1,1,2,2,4,4,7,7,8,8,10,10,11,11,15,15,17,17,20,20],
"right_children":[2,4,6,-1,8,-1,-1,10,12,-1,14,16,-1,-1,-1,18,-1,20,-1,-1,22,-1,-1],
"split_conditions":[2.5220670700073242e+00,-9.9800097942352295e-01,4.3285679072141647e-02,-4.1315928101539612e-02,3.3823089599609375e+00,5.5262334644794464e-03,-3.1886767596006393e-02,7.3262846469879150e-01,1.0740035772323608e-01,-1.4134733937680721e-02,-6.3624014854431152e+00,-5.4733481407165527e+00,4.3872736394405365e-02,2.4269744753837585e-02,1.2201589532196522e-02,5.4945670999586582e-03,9.0354364365339279e-03,4.2753429412841797e+01,2.4030523374676704e-02,2.8586793690919876e-02,1.8532609101384878e-03,4.6030942350625992e-02,3.6113362759351730e-02],
"split_indices":[9,12,2,0,6,0,0,8,2,0,10,11,0,0,0,7,0,0,0,0,7,0,0],
"split_type":[0,0,0,0,0,0,0,0,0,0,0,0,0,0,0,0,0,0,0,0,0,0,0],
"sum_hessian":[0.0,0.0,0.0,0.0,0.0,0.0,0.0,0.0,0.0,0.0,0.0,0.0,0.0,0.0,0.0,0.0,0.0,0.0,0.0,0.0,0.0,0.0,0.0],
"tree_param":{"num_deleted":"0","num_feature":"13","num_nodes":"23","size_leaf_vector":"0"}
},
{
"base_weights":[0.0,0.0,0.0,0.0,0.0,0.0,0.0,0.0,0.0,0.0,0.0,0.0,0.0,0.0,0.0,0.0,0.0],
"categories":[],"categories_nodes":[],"categories_segments":[],"categories_sizes":[],
"default_left":[true,true,false,false,true,false,true,true,false,true,false,true,false,false,true,false,false],
"id":34,
"left_children":[1,3,-1,-1,5,-1,7,9,-1,11,-1,13,-1,-1,15,-1,-1],
"loss_changes":[0.0,0.0,0.0,0.0,0.0,0.0,0.0,0.0,0.0,0.0,0.0,0.0,0.0,0.0,0.0,0.0,0.0],
"parents":[2147483647,0,0,1,1,4,4,6,6,7,7,9,9,11,11,14,14],
"right_children":[2,4,-1,-1,6,-1,8,10,-1,12,-1,14,-1,-1,16,-1,-1],
"split_conditions":[2.5275009870529175e-01,-5.3923040628433228e-01,-2.5929721072316170e-02,-3.0026957392692566e-02,1.7679148586466908e-03,-7.1205426938831806e-03,8.4851443767547607e-02,2.7897748947143555e+00,1.9461758434772491e-02,4.0114454925060272e-02,2.3613378405570984e-02,4.6176910400390625e+00,2.1342976018786430e-02,2.1254653111100197e-02,-6.0844388008117676e+00,3.3206686377525330e-02,1.7629342153668404e-02],
"split_indices":[7,12,0,0,7,0,2,9,0,2,0,6,0,0,10,0,0],
"split_type":[0,0,0,0,0,0,0,0,0,0,0,0,0,0,0,0,0],
"sum_hessian":[0.0,0.0,0.0,0.0,0.0,0.0,0.0,0.0,0.0,0.0,0.0,0.0,0.0,0.0,0.0,0.0,0.0],
"tree_param":{"num_deleted":"0","num_feature":"13","num_nodes":"17","size_leaf_vector":"0"}
},
{
"base_weights":[0.0,0.0,0.0,0.0,0.0,0.0,0.0,0.0,0.0,0.0,0.0,0.0,0.0,0.0,0.0,0.0,0.0,0.0,0.0,0.0,0.0,0.0,0.0,0.0,0.0],
"categories":[],"categories_nodes":[],"categories_segments":[],"categories_sizes":[],
"default_left":[true,true,true,false,true,true,false,true,true,false,true,true,false,false,true,false,false,true,false,false,true,false,false,false,false],
"id":35,
"left_children":[1,3,5,-1,7,9,-1,11,13,-1,15,17,-1,-1,19,-1,-1,21,-1,-1,23,-1,-1,-1,-1],
"loss_changes":[0.0,0.0,0.0,0.0,0.0,0.0,0.0,0.0,0.0,0.0,0.0,0.0,0.0,0.0,0.0,0.0,0.0,0.0,0.0,0.0,0.0,0.0,0.0,0.0,0.0],
"parents":[2147483647,0,0,1,1,2,2,4,4,5,5,7,7,8,8,10,10,11,11,14,14,17,17,20,20],
"right_children":[2,4,6,-1,8,10,-1,12,14,-1,16,18,-1,-1,20,-1,-1,22,-1,-1,24,-1,-1,-1,-1],
"split_conditions":[-5.6765298843383789e+00,-9.9500250816345215e-01,1.2287849932909012e-01,-3.6076948046684265e-02,5.4972515106201172e+00,2.0965074539184570e+01,-3.5249523818492889e-02,3.2467897981405258e-02,8.4018164873123169e-01,-1.6608824953436852e-02,7.4909445829689503e-03,6.1767669394612312e-03,-1.2552851811051369e-02,5.5506855249404907e-02,5.1379676818847656e+01,2.0197443664073944e-02,-6.8452707491815090e-03,3.2685451507568359e+01,1.8825165927410126e-02,1.9053189083933830e-02,1.2451988458633423e+00,7.1403444744646549e-03,3.6744810640811920e-02,3.5353384912014008e-02,4.0540404617786407e-02],
"split_indices":[10,12,7,0,6,0,0,7,8,0,7,7,0,0,0,0,0,0,0,0,9,0,0,0,0],
"split_type":[0,0,0,0,0,0,0,0,0,0,0,0,0,0,0,0,0,0,0,0,0,0,0,0,0],
"sum_hessian":[0.0,0.0,0.0,0.0,0.0,0.0,0.0,0.0,0.0,0.0,0.0,0.0,0.0,0.0,0.0,0.0,0.0,0.0,0.0,0.0,0.0,0.0,0.0,0.0,0.0],
"tree_param":{"num_deleted":"0","num_feature":"13","num_nodes":"25","size_leaf_vector":"0"}
},
{
"base_weights":[0.0,0.0,0.0,0.0,0.0,0.0,0.0,0.0,0.0,0.0,0.0,0.0,0.0,0.0,0.0,0.0,0.0,0.0,0.0,0.0,0.0,0.0,0.0,0.0,0.0],
"categories":[],"categories_nodes":[],"categories_segments":[],"categories_sizes":[],
"default_left":[true,true,true,false,true,true,true,true,true,false,false,false,false,true,false,false,true,true,false,false,true,false,false,false,false],
"id":36,
"left_children":[1,3,5,-1,7,9,11,13,15,-1,-1,-1,-1,17,-1,-1,19,21,-1,-1,23,-1,-1,-1,-1],
"loss_changes":[0.0,0.0,0.0,0.0,0.0,0.0,0.0,0.0,0.0,0.0,0.0,0.0,0.0,0.0,0.0,0.0,0.0,0.0,0.0,0.0,0.0,0.0,0.0,0.0,0.0],
"parents":[2147483647,0,0,1,1,2,2,4,4,5,5,6,6,7,7,8,8,13,13,16,16,17,17,20,20],
"right_children":[2,4,6,-1,8,10,12,14,16,-1,-1,-1,-1,18,-1,-1,20,22,-1,-1,24,-1,-1,-1,-1],
"split_conditions":[-5.2938303947448730e+00,-9.8900550603866577e-01,4.7009035944938660e-02,-2.9335819184780121e-02,5.9370312690734863e+00,4.9950610846281052e-03,2.9735121130943298e-01,3.5464935004711151e-02,8.5556030273437500e-01,1.1253089644014835e-02,-6.4637260511517525e-03,-3.3030755817890167e-02,-1.9357612356543541e-02,5.8836550451815128e-03,-1.0923406109213829e-02,5.2608288824558258e-02,4.9828144073486328e+01,3.2847488403320312e+01,1.6903387382626534e-02,1.7777485772967339e-02,1.1926871538162231e+00,7.0429244078695774e-03,3.3762942999601364e-02,3.3984340727329254e-02,3.8472987711429596e-02],
"split_indices":[11,12,2,0,6,7,12,7,8,0,0,0,0,7,0,0,0,0,0,0,9,0,0,0,0],
"split_type":[0,0,0,0,0,0,0,0,0,0,0,0,0,0,0,0,0,0,0,0,0,0,0,0,0],
"sum_hessian":[0.0,0.0,0.0,0.0,0.0,0.0,0.0,0.0,0.0,0.0,0.0,0.0,0.0,0.0,0.0,0.0,0.0,0.0,0.0,0.0,0.0,0.0,0.0,0.0,0.0],
"tree_param":{"num_deleted":"0","num_feature":"13","num_nodes":"25","size_leaf_vector":"0"}
},
{
"base_weights":[0.0,0.0,0.0,0.0,0.0,0.0,0.0,0.0,0.0,0.0,0.0,0.0,0.0,0.0,0.0,0.0,0.0,0.0,0.0],
"categories":[],"categories_nodes":[],"categories_segments":[],"categories_sizes":[],
"default_left":[true,true,false,true,true,true,false,false,false,true,false,false,true,false,true,true,false,false,false],
"id":37,
"left_children":[1,3,-1,5,7,9,-1,-1,-1,11,-1,-1,13,-1,15,17,-1,-1,-1],
"loss_changes":[0.0,0.0,0.0,0.0,0.0,0.0,0.0,0.0,0.0,0.0,0.0,0.0,0.0,0.0,0.0,0.0,0.0,0.0,0.0],
"parents":[2147483647,0,0,1,1,3,3,4,4,5,5,9,9,12,12,14,14,15,15],
"right_children":[2,4,-1,6,8,10,-1,-1,-1,12,-1,-1,14,-1,16,18,-1,-1,-1],
"split_conditions":[1.3453269004821777e-01,-4.7672734260559082e+00,-3.0054163187742233e-02,4.3777700513601303e-02,9.9900037050247192e-01,1.2985704839229584e-01,-6.5771755762398243e-03,-2.2876018658280373e-02,3.7521714693866670e-04,9.9900043010711670e-01,2.5892987847328186e-02,-9.1123528545722365e-04,9.9993503093719482e-01,2.1497406996786594e-03,6.4935795962810516e-03,3.6281859874725342e+00,2.6328437030315399e-02,3.1163144856691360e-02,4.4902224093675613e-02],
"split_indices":[3,11,0,4,12,2,0,0,0,12,0,0,12,0,7,6,0,0,0],
"split_type":[0,0,0,0,0,0,0,0,0,0,0,0,0,0,0,0,0,0,0],
"sum_hessian":[0.0,0.0,0.0,0.0,0.0,0.0,0.0,0.0,0.0,0.0,0.0,0.0,0.0,0.0,0.0,0.0,0.0,0.0,0.0],
"tree_param":{"num_deleted":"0","num_feature":"13","num_nodes":"19","size_leaf_vector":"0"}
},
{
"base_weights":[0.0,0.0,0.0,0.0,0.0,0.0,0.0,0.0,0.0,0.0,0.0,0.0,0.0,0.0,0.0,0.0,0.0,0.0,0.0],
"categories":[],"categories_nodes":[],"categories_segments":[],"categories_sizes":[],
"default_left":[true,true,false,true,true,false,false,false,true,true,false,true,false,true,false,false,true,false,false],
"id":38,
"left_children":[1,3,-1,5,7,-1,-1,-1,9,11,-1,13,-1,15,-1,-1,17,-1,-1],
"loss_changes":[0.0,0.0,0.0,0.0,0.0,0.0,0.0,0.0,0.0,0.0,0.0,0.0,0.0,0.0,0.0,0.0,0.0,0.0,0.0],
"parents":[2147483647,0,0,1,1,3,3,4,4,8,8,9,9,11,11,13,13,16,16],
"right_children":[2,4,-1,6,8,-1,-1,-1,10,12,-1,14,-1,16,-1,-1,18,-1,-1],
"split_conditions":[2.7073231339454651e-01,5.7221382856369019e-01,-2.2913778200745583e-02,2.6996076107025146e-01,1.7574221128597856e-03,-2.5856159627437592e-02,-1.0184052400290966e-02,-6.7894677631556988e-03,8.4851443767547607e-02,2.7578098773956299e+00,1.7336109653115273e-02,5.9211677871644497e-03,2.4126918986439705e-02,3.6281859874725342e+00,1.5455494634807110e-02,2.7001315727829933e-02,1.5194641351699829e+00,2.6850715279579163e-02,2.7556588873267174e-02],
"split_indices":[7,12,0,2,7,0,0,0,2,9,0,7,0,6,0,0,9,0,0],
"split_type":[0,0,0,0,0,0,0,0,0,0,0,0,0,0,0,0,0,0,0],
"sum_hessian":[0.0,0.0,0.0,0.0,0.0,0.0,0.0,0.0,0.0,0.0,0.0,0.0,0.0,0.0,0.0,0.0,0.0,0.0,0.0],
"tree_param":{"num_deleted":"0","num_feature":"13","num_nodes":"19","size_leaf_vector":"0"}
},
{
"base_weights":[0.0,0.0,0.0,0.0,0.0,0.0,0.0,0.0,0.0,0.0,0.0,0.0,0.0,0.0,0.0,0.0,0.0,0.0,0.0,0.0,0.0,0.0,0.0,0.0,0.0],
"categories":[],"categories_nodes":[],"categories_segments":[],"categories_sizes":[],
"default_left":[true,true,true,true,false,false,true,false,true,false,true,false,true,false,true,true,false,true,false,false,false,true,false,false,false],
"id":39,
"left_children":[1,3,5,7,-1,-1,9,-1,11,-1,13,-1,15,-1,17,19,-1,21,-1,-1,-1,23,-1,-1,-1],
"loss_changes":[0.0,0.0,0.0,0.0,0.0,0.0,0.0,0.0,0.0,0.0,0.0,0.0,0.0,0.0,0.0,0.0,0.0,0.0,0.0,0.0,0.0,0.0,0.0,0.0,0.0],
"parents":[2147483647,0,0,1,1,2,2,3,3,6,6,8,8,10,10,12,12,14,14,15,15,17,17,21,21],
"right_children":[2,4,6,8,-1,-1,10,-1,12,-1,14,-1,16,-1,18,20,-1,22,-1,-1,-1,24,-1,-1,-1],
"split_conditions":[4.8775610923767090e+00,1.5734443068504333e-01,6.4920693635940552e-01,9.1604191064834595e-01,-4.0778387337923050e-02,4.5997541397809982e-02,9.9900043010711670e-01,-2.0227517932653427e-02,2.0429238211363554e-03,-1.5993470326066017e-02,9.9996745586395264e-01,-7.1751922369003296e-03,1.1993871303275228e-03,5.0205546431243420e-03,-5.5739860534667969e+00,8.2488507032394409e-03,6.8720364943146706e-03,2.4975305423140526e-03,3.7303641438484192e-02,2.6847511529922485e-02,2.0403182134032249e-02,9.9999791383743286e-01,4.0111083537340164e-02,4.2412623763084412e-02,5.0074227154254913e-02],
"split_indices":[6,7,8,12,0,0,12,0,7,0,12,0,4,0,11,7,0,7,0,0,0,12,0,0,0],
"split_type":[0,0,0,0,0,0,0,0,0,0,0,0,0,0,0,0,0,0,0,0,0,0,0,0,0],
"sum_hessian":[0.0,0.0,0.0,0.0,0.0,0.0,0.0,0.0,0.0,0.0,0.0,0.0,0.0,0.0,0.0,0.0,0.0,0.0,0.0,0.0,0.0,0.0,0.0,0.0,0.0],
"tree_param":{"num_deleted":"0","num_feature":"13","num_nodes":"25","size_leaf_vector":"0"}
},
{
"base_weights":[0.0,0.0,0.0,0.0,0.0,0.0,0.0,0.0,0.0,0.0,0.0,0.0,0.0,0.0,0.0,0.0,0.0,0.0,0.0,0.0,0.0,0.0,0.0,0.0,0.0],
"categories":[],"categories_nodes":[],"categories_segments":[],"categories_sizes":[],
"default_left":[true,true,true,false,true,false,true,true,true,false,false,true,false,false,true,true,false,false,true,false,true,false,false,false,false],
"id":40,
"left_children":[1,3,5,-1,7,-1,9,11,13,-1,-1,15,-1,-1,17,19,-1,-1,21,-1,23,-1,-1,-1,-1],
"loss_changes":[0.0,0.0,0.0,0.0,0.0,0.0,0.0,0.0,0.0,0.0,0.0,0.0,0.0,0.0,0.0,0.0,0.0,0.0,0.0,0.0,0.0,0.0,0.0,0.0,0.0],
"parents":[2147483647,0,0,1,1,2,2,4,4,6,6,7,7,8,8,11,11,14,14,15,15,18,18,20,20],
"right_children":[2,4,6,-1,8,-1,10,12,14,-1,-1,16,-1,-1,18,20,-1,-1,22,-1,24,-1,-1,-1,-1],
"split_conditions":[2.9136397838592529e+00,-9.9900048971176147e-01,2.4956356048583984e+01,-3.9444770663976669e-02,5.9190406799316406e+00,-2.5463929399847984e-02,-5.3202390670776367e+00,4.9950610846281052e-02,8.3359080553054810e-01,1.6145443078130484e-03,-1.6306199133396149e-02,1.0829968452453613e+00,-9.8810661584138870e-03,5.1724065095186234e-02,4.5173542022705078e+01,-1.1371371746063232e+00,2.6999972760677338e-03,4.6967584639787674e-03,-6.3064332008361816e+00,5.9106741100549698e-03,5.8385115116834641e-03,3.4433200955390930e-02,1.6378603875637054e-02,2.0156348124146461e-02,1.7150964587926865e-02],
"split_indices":[9,12,0,0,6,0,10,7,8,0,0,1,0,0,0,1,0,0,10,0,7,0,0,0,0],
"split_type":[0,0,0,0,0,0,0,0,0,0,0,0,0,0,0,0,0,0,0,0,0,0,0,0,0],
"sum_hessian":[0.0,0.0,0.0,0.0,0.0,0.0,0.0,0.0,0.0,0.0,0.0,0.0,0.0,0.0,0.0,0.0,0.0,0.0,0.0,0.0,0.0,0.0,0.0,0.0,0.0],
"tree_param":{"num_deleted":"0","num_feature":"13","num_nodes":"25","size_leaf_vector":"0"}
},
{
"base_weights":[0.0,0.0,0.0,0.0,0.0,0.0,0.0,0.0,0.0,0.0,0.0,0.0,0.0,0.0,0.0,0.0,0.0,0.0,0.0,0.0,0.0,0.0,0.0],
"categories":[],"categories_nodes":[],"categories_segments":[],"categories_sizes":[],
"default_left":[true,true,true,false,true,false,false,true,true,false,true,false,true,false,false,true,true,true,false,false,false,false,false],
"id":41,
"left_children":[1,3,5,-1,7,-1,-1,9,11,-1,13,-1,15,-1,-1,17,19,21,-1,-1,-1,-1,-1],
"loss_changes":[0.0,0.0,0.0,0.0,0.0,0.0,0.0,0.0,0.0,0.0,0.0,0.0,0.0,0.0,0.0,0.0,0.0,0.0,0.0,0.0,0.0,0.0,0.0],
"parents":[2147483647,0,0,1,1,2,2,4,4,7,7,8,8,10,10,12,12,15,15,16,16,17,17],
"right_children":[2,4,6,-1,8,-1,-1,10,12,-1,14,-1,16,-1,-1,18,20,22,-1,-1,-1,-1,-1],
"split_conditions":[-5.5057940483093262e+00,-9.9800097942352295e-01,5.4107099771499634e-02,-3.5257026553153992e-02,3.4542727470397949e+00,7.0043973391875625e-04,-2.2451192140579224e-02,7.3918718099594116e-01,7.2823119163513184e-01,-1.2166591361165047e-02,8.8950347900390625e-01,3.6463029682636261e-02,6.1719715118408203e+01,8.2515720278024673e-03,1.8528917804360390e-02,-5.6805639266967773e+00,8.5912570357322693e-03,-6.5254621505737305e+00,4.5514460653066635e-03,3.2681323587894440e-02,2.6899917051196098e-02,2.3801125586032867e-02,1.2931313365697861e-02],
"split_indices":[10,12,2,0,6,0,0,8,8,0,8,0,0,0,0,11,2,10,0,0,0,0,0],
"split_type":[0,0,0,0,0,0,0,0,0,0,0,0,0,0,0,0,0,0,0,0,0,0,0],
"sum_hessian":[0.0,0.0,0.0,0.0,0.0,0.0,0.0,0.0,0.0,0.0,0.0,0.0,0.0,0.0,0.0,0.0,0.0,0.0,0.0,0.0,0.0,0.0,0.0],
"tree_param":{"num_deleted":"0","num_feature":"13","num_nodes":"23","size_leaf_vector":"0"}
},
{
"base_weights":[0.0,0.0,0.0,0.0,0.0,0.0,0.0,0.0,0.0,0.0,0.0,0.0,0.0,0.0,0.0,0.0,0.0,0.0,0.0],
"categories":[],"categories_nodes":[],"categories_segments":[],"categories_sizes":[],
"default_left":[true,true,false,false,true,false,true,true,true,true,false,false,false,false,true,true,false,false,false],
"id":42,
"left_children":[1,3,-1,-1,5,-1,7,9,11,13,-1,-1,-1,-1,15,17,-1,-1,-1],
"loss_changes":[0.0,0.0,0.0,0.0,0.0,0.0,0.0,0.0,0.0,0.0,0.0,0.0,0.0,0.0,0.0,0.0,0.0,0.0,0.0],
"parents":[2147483647,0,0,1,1,4,4,6,6,7,7,8,8,9,9,14,14,15,15],
"right_children":[2,4,-1,-1,6,-1,8,10,12,14,-1,-1,-1,-1,16,18,-1,-1,-1],
"split_conditions":[2.7073231339454651e-01,-9.5702147483825684e-01,-2.0304456353187561e-02,-3.1049188226461411e-02,1.6222357517108321e-03,-1.0927854105830193e-02,8.4851443767547607e-02,2.8497095108032227e+00,2.5986721739172935e-03,-1.1454534530639648e+00,1.8667396157979965e-02,2.5532187893986702e-02,6.3256975263357162e-03,4.3486459180712700e-03,1.1607261896133423e+00,5.9231580235064030e-03,4.3670134618878365e-03,2.9465392231941223e-02,1.6886681318283081e-02],
"split_indices":[7,12,0,0,7,0,2,9,4,1,0,0,0,0,1,7,0,0,0],
"split_type":[0,0,0,0,0,0,0,0,0,0,0,0,0,0,0,0,0,0,0],
"sum_hessian":[0.0,0.0,0.0,0.0,0.0,0.0,0.0,0.0,0.0,0.0,0.0,0.0,0.0,0.0,0.0,0.0,0.0,0.0,0.0],
"tree_param":{"num_deleted":"0","num_feature":"13","num_nodes":"19","size_leaf_vector":"0"}
},
{
"base_weights":[0.0,0.0,0.0,0.0,0.0,0.0,0.0,0.0,0.0,0.0,0.0,0.0,0.0,0.0,0.0,0.0,0.0,0.0,0.0,0.0,0.0],
"categories":[],"categories_nodes":[],"categories_segments":[],"categories_sizes":[],
"default_left":[true,true,true,false,true,false,true,true,false,false,false,false,true,false,true,false,true,false,true,false,false],
"id":43,
"left_children":[1,3,5,-1,7,-1,9,11,-1,-1,-1,-1,13,-1,15,-1,17,-1,19,-1,-1],
"loss_changes":[0.0,0.0,0.0,0.0,0.0,0.0,0.0,0.0,0.0,0.0,0.0,0.0,0.0,0.0,0.0,0.0,0.0,0.0,0.0,0.0,0.0],
"parents":[2147483647,0,0,1,1,2,2,4,4,6,6,7,7,12,12,14,14,16,16,18,18],
"right_children":[2,4,6,-1,8,-1,10,12,-1,-1,-1,-1,14,-1,16,-1,18,-1,20,-1,-1],
"split_conditions":[2.4221761226654053e+00,-9.9900048971176147e-01,2.4956356048583984e+01,-3.6509517580270767e-02,2.0029985904693604e+00,-2.0825786516070366e-02,1.6983207315206528e-02,9.9800193309783936e-01,1.7844060435891151e-02,1.8407730385661125e-02,-1.9012456759810448e-02,-2.9409381095319986e-03,9.9990308284759521e-01,-1.7271917313337326e-03,2.3317501068115234e+01,1.9415564835071564e-02,8.5919845104217529e-01,2.7954287827014923e-02,9.9999076128005981e-01,2.7171401306986809e-02,4.7452382743358612e-02],
"split_indices":[9,12,0,0,5,0,7,12,0,0,0,0,12,0,0,0,8,0,12,0,0],
"split_type":[0,0,0,0,0,0,0,0,0,0,0,0,0,0,0,0,0,0,0,0,0],
"sum_hessian":[0.0,0.0,0.0,0.0,0.0,0.0,0.0,0.0,0.0,0.0,0.0,0.0,0.0,0.0,0.0,0.0,0.0,0.0,0.0,0.0,0.0],
"tree_param":{"num_deleted":"0","num_feature":"13","num_nodes":"21","size_leaf_vector":"0"}
},
{
"base_weights":[0.0,0.0,0.0,0.0,0.0,0.0,0.0,0.0,0.0,0.0,0.0,0.0,0.0,0.0,0.0,0.0,0.0],
"categories":[],"categories_nodes":[],"categories_segments":[],"categories_sizes":[],
"default_left":[true,true,false,true,false,false,true,true,false,true,false,true,false,false,true,false,false],
"id":44,
"left_children":[1,3,-1,5,-1,-1,7,9,-1,11,-1,13,-1,-1,15,-1,-1],
"loss_changes":[0.0,0.0,0.0,0.0,0.0,0.0,0.0,0.0,0.0,0.0,0.0,0.0,0.0,0.0,0.0,0.0,0.0],
"parents":[2147483647,0,0,1,1,3,3,6,6,7,7,9,9,11,11,14,14],
"right_children":[2,4,-1,6,-1,-1,8,10,-1,12,-1,14,-1,-1,16,-1,-1],
"split_conditions":[1.3813088834285736e-01,3.9285323619842529e+00,-2.6116216555237770e-02,-9.7701150178909302e-01,-1.3312980532646179e-02,-1.5434727072715759e-02,2.0029985904693604e+00,3.8180492818355560e-02,1.9512820988893509e-02,5.1562838256359100e-02,-2.9545950237661600e-03,8.3317732810974121e-01,1.2331526726484299e-02,-4.5218507875688374e-04,3.2983508110046387e+00,1.7976632341742516e-02,1.8760863691568375e-02],
"split_indices":[3,9,0,12,0,0,5,4,0,2,0,8,0,0,6,0,0],
"split_type":[0,0,0,0,0,0,0,0,0,0,0,0,0,0,0,0,0],
"sum_hessian":[0.0,0.0,0.0,0.0,0.0,0.0,0.0,0.0,0.0,0.0,0.0,0.0,0.0,0.0,0.0,0.0,0.0],
"tree_param":{"num_deleted":"0","num_feature":"13","num_nodes":"17","size_leaf_vector":"0"}
},
{
"base_weights":[0.0,0.0,0.0,0.0,0.0,0.0,0.0,0.0,0.0,0.0,0.0,0.0,0.0,0.0,0.0,0.0,0.0,0.0,0.0,0.0,0.0,0.0,0.0],
"categories":[],"categories_nodes":[],"categories_segments":[],"categories_sizes":[],
"default_left":[true,true,true,true,false,false,true,false,true,true,false,false,true,false,true,false,true,false,false,true,false,false,false],
"id":45,
"left_children":[1,3,5,7,-1,-1,9,-1,11,13,-1,-1,15,-1,17,-1,19,-1,-1,21,-1,-1,-1],
"loss_changes":[0.0,0.0,0.0,0.0,0.0,0.0,0.0,0.0,0.0,0.0,0.0,0.0,0.0,0.0,0.0,0.0,0.0,0.0,0.0,0.0,0.0,0.0,0.0],
"parents":[2147483647,0,0,1,1,2,2,3,3,6,6,8,8,9,9,12,12,14,14,16,16,19,19],
"right_children":[2,4,6,8,-1,-1,10,-1,12,14,-1,-1,16,-1,18,-1,20,-1,-1,22,-1,-1,-1],
"split_conditions":[6.8285856246948242e+00,2.4026243388652802e-01,7.4205106496810913e-01,7.9210388660430908e-01,-3.7686832249164581e-02,4.7089178115129471e-02,4.9950610846281052e-03,-1.5507888048887253e-02,1.9209145102649927e-03,4.9747200012207031e+01,-1.0548250749707222e-02,-5.6419414468109608e-03,9.9979227781295776e-01,7.3251873254776001e-03,1.4329456090927124e+00,1.2501350138336420e-03,6.3282358460128307e-03,2.4428855627775192e-02,2.8826046735048294e-02,1.2283936738967896e+00,1.9475933164358139e-02,3.4549504518508911e-02,3.6601688712835312e-02],
"split_indices":[6,7,8,12,0,0,7,0,7,0,0,0,12,0,9,0,7,0,0,9,0,0,0],
"split_type":[0,0,0,0,0,0,0,0,0,0,0,0,0,0,0,0,0,0,0,0,0,0,0],
"sum_hessian":[0.0,0.0,0.0,0.0,0.0,0.0,0.0,0.0,0.0,0.0,0.0,0.0,0.0,0.0,0.0,0.0,0.0,0.0,0.0,0.0,0.0,0.0,0.0],
"tree_param":{"num_deleted":"0","num_feature":"13","num_nodes":"23","size_leaf_vector":"0"}
},
{
"base_weights":[0.0,0.0,0.0,0.0,0.0,0.0,0.0,0.0,0.0,0.0,0.0,0.0,0.0,0.0,0.0,0.0,0.0,0.0,0.0,0.0,0.0,0.0,0.0],
"categories":[],"categories_nodes":[],"categories_segments":[],"categories_sizes":[],
"default_left":[true,true,true,true,true,true,false,false,true,false,true,false,true,true,false,true,false,false,false,false,false,false,false],
"id":46,
"left_children":[1,3,5,7,9,11,-1,-1,13,-1,15,-1,17,19,-1,21,-1,-1,-1,-1,-1,-1,-1],
"loss_changes":[0.0,0.0,0.0,0.0,0.0,0.0,0.0,0.0,0.0,0.0,0.0,0.0,0.0,0.0,0.0,0.0,0.0,0.0,0.0,0.0,0.0,0.0,0.0],
"parents":[2147483647,0,0,1,1,2,2,3,3,4,4,5,5,8,8,10,10,12,12,13,13,15,15],
"right_children":[2,4,6,8,10,12,-1,-1,14,-1,16,-1,18,20,-1,22,-1,-1,-1,-1,-1,-1,-1],
"split_conditions":[-5.5063056945800781e+00,4.9815092086791992e+00,1.4435726404190063e-01,6.9860476255416870e-01,7.4930024147033691e-01,9.9900043010711670e-01,-2.7078030630946159e-02,-1.2261781841516495e-02,4.1729221120476723e-03,4.0731787681579590e-02,-6.0182814598083496e+00,-1.2112578377127647e-02,9.9998098611831665e-01,2.7026227951049805e+01,9.6019828924909234e-04,7.7238494157791138e-01,3.1124212546274066e-04,-2.9060177039355040e-03,2.5807052850723267e-02,1.2317069806158543e-02,1.6740623861551285e-02,1.2449780479073524e-02,2.5331176817417145e-02],
"split_indices":[11,6,7,8,8,12,0,0,4,0,10,0,12,0,0,9,0,0,0,0,0,0,0],
"split_type":[0,0,0,0,0,0,0,0,0,0,0,0,0,0,0,0,0,0,0,0,0,0,0],
"sum_hessian":[0.0,0.0,0.0,0.0,0.0,0.0,0.0,0.0,0.0,0.0,0.0,0.0,0.0,0.0,0.0,0.0,0.0,0.0,0.0,0.0,0.0,0.0,0.0],
"tree_param":{"num_deleted":"0","num_feature":"13","num_nodes":"23","size_leaf_vector":"0"}
},
{
"base_weights":[0.0,0.0,0.0,0.0,0.0,0.0,0.0,0.0,0.0,0.0,0.0,0.0,0.0,0.0,0.0,0.0,0.0,0.0,0.0],
"categories":[],"categories_nodes":[],"categories_segments":[],"categories_sizes":[],
"default_left":[true,true,false,true,true,true,false,false,false,true,false,false,true,false,true,true,false,false,false],
"id":47,
"left_children":[1,3,-1,5,7,9,-1,-1,-1,11,-1,-1,13,-1,15,17,-1,-1,-1],
"loss_changes":[0.0,0.0,0.0,0.0,0.0,0.0,0.0,0.0,0.0,0.0,0.0,0.0,0.0,0.0,0.0,0.0,0.0,0.0,0.0],
"parents":[2147483647,0,0,1,1,3,3,4,4,5,5,9,9,12,12,14,14,15,15],
"right_children":[2,4,-1,6,8,10,-1,-1,-1,12,-1,-1,14,-1,16,18,-1,-1,-1],
"split_conditions":[1.5532229840755463e-01,3.8180552423000336e-02,-2.5813797488808632e-02,-4.8228502273559570e+00,1.6316854953765869e+00,1.4742818474769592e-01,-7.4929972179234028e-03,1.6034294385462999e-03,-2.0922543480992317e-02,9.9900043010711670e-01,2.1463990211486816e-02,-6.0713449493050575e-03,9.9992251396179199e-01,-3.8640752900391817e-03,2.3063025474548340e+00,2.5469074249267578e+01,2.4120509624481201e-02,1.9209161400794983e-02,3.7810347974300385e-02],
"split_indices":[3,4,0,10,9,2,0,0,0,12,0,0,12,0,9,0,0,0,0],
"split_type":[0,0,0,0,0,0,0,0,0,0,0,0,0,0,0,0,0,0,0],
"sum_hessian":[0.0,0.0,0.0,0.0,0.0,0.0,0.0,0.0,0.0,0.0,0.0,0.0,0.0,0.0,0.0,0.0,0.0,0.0,0.0],
"tree_param":{"num_deleted":"0","num_feature":"13","num_nodes":"19","size_leaf_vector":"0"}
},
{
"base_weights":[0.0,0.0,0.0,0.0,0.0,0.0,0.0,0.0,0.0,0.0,0.0,0.0,0.0,0.0,0.0,0.0,0.0,0.0,0.0,0.0,0.0,0.0,0.0,0.0,0.0],
"categories":[],"categories_nodes":[],"categories_segments":[],"categories_sizes":[],
"default_left":[true,true,true,true,false,false,true,false,true,true,false,false,true,false,true,true,false,true,false,true,false,false,false,false,false],
"id":48,
"left_children":[1,3,5,7,-1,-1,9,-1,11,13,-1,-1,15,-1,17,19,-1,21,-1,23,-1,-1,-1,-1,-1],
"loss_changes":[0.0,0.0,0.0,0.0,0.0,0.0,0.0,0.0,0.0,0.0,0.0,0.0,0.0,0.0,0.0,0.0,0.0,0.0,0.0,0.0,0.0,0.0,0.0,0.0,0.0],
"parents":[2147483647,0,0,1,1,2,2,3,3,6,6,8,8,9,9,12,12,14,14,15,15,17,17,19,19],
"right_children":[2,4,6,8,-1,-1,10,-1,12,14,-1,-1,16,-1,18,20,-1,22,-1,24,-1,-1,-1,-1,-1],
"split_conditions":[5.8530735969543457e+00,2.0229996740818024e-01,6.9737964868545532e-01,6.1519235372543335e-01,-3.4668851643800735e-02,4.0517158806324005e-02,1.0594699531793594e-02,-1.6084702685475349e-02,1.9206095021218061e-03,4.1034973144531250e+01,-2.0527146756649017e-02,-5.7488647289574146e-03,7.8324407339096069e-02,-7.7498480677604675e-03,9.6422970294952393e-01,1.6518743038177490e+00,9.2161064967513084e-03,9.5969829559326172e+00,1.1086411774158478e-02,3.5629060268402100e+00,1.5638737007975578e-02,1.0515491478145123e-02,2.5565233081579208e-02,1.0696953162550926e-02,7.6868599280714989e-03],
"split_indices":[6,7,8,12,0,0,3,0,7,0,0,0,2,0,8,9,0,6,0,6,0,0,0,0,0],
"split_type":[0,0,0,0,0,0,0,0,0,0,0,0,0,0,0,0,0,0,0,0,0,0,0,0,0],
"sum_hessian":[0.0,0.0,0.0,0.0,0.0,0.0,0.0,0.0,0.0,0.0,0.0,0.0,0.0,0.0,0.0,0.0,0.0,0.0,0.0,0.0,0.0,0.0,0.0,0.0,0.0],
"tree_param":{"num_deleted":"0","num_feature":"13","num_nodes":"25","size_leaf_vector":"0"}
},
{
"base_weights":[0.0,0.0,0.0,0.0,0.0,0.0,0.0,0.0,0.0,0.0,0.0,0.0,0.0,0.0,0.0,0.0,0.0,0.0,0.0],
"categories":[],"categories_nodes":[],"categories_segments":[],"categories_sizes":[],
"default_left":[true,false,true,true,false,false,true,false,true,true,false,true,false,true,true,false,false,false,false],
"id":49,
"left_children":[1,-1,3,5,-1,-1,7,-1,9,11,-1,13,-1,15,17,-1,-1,-1,-1],
"loss_changes":[0.0,0.0,0.0,0.0,0.0,0.0,0.0,0.0,0.0,0.0,0.0,0.0,0.0,0.0,0.0,0.0,0.0,0.0,0.0],
"parents":[2147483647,0,0,2,2,3,3,6,6,8,8,9,9,11,11,13,13,14,14],
"right_children":[2,-1,4,6,-1,-1,8,-1,10,12,-1,14,-1,16,18,-1,-1,-1,-1],
"split_conditions":[4.4381731748580933e-01,2.5325741618871689e-02,2.3676589131355286e-01,-5.3123438358306885e-01,-3.3274557441473007e-02,-2.5011511519551277e-02,1.6560322837904096e-03,-7.2912024334073067e-03,8.7602615356445312e-02,2.8137488365173340e+00,1.2987097725272179e-02,3.9580209255218506e+00,1.8325924873352051e-02,8.7700593471527100e-01,3.9950046539306641e+01,6.4115682616829872e-03,1.8993303179740906e-02,2.4868834298104048e-03,1.7579028382897377e-02],
"split_indices":[8,0,7,12,0,0,7,0,2,9,0,6,0,8,0,0,0,0,0],
"split_type":[0,0,0,0,0,0,0,0,0,0,0,0,0,0,0,0,0,0,0],
"sum_hessian":[0.0,0.0,0.0,0.0,0.0,0.0,0.0,0.0,0.0,0.0,0.0,0.0,0.0,0.0,0.0,0.0,0.0,0.0,0.0],
"tree_param":{"num_deleted":"0","num_feature":"13","num_nodes":"19","size_leaf_vector":"0"}
},
{
"base_weights":[0.0,0.0,0.0,0.0,0.0,0.0,0.0,0.0,0.0,0.0,0.0,0.0,0.0,0.0,0.0,0.0,0.0,0.0,0.0,0.0,0.0,0.0,0.0,0.0,0.0,0.0,0.0],
"categories":[],"categories_nodes":[],"categories_segments":[],"categories_sizes":[],
"default_left":[true,true,true,true,true,true,false,false,false,false,true,false,true,true,false,false,true,true,false,false,false,true,false,false,true,false,false],
"id":50,
"left_children":[1,3,5,7,9,11,-1,-1,-1,-1,13,-1,15,17,-1,-1,19,21,-1,-1,-1,23,-1,-1,25,-1,-1],
"loss_changes":[0.0,0.0,0.0,0.0,0.0,0.0,0.0,0.0,0.0,0.0,0.0,0.0,0.0,0.0,0.0,0.0,0.0,0.0,0.0,0.0,0.0,0.0,0.0,0.0,0.0,0.0,0.0],
"parents":[2147483647,0,0,1,1,2,2,3,3,4,4,5,5,10,10,12,12,13,13,16,16,17,17,21,21,24,24],
"right_children":[2,4,6,8,10,12,-1,-1,-1,-1,14,-1,16,18,-1,-1,20,22,-1,-1,-1,24,-1,-1,26,-1,-1],
"split_conditions":[-5.8643393516540527e+00,2.9265367984771729e+00,1.5484689176082611e-01,7.3432683944702148e-01,6.5730273723602295e-01,1.9338475540280342e-03,-2.3848496377468109e-02,-1.4736266806721687e-02,8.5753165185451508e-03,3.1345028430223465e-02,1.7761910334229469e-02,-1.0653816163539886e-02,9.7901040315628052e-01,3.6835230886936188e-02,-6.9932267069816589e-03,-1.1575650423765182e-02,2.0455939769744873e+00,2.9970365576446056e-03,1.3862831518054008e-02,4.7854199074208736e-03,1.4766494743525982e-02,1.8538723234087229e-03,4.3602846562862396e-03,3.5460878163576126e-02,1.0449587106704712e+00,1.4709035865962505e-02,2.5341950356960297e-02],
"split_indices":[10,6,7,8,8,7,0,0,0,0,3,0,12,2,0,0,9,7,0,0,0,7,0,0,9,0,0],
"split_type":[0,0,0,0,0,0,0,0,0,0,0,0,0,0,0,0,0,0,0,0,0,0,0,0,0,0,0],
"sum_hessian":[0.0,0.0,0.0,0.0,0.0,0.0,0.0,0.0,0.0,0.0,0.0,0.0,0.0,0.0,0.0,0.0,0.0,0.0,0.0,0.0,0.0,0.0,0.0,0.0,0.0,0.0,0.0],
"tree_param":{"num_deleted":"0","num_feature":"13","num_nodes":"27","size_leaf_vector":"0"}
},
{
"base_weights":[0.0,0.0,0.0,0.0,0.0,0.0,0.0,0.0,0.0,0.0,0.0,0.0,0.0,0.0,0.0,0.0,0.0,0.0,0.0,0.0,0.0,0.0,0.0,0.0,0.0],
"categories":[],"categories_nodes":[],"categories_segments":[],"categories_sizes":[],
"default_left":[true,true,true,false,true,false,true,true,true,false,false,true,false,false,true,false,true,false,false,true,false,false,true,false,false],
"id":51,
"left_children":[1,3,5,-1,7,-1,9,11,13,-1,-1,15,-1,-1,17,-1,19,-1,-1,21,-1,-1,23,-1,-1],
"loss_changes":[0.0,0.0,0.0,0.0,0.0,0.0,0.0,0.0,0.0,0.0,0.0,0.0,0.0,0.0,0.0,0.0,0.0,0.0,0.0,0.0,0.0,0.0,0.0,0.0,0.0],
"parents":[2147483647,0,0,1,1,2,2,4,4,6,6,7,7,8,8,11,11,14,14,16,16,19,19,22,22],
"right_children":[2,4,6,-1,8,-1,10,12,14,-1,-1,16,-1,-1,18,-1,20,-1,-1,22,-1,-1,24,-1,-1],
"split_conditions":[-4.8361907005310059e+00,-9.9900048971176147e-01,1.5669677406549454e-02,-3.1635183840990067e-02,7.9160418510437012e+00,1.7093881033360958e-03,4.3628177046775818e-01,5.9940733015537262e-02,8.8851463794708252e-01,-2.6903403922915459e-02,-1.1740191839635372e-02,1.7345546483993530e+00,-7.7661643736064434e-03,4.8082631081342697e-02,6.1722114562988281e+01,3.6466060555540025e-04,7.2613976895809174e-02,1.2185123050585389e-03,2.2541925311088562e-02,8.4737986326217651e-01,1.4502233825623989e-02,6.7353167105466127e-04,4.5494694709777832e+00,1.6412066295742989e-02,1.2736082077026367e-02],
"split_indices":[11,12,2,0,6,0,12,7,8,0,0,6,0,0,0,0,2,0,0,8,0,0,6,0,0],
"split_type":[0,0,0,0,0,0,0,0,0,0,0,0,0,0,0,0,0,0,0,0,0,0,0,0,0],
"sum_hessian":[0.0,0.0,0.0,0.0,0.0,0.0,0.0,0.0,0.0,0.0,0.0,0.0,0.0,0.0,0.0,0.0,0.0,0.0,0.0,0.0,0.0,0.0,0.0,0.0,0.0],
"tree_param":{"num_deleted":"0","num_feature":"13","num_nodes":"25","size_leaf_vector":"0"}
},
{
"base_weights":[0.0,0.0,0.0,0.0,0.0,0.0,0.0,0.0,0.0,0.0,0.0,0.0,0.0,0.0,0.0,0.0,0.0,0.0,0.0,0.0,0.0],
"categories":[],"categories_nodes":[],"categories_segments":[],"categories_sizes":[],
"default_left":[true,false,true,true,false,false,true,true,true,false,true,true,false,true,false,false,false,true,false,false,false],
"id":52,
"left_children":[1,-1,3,5,-1,-1,7,9,11,-1,13,15,-1,17,-1,-1,-1,19,-1,-1,-1],
"loss_changes":[0.0,0.0,0.0,0.0,0.0,0.0,0.0,0.0,0.0,0.0,0.0,0.0,0.0,0.0,0.0,0.0,0.0,0.0,0.0,0.0,0.0],
"parents":[2147483647,0,0,2,2,3,3,6,6,7,7,8,8,10,10,11,11,13,13,17,17],
"right_children":[2,-1,4,6,-1,-1,8,10,12,-1,14,16,-1,18,-1,-1,-1,20,-1,-1,-1],
"split_conditions":[4.4381731748580933e-01,2.2590249776840210e-02,2.3676589131355286e-01,2.3138427734375000e-01,-3.0520729720592499e-02,-1.8164752051234245e-02,6.2692654319107533e-03,2.3247917175292969e+01,4.5950529165565968e-03,-7.1438956074416637e-03,2.2263896465301514e+00,4.6072330325841904e-02,-2.9077345971018076e-04,2.5852801278233528e-02,2.1751958876848221e-02,8.9245308190584183e-03,1.8608089536428452e-02,1.8542669713497162e-03,1.9776346161961555e-02,3.4929141402244568e-02,1.3254823163151741e-02],
"split_indices":[8,0,7,12,0,0,7,0,4,0,9,2,0,2,0,0,0,7,0,0,0],
"split_type":[0,0,0,0,0,0,0,0,0,0,0,0,0,0,0,0,0,0,0,0,0],
"sum_hessian":[0.0,0.0,0.0,0.0,0.0,0.0,0.0,0.0,0.0,0.0,0.0,0.0,0.0,0.0,0.0,0.0,0.0,0.0,0.0,0.0,0.0],
"tree_param":{"num_deleted":"0","num_feature":"13","num_nodes":"21","size_leaf_vector":"0"}
},
{
"base_weights":[0.0,0.0,0.0,0.0,0.0,0.0,0.0,0.0,0.0,0.0,0.0,0.0,0.0,0.0,0.0,0.0,0.0,0.0,0.0],
"categories":[],"categories_nodes":[],"categories_segments":[],"categories_sizes":[],
"default_left":[true,true,false,true,false,true,true,false,false,false,true,false,true,true,false,false,true,false,false],
"id":53,
"left_children":[1,3,-1,5,-1,7,9,-1,-1,-1,11,-1,13,15,-1,-1,17,-1,-1],
"loss_changes":[0.0,0.0,0.0,0.0,0.0,0.0,0.0,0.0,0.0,0.0,0.0,0.0,0.0,0.0,0.0,0.0,0.0,0.0,0.0],
"parents":[2147483647,0,0,1,1,3,3,5,5,6,6,10,10,12,12,13,13,16,16],
"right_children":[2,4,-1,6,-1,8,10,-1,-1,-1,12,-1,14,16,-1,-1,18,-1,-1],
"split_conditions":[1.7091450095176697e-01,3.0144927501678467e+00,-2.4416662752628326e-02,9.9900043010711670e-01,2.1395582705736160e-02,5.1562838256359100e-02,9.9985706806182861e-01,-1.0971741750836372e-02,-4.9848402850329876e-03,-1.2539094313979149e-02,9.9997657537460327e-01,4.2439886601641774e-04,5.9940731152892113e-03,8.8588654994964600e-01,1.8544845283031464e-02,1.0558463633060455e-02,4.8590703010559082e+00,2.8512762859463692e-02,4.1911151260137558e-02],
"split_indices":[3,5,0,12,0,2,12,0,0,0,12,0,7,8,0,0,6,0,0],
"split_type":[0,0,0,0,0,0,0,0,0,0,0,0,0,0,0,0,0,0,0],
"sum_hessian":[0.0,0.0,0.0,0.0,0.0,0.0,0.0,0.0,0.0,0.0,0.0,0.0,0.0,0.0,0.0,0.0,0.0,0.0,0.0],
"tree_param":{"num_deleted":"0","num_feature":"13","num_nodes":"19","size_leaf_vector":"0"}
},
{
"base_weights":[0.0,0.0,0.0,0.0,0.0,0.0,0.0,0.0,0.0,0.0,0.0,0.0,0.0,0.0,0.0,0.0,0.0,0.0,0.0],
"categories":[],"categories_nodes":[],"categories_segments":[],"categories_sizes":[],
"default_left":[true,true,true,false,true,false,false,false,true,true,false,true,false,false,true,true,false,false,false],
"id":54,
"left_children":[1,3,5,-1,7,-1,-1,-1,9,11,-1,13,-1,-1,15,17,-1,-1,-1],
"loss_changes":[0.0,0.0,0.0,0.0,0.0,0.0,0.0,0.0,0.0,0.0,0.0,0.0,0.0,0.0,0.0,0.0,0.0,0.0,0.0],
"parents":[2147483647,0,0,1,1,2,2,4,4,8,8,9,9,11,11,14,14,15,15],
"right_children":[2,4,6,-1,8,-1,-1,-1,10,12,-1,14,-1,-1,16,18,-1,-1,-1],
"split_conditions":[3.5369596481323242e+00,-9.9900048971176147e-01,6.4928524196147919e-02,-3.2412674278020859e-02,5.6454509496688843e-01,7.3334877379238605e-04,-2.1990479901432991e-02,1.4840008690953255e-02,2.6386518031358719e-02,7.7820084989070892e-02,-3.9279726333916187e-03,2.0929534435272217e+00,8.4179248660802841e-03,1.0273801162838936e-02,1.1929203271865845e+00,-1.1395486593246460e+00,-3.8642182480543852e-03,-1.9022874766960740e-03,1.6152055934071541e-02],
"split_indices":[9,12,2,0,8,0,0,0,4,2,0,6,0,0,1,1,0,0,0],
"split_type":[0,0,0,0,0,0,0,0,0,0,0,0,0,0,0,0,0,0,0],
"sum_hessian":[0.0,0.0,0.0,0.0,0.0,0.0,0.0,0.0,0.0,0.0,0.0,0.0,0.0,0.0,0.0,0.0,0.0,0.0,0.0],
"tree_param":{"num_deleted":"0","num_feature":"13","num_nodes":"19","size_leaf_vector":"0"}
},
{
"base_weights":[0.0,0.0,0.0,0.0,0.0,0.0,0.0,0.0,0.0,0.0,0.0,0.0,0.0,0.0,0.0,0.0,0.0],
"categories":[],"categories_nodes":[],"categories_segments":[],"categories_sizes":[],
"default_left":[true,false,true,true,false,false,true,false,true,true,false,true,false,true,false,false,false],
"id":55,
"left_children":[1,-1,3,5,-1,-1,7,-1,9,11,-1,13,-1,15,-1,-1,-1],
"loss_changes":[0.0,0.0,0.0,0.0,0.0,0.0,0.0,0.0,0.0,0.0,0.0,0.0,0.0,0.0,0.0,0.0,0.0],
"parents":[2147483647,0,0,2,2,3,3,6,6,8,8,9,9,11,11,13,13],
"right_children":[2,-1,4,6,-1,-1,8,-1,10,12,-1,14,-1,16,-1,-1,-1],
"split_conditions":[4.4381731748580933e-01,1.9929865375161171e-02,2.3426836729049683e-01,-9.9300348758697510e-01,-2.8301090002059937e-02,-3.6491509526968002e-02,1.6389510128647089e-03,-6.2597468495368958e-03,8.9688390493392944e-02,2.8497095108032227e+00,1.1577145196497440e-02,1.1629412174224854e+00,1.3587328605353832e-02,-1.1469483375549316e+00,-2.5318257976323366e-03,-2.3684198968112469e-03,1.3534952886402607e-02],
"split_indices":[8,0,7,12,0,0,7,0,2,9,0,1,0,1,0,0,0],
"split_type":[0,0,0,0,0,0,0,0,0,0,0,0,0,0,0,0,0],
"sum_hessian":[0.0,0.0,0.0,0.0,0.0,0.0,0.0,0.0,0.0,0.0,0.0,0.0,0.0,0.0,0.0,0.0,0.0],
"tree_param":{"num_deleted":"0","num_feature":"13","num_nodes":"17","size_leaf_vector":"0"}
},
{
"base_weights":[0.0,0.0,0.0,0.0,0.0,0.0,0.0,0.0,0.0,0.0,0.0,0.0,0.0,0.0,0.0,0.0,0.0,0.0,0.0,0.0,0.0,0.0,0.0],
"categories":[],"categories_nodes":[],"categories_segments":[],"categories_sizes":[],
"default_left":[true,true,true,true,false,false,true,false,true,true,false,false,true,true,false,false,true,false,false,true,false,false,false],
"id":56,
"left_children":[1,3,5,7,-1,-1,9,-1,11,13,-1,-1,15,17,-1,-1,19,-1,-1,21,-1,-1,-1],
"loss_changes":[0.0,0.0,0.0,0.0,0.0,0.0,0.0,0.0,0.0,0.0,0.0,0.0,0.0,0.0,0.0,0.0,0.0,0.0,0.0,0.0,0.0,0.0,0.0],
"parents":[2147483647,0,0,1,1,2,2,3,3,6,6,8,8,9,9,12,12,13,13,16,16,19,19],
"right_children":[2,4,6,8,-1,-1,10,-1,12,14,-1,-1,16,18,-1,-1,20,-1,-1,22,-1,-1,-1],
"split_conditions":[7.8040981292724609e+00,2.7223083376884460e-01,7.8232854604721069e-01,6.8231016397476196e-01,-2.7930120006203651e-02,3.9118658751249313e-02,4.9950610846281052e-03,-8.5838837549090385e-03,9.9500244855880737e-01,9.6421670913696289e-01,-1.1277168057858944e-02,-1.9643208943307400e-03,9.9993252754211426e-01,9.2968839406967163e-01,3.3879112452268600e-03,-2.2513282019644976e-03,6.6659785807132721e-03,9.8229264840483665e-03,2.6312980800867081e-02,9.3468797206878662e-01,2.3514032363891602e-02,1.1504869908094406e-02,2.6400547474622726e-02],
"split_indices":[6,7,8,8,0,0,7,0,12,8,0,0,12,8,0,0,7,0,0,8,0,0,0],
"split_type":[0,0,0,0,0,0,0,0,0,0,0,0,0,0,0,0,0,0,0,0,0,0,0],
"sum_hessian":[0.0,0.0,0.0,0.0,0.0,0.0,0.0,0.0,0.0,0.0,0.0,0.0,0.0,0.0,0.0,0.0,0.0,0.0,0.0,0.0,0.0,0.0,0.0],
"tree_param":{"num_deleted":"0","num_feature":"13","num_nodes":"23","size_leaf_vector":"0"}
},
{
"base_weights":[0.0,0.0,0.0,0.0,0.0,0.0,0.0,0.0,0.0,0.0,0.0,0.0,0.0,0.0,0.0,0.0,0.0,0.0,0.0,0.0,0.0,0.0,0.0],
"categories":[],"categories_nodes":[],"categories_segments":[],"categories_sizes":[],
"default_left":[true,true,true,true,false,false,true,false,true,true,true,false,false,false,false,false,true,true,false,true,false,false,false],
"id":57,
"left_children":[1,3,5,7,-1,-1,9,-1,11,13,15,-1,-1,-1,-1,-1,17,19,-1,21,-1,-1,-1],
"loss_changes":[0.0,0.0,0.0,0.0,0.0,0.0,0.0,0.0,0.0,0.0,0.0,0.0,0.0,0.0,0.0,0.0,0.0,0.0,0.0,0.0,0.0,0.0,0.0],
"parents":[2147483647,0,0,1,1,2,2,3,3,6,6,8,8,9,9,10,10,16,16,17,17,19,19],
"right_children":[2,4,6,8,-1,-1,10,-1,12,14,16,-1,-1,-1,-1,-1,18,20,-1,22,-1,-1,-1],
"split_conditions":[2.9265367984771729e+00,8.6638683080673218e-01,5.4899120330810547e-01,1.2265741825103760e+00,1.0346947237849236e-02,3.2639488577842712e-02,9.9900043010711670e-01,-2.3119412362575531e-02,1.0074962377548218e+00,1.1099342256784439e-01,9.9996745586395264e-01,6.5183914266526699e-03,-1.9532395526766777e-02,-1.1668998748064041e-02,-7.2603966109454632e-03,-7.8062433749437332e-03,-5.3705167770385742e+00,3.9960490539669991e-03,2.3018606007099152e-02,9.4009715318679810e-01,1.8771741539239883e-02,4.2386509478092194e-02,3.7322871387004852e-02],
"split_indices":[6,8,8,6,0,0,12,0,5,2,12,0,0,0,0,0,11,7,0,8,0,0,0],
"split_type":[0,0,0,0,0,0,0,0,0,0,0,0,0,0,0,0,0,0,0,0,0,0,0],
"sum_hessian":[0.0,0.0,0.0,0.0,0.0,0.0,0.0,0.0,0.0,0.0,0.0,0.0,0.0,0.0,0.0,0.0,0.0,0.0,0.0,0.0,0.0,0.0,0.0],
"tree_param":{"num_deleted":"0","num_feature":"13","num_nodes":"23","size_leaf_vector":"0"}
},
{
"base_weights":[0.0,0.0,0.0,0.0,0.0,0.0,0.0,0.0,0.0,0.0,0.0,0.0,0.0,0.0,0.0,0.0,0.0,0.0,0.0,0.0,0.0,0.0,0.0,0.0,0.0],
"categories":[],"categories_nodes":[],"categories_segments":[],"categories_sizes":[],
"default_left":[true,true,true,true,false,false,true,true,false,true,false,true,false,true,false,true,false,false,false,false,true,false,true,false,false],
"id":58,
"left_children":[1,3,5,7,-1,-1,9,11,-1,13,-1,15,-1,17,-1,19,-1,-1,-1,-1,21,-1,23,-1,-1],
"loss_changes":[0.0,0.0,0.0,0.0,0.0,0.0,0.0,0.0,0.0,0.0,0.0,0.0,0.0,0.0,0.0,0.0,0.0,0.0,0.0,0.0,0.0,0.0,0.0,0.0,0.0],
"parents":[2147483647,0,0,1,1,2,2,3,3,6,6,7,7,9,9,11,11,13,13,15,15,20,20,22,22],
"right_children":[2,4,6,8,-1,-1,10,12,-1,14,-1,16,-1,18,-1,20,-1,-1,-1,-1,22,-1,24,-1,-1],
"split_conditions":[-5.6370601654052734e+00,3.0074963569641113e+00,1.6272113800048828e+01,1.7191216349601746e-02,1.8194226548075676e-02,-1.2308687902987003e-02,9.7935972735285759e-03,1.1629412174224854e+00,-5.0633344799280167e-03,3.3982689492404461e-03,-1.3445043936371803e-02,5.1639918237924576e-02,-3.3673760481178761e-03,2.0583872795104980e+00,-3.2676104456186295e-03,3.4302847385406494e+00,9.3693984672427177e-03,4.4823614880442619e-03,9.7662322223186493e-03,1.0993693955242634e-02,4.2700325012207031e+01,3.7251680623739958e-03,9.5328450202941895e-01,2.1582055836915970e-02,1.3616026379168034e-02],
"split_indices":[11,5,0,4,0,0,3,1,0,4,0,2,0,9,0,6,0,0,0,0,0,0,8,0,0],
"split_type":[0,0,0,0,0,0,0,0,0,0,0,0,0,0,0,0,0,0,0,0,0,0,0,0,0],
"sum_hessian":[0.0,0.0,0.0,0.0,0.0,0.0,0.0,0.0,0.0,0.0,0.0,0.0,0.0,0.0,0.0,0.0,0.0,0.0,0.0,0.0,0.0,0.0,0.0,0.0,0.0],
"tree_param":{"num_deleted":"0","num_feature":"13","num_nodes":"25","size_leaf_vector":"0"}
},
{
"base_weights":[0.0,0.0,0.0,0.0,0.0,0.0,0.0,0.0,0.0,0.0,0.0,0.0,0.0,0.0,0.0,0.0,0.0],
"categories":[],"categories_nodes":[],"categories_segments":[],"categories_sizes":[],
"default_left":[true,true,false,true,false,true,false,false,true,false,true,true,false,false,true,false,false],
"id":59,
"left_children":[1,3,-1,5,-1,7,-1,-1,9,-1,11,13,-1,-1,15,-1,-1],
"loss_changes":[0.0,0.0,0.0,0.0,0.0,0.0,0.0,0.0,0.0,0.0,0.0,0.0,0.0,0.0,0.0,0.0,0.0],
"parents":[2147483647,0,0,1,1,3,3,5,5,8,8,10,10,11,11,14,14],
"right_children":[2,4,-1,6,-1,8,-1,-1,10,-1,12,14,-1,-1,16,-1,-1],
"split_conditions":[1.7851069569587708e-01,3.0074963569641113e+00,-2.2474488243460655e-02,1.0839282721281052e-01,1.7684137448668480e-02,7.5712138414382935e-01,-1.1908782646059990e-02,-1.1841611936688423e-02,9.9975717067718506e-01,-2.3152390494942665e-03,6.2804291956126690e-03,8.6453509330749512e-01,1.6758639365434647e-02,-5.2020102739334106e-03,3.2983508110046387e+00,1.5920706093311310e-02,2.6685152202844620e-02],
"split_indices":[3,5,0,7,0,12,0,0,12,0,7,8,0,0,6,0,0],
"split_type":[0,0,0,0,0,0,0,0,0,0,0,0,0,0,0,0,0],
"sum_hessian":[0.0,0.0,0.0,0.0,0.0,0.0,0.0,0.0,0.0,0.0,0.0,0.0,0.0,0.0,0.0,0.0,0.0],
"tree_param":{"num_deleted":"0","num_feature":"13","num_nodes":"17","size_leaf_vector":"0"}
},
{
"base_weights":[0.0,0.0,0.0,0.0,0.0,0.0,0.0,0.0,0.0,0.0,0.0,0.0,0.0,0.0,0.0,0.0,0.0,0.0,0.0,0.0,0.0,0.0,0.0,0.0,0.0],
"categories":[],"categories_nodes":[],"categories_segments":[],"categories_sizes":[],
"default_left":[true,true,false,false,true,true,true,true,true,false,true,true,true,false,false,false,true,true,false,false,false,false,false,false,false],
"id":60,
"left_children":[1,3,-1,-1,5,7,9,11,13,-1,15,17,19,-1,-1,-1,21,23,-1,-1,-1,-1,-1,-1,-1],
"loss_changes":[0.0,0.0,0.0,0.0,0.0,0.0,0.0,0.0,0.0,0.0,0.0,0.0,0.0,0.0,0.0,0.0,0.0,0.0,0.0,0.0,0.0,0.0,0.0,0.0,0.0],
"parents":[2147483647,0,0,1,1,4,4,5,5,6,6,7,7,8,8,10,10,11,11,12,12,16,16,17,17],
"right_children":[2,4,-1,-1,6,8,10,12,14,-1,16,18,20,-1,-1,-1,22,24,-1,-1,-1,-1,-1,-1,-1],
"split_conditions":[3.8925714492797852e+00,-9.9900048971176147e-01,-1.1806439608335495e-02,-3.0186872929334641e-02,7.6101946830749512e+00,1.0024987459182739e+00,8.7460058927536011e-01,3.9396862983703613e+00,3.3516662120819092e+00,3.7821747362613678e-02,5.7067508697509766e+01,9.1841495037078857e-01,3.6374954223632812e+01,-1.2216583825647831e-02,5.2326903678476810e-03,-7.7132894657552242e-03,1.1861028671264648e+00,1.9657983779907227e+00,1.6055565327405930e-02,5.4227374494075775e-04,7.2749219834804535e-03,8.4579652175307274e-03,1.6665412113070488e-02,-4.2984151514247060e-04,1.0431618429720402e-02],
"split_indices":[9,12,0,0,6,5,8,6,6,0,0,8,0,0,0,0,9,6,0,0,0,0,0,0,0],
"split_type":[0,0,0,0,0,0,0,0,0,0,0,0,0,0,0,0,0,0,0,0,0,0,0,0,0],
"sum_hessian":[0.0,0.0,0.0,0.0,0.0,0.0,0.0,0.0,0.0,0.0,0.0,0.0,0.0,0.0,0.0,0.0,0.0,0.0,0.0,0.0,0.0,0.0,0.0,0.0,0.0],
"tree_param":{"num_deleted":"0","num_feature":"13","num_nodes":"25","size_leaf_vector":"0"}
},
{
"base_weights":[0.0,0.0,0.0,0.0,0.0,0.0,0.0,0.0,0.0,0.0,0.0,0.0,0.0,0.0,0.0,0.0,0.0],
"categories":[],"categories_nodes":[],"categories_segments":[],"categories_sizes":[],
"default_left":[true,false,true,true,false,false,true,false,true,true,false,true,false,false,true,false,false],
"id":61,
"left_children":[1,-1,3,5,-1,-1,7,-1,9,11,-1,13,-1,-1,15,-1,-1],
"loss_changes":[0.0,0.0,0.0,0.0,0.0,0.0,0.0,0.0,0.0,0.0,0.0,0.0,0.0,0.0,0.0,0.0,0.0],
"parents":[2147483647,0,0,2,2,3,3,6,6,8,8,9,9,11,11,14,14],
"right_children":[2,-1,4,6,-1,-1,8,-1,10,12,-1,14,-1,-1,16,-1,-1],
"split_conditions":[4.4381731748580933e-01,1.6558313742280006e-02,2.3676589131355286e-01,-9.9600201845169067e-01,-2.4964751675724983e-02,-3.6120388656854630e-02,1.6560322837904096e-03,-6.0024335980415344e-03,8.9688390493392944e-02,2.9336180686950684e+00,1.1511747725307941e-02,-1.1454534530639648e+00,1.1863132938742638e-02,-3.6307654809206724e-03,1.1024389266967773e+00,1.0139418765902519e-02,-2.9022947419434786e-03],
"split_indices":[8,0,7,12,0,0,7,0,2,9,0,1,0,0,1,0,0],
"split_type":[0,0,0,0,0,0,0,0,0,0,0,0,0,0,0,0,0],
"sum_hessian":[0.0,0.0,0.0,0.0,0.0,0.0,0.0,0.0,0.0,0.0,0.0,0.0,0.0,0.0,0.0,0.0,0.0],
"tree_param":{"num_deleted":"0","num_feature":"13","num_nodes":"17","size_leaf_vector":"0"}
},
{
"base_weights":[0.0,0.0,0.0,0.0,0.0,0.0,0.0,0.0,0.0,0.0,0.0,0.0,0.0,0.0,0.0,0.0,0.0,0.0,0.0,0.0,0.0,0.0,0.0],
"categories":[],"categories_nodes":[],"categories_segments":[],"categories_sizes":[],
"default_left":[true,true,true,true,false,true,true,false,true,false,false,false,false,false,true,false,true,true,false,true,false,false,false],
"id":62,
"left_children":[1,3,5,7,-1,9,11,-1,13,-1,-1,-1,-1,-1,15,-1,17,19,-1,21,-1,-1,-1],
"loss_changes":[0.0,0.0,0.0,0.0,0.0,0.0,0.0,0.0,0.0,0.0,0.0,0.0,0.0,0.0,0.0,0.0,0.0,0.0,0.0,0.0,0.0,0.0,0.0],
"parents":[2147483647,0,0,1,1,2,2,3,3,5,5,6,6,8,8,14,14,16,16,17,17,19,19],
"right_children":[2,4,6,8,-1,10,12,-1,14,-1,-1,-1,-1,-1,16,-1,18,20,-1,22,-1,-1,-1],
"split_conditions":[-5.9326338768005371e+00,3.0074963569641113e+00,8.4229296445846558e-01,9.9900043010711670e-01,1.7433721572160721e-02,8.1709134578704834e-01,4.8775610923767090e+00,-4.7252671793103218e-03,9.9994349479675293e-01,-7.5685484334826469e-03,-1.1623564176261425e-02,6.7853811196982861e-03,-5.9512909501791000e-03,-7.8593194484710693e-03,2.6277072906494141e+01,1.4116314239799976e-02,2.9970365576446056e-03,-5.9692645072937012e+00,2.4115873500704765e-02,8.0984506607055664e+00,4.0267642587423325e-02,4.3447058647871017e-02,3.8088034838438034e-02],
"split_indices":[10,5,8,12,0,12,6,0,12,0,0,0,0,0,0,0,7,11,0,6,0,0,0],
"split_type":[0,0,0,0,0,0,0,0,0,0,0,0,0,0,0,0,0,0,0,0,0,0,0],
"sum_hessian":[0.0,0.0,0.0,0.0,0.0,0.0,0.0,0.0,0.0,0.0,0.0,0.0,0.0,0.0,0.0,0.0,0.0,0.0,0.0,0.0,0.0,0.0,0.0],
"tree_param":{"num_deleted":"0","num_feature":"13","num_nodes":"23","size_leaf_vector":"0"}
},
{
"base_weights":[0.0,0.0,0.0,0.0,0.0,0.0,0.0,0.0,0.0,0.0,0.0,0.0,0.0,0.0,0.0,0.0,0.0],
"categories":[],"categories_nodes":[],"categories_segments":[],"categories_sizes":[],
"default_left":[true,false,true,false,true,true,false,false,true,true,false,true,false,false,true,false,false],
"id":63,
"left_children":[1,-1,3,-1,5,7,-1,-1,9,11,-1,13,-1,-1,15,-1,-1],
"loss_changes":[0.0,0.0,0.0,0.0,0.0,0.0,0.0,0.0,0.0,0.0,0.0,0.0,0.0,0.0,0.0,0.0,0.0],
"parents":[2147483647,0,0,2,2,4,4,5,5,8,8,9,9,11,11,14,14],
"right_children":[2,-1,4,-1,6,8,-1,-1,10,12,-1,14,-1,-1,16,-1,-1],
"split_conditions":[1.3620269775390625e+01,-9.7640221938490868e-03,4.8802730441093445e-01,2.0324390381574631e-02,1.6084097325801849e-01,-9.9300348758697510e-01,-2.0691195502877235e-02,-3.3822283148765564e-02,8.6466759443283081e-02,2.8057575225830078e+00,8.0266883596777916e-03,1.8478919519111514e-03,1.0068004019558430e-02,1.9613802433013916e-02,-1.1454534530639648e+00,-4.4074291363358498e-03,3.6231107078492641e-03],
"split_indices":[0,0,8,0,7,12,0,0,2,9,0,7,0,0,1,0,0],
"split_type":[0,0,0,0,0,0,0,0,0,0,0,0,0,0,0,0,0],
"sum_hessian":[0.0,0.0,0.0,0.0,0.0,0.0,0.0,0.0,0.0,0.0,0.0,0.0,0.0,0.0,0.0,0.0,0.0],
"tree_param":{"num_deleted":"0","num_feature":"13","num_nodes":"17","size_leaf_vector":"0"}
},
{
"base_weights":[0.0,0.0,0.0,0.0,0.0,0.0,0.0,0.0,0.0,0.0,0.0,0.0,0.0,0.0,0.0,0.0,0.0,0.0,0.0],
"categories":[],"categories_nodes":[],"categories_segments":[],"categories_sizes":[],
"default_left":[true,true,false,true,false,false,true,false,true,true,false,false,true,true,true,false,false,false,false],
"id":64,
"left_children":[1,3,-1,5,-1,-1,7,-1,9,11,-1,-1,13,15,17,-1,-1,-1,-1],
"loss_changes":[0.0,0.0,0.0,0.0,0.0,0.0,0.0,0.0,0.0,0.0,0.0,0.0,0.0,0.0,0.0,0.0,0.0,0.0,0.0],
"parents":[2147483647,0,0,1,1,3,3,6,6,8,8,9,9,12,12,13,13,14,14],
"right_children":[2,4,-1,6,-1,-1,8,-1,10,12,-1,-1,14,16,18,-1,-1,-1,-1],
